<?xml version="1.0"?>
<MethodSetup Method="BDT::BDT">
  <GeneralInfo>
    <Info name="TMVA Release" value="4.2.1 [262657]"/>
    <Info name="ROOT Release" value="6.24/06 [399366]"/>
    <Info name="Creator" value="vince402"/>
    <Info name="Date" value="Thu Oct 21 14:23:06 2021"/>
    <Info name="Host" value="Linux kunpl 5.4.0-88-generic #99-Ubuntu SMP Thu Sep 23 17:29:00 UTC 2021 x86_64 x86_64 x86_64 GNU/Linux"/>
    <Info name="Dir" value="/home/vince402/Upsilon3S/BDT"/>
    <Info name="Training events" value="165609"/>
    <Info name="TrainingTime" value="1.84693179e+01"/>
    <Info name="AnalysisType" value="Classification"/>
  </GeneralInfo>
  <Options>
    <Option name="V" modified="Yes">False</Option>
    <Option name="VerbosityLevel" modified="No">Default</Option>
    <Option name="VarTransform" modified="No">None</Option>
    <Option name="H" modified="Yes">False</Option>
    <Option name="CreateMVAPdfs" modified="Yes">True</Option>
    <Option name="IgnoreNegWeightsInTraining" modified="No">False</Option>
    <Option name="NTrees" modified="Yes">300</Option>
    <Option name="MaxDepth" modified="Yes">2</Option>
    <Option name="MinNodeSize" modified="Yes">15%</Option>
    <Option name="nCuts" modified="Yes">4000</Option>
    <Option name="BoostType" modified="Yes">AdaBoost</Option>
    <Option name="AdaBoostR2Loss" modified="No">quadratic</Option>
    <Option name="UseBaggedBoost" modified="Yes">True</Option>
    <Option name="Shrinkage" modified="No">1.000000e+00</Option>
    <Option name="AdaBoostBeta" modified="Yes">7.000000e-01</Option>
    <Option name="UseRandomisedTrees" modified="Yes">False</Option>
    <Option name="UseNvars" modified="No">3</Option>
    <Option name="UsePoissonNvars" modified="No">True</Option>
    <Option name="BaggedSampleFraction" modified="Yes">4.000000e-01</Option>
    <Option name="UseYesNoLeaf" modified="No">True</Option>
    <Option name="NegWeightTreatment" modified="No">inverseboostnegweights</Option>
    <Option name="Css" modified="No">1.000000e+00</Option>
    <Option name="Cts_sb" modified="No">1.000000e+00</Option>
    <Option name="Ctb_ss" modified="No">1.000000e+00</Option>
    <Option name="Cbb" modified="No">1.000000e+00</Option>
    <Option name="NodePurityLimit" modified="No">5.000000e-01</Option>
    <Option name="SeparationType" modified="Yes">giniindex</Option>
    <Option name="RegressionLossFunctionBDTG" modified="No">huber</Option>
    <Option name="HuberQuantile" modified="No">7.000000e-01</Option>
    <Option name="DoBoostMonitor" modified="No">False</Option>
    <Option name="UseFisherCuts" modified="No">False</Option>
    <Option name="MinLinCorrForFisher" modified="No">8.000000e-01</Option>
    <Option name="UseExclusiveVars" modified="No">False</Option>
    <Option name="DoPreselection" modified="No">False</Option>
    <Option name="SigToBkgFraction" modified="No">1.000000e+00</Option>
    <Option name="PruneMethod" modified="Yes">costcomplexity</Option>
    <Option name="PruneStrength" modified="Yes">1.000000e+00</Option>
    <Option name="PruningValFraction" modified="Yes">3.000000e-01</Option>
    <Option name="SkipNormalization" modified="No">False</Option>
    <Option name="nEventsMin" modified="No">0</Option>
    <Option name="UseBaggedGrad" modified="No">False</Option>
    <Option name="GradBaggingFraction" modified="No">4.000000e-01</Option>
    <Option name="UseNTrainEvents" modified="No">0</Option>
    <Option name="NNodesMax" modified="No">0</Option>
  </Options>
  <Variables NVar="7">
    <Variable VarIndex="0" Expression="QQMassErr" Label="QQMassErr" Title="Dimu Mass error" Unit="F" Internal="QQMassErr" Type="F" Min="1.20938048e-02" Max="1.12100983e+02"/>
    <Variable VarIndex="1" Expression="ctau3D" Label="ctau3D" Title="3 dim ctau of the dimuon" Unit="F" Internal="ctau3D" Type="F" Min="-1.72683258e+01" Max="2.02971344e+01"/>
    <Variable VarIndex="2" Expression="ctau" Label="ctau" Title="2 dim ctau of the dimuon" Unit="F" Internal="ctau" Type="F" Min="-1.93310947e+01" Max="1.65425186e+01"/>
    <Variable VarIndex="3" Expression="QQVtxProb" Label="QQVtxProb" Title="Vtx prob" Unit="F" Internal="QQVtxProb" Type="F" Min="0.00000000e+00" Max="9.99995530e-01"/>
    <Variable VarIndex="4" Expression="QQdca" Label="QQdca" Title="QQdca" Unit="F" Internal="QQdca" Type="F" Min="0.00000000e+00" Max="1.99306602e+01"/>
    <Variable VarIndex="5" Expression="cosAlpha" Label="cosAlpha" Title="cos alpha for trajectory angle" Unit="F" Internal="cosAlpha" Type="F" Min="-1.00000000e+00" Max="1.00000000e+00"/>
    <Variable VarIndex="6" Expression="cosAlpha3D" Label="cosAlpha3D" Title="cos alpha for trajectory angle 3D" Unit="F" Internal="cosAlpha3D" Type="F" Min="-9.99999404e-01" Max="1.00000000e+00"/>
  </Variables>
  <Spectators NSpec="8">
    <Spectator SpecIndex="0" Expression="pt1" Label="pt1" Title="Single muon pt1" Unit="F" Internal="pt1" Type="F" Min="3.50009060e+00" Max="1.87297211e+01"/>
    <Spectator SpecIndex="1" Expression="pt2" Label="pt2" Title="Single muon pt2" Unit="F" Internal="pt2" Type="F" Min="3.50004005e+00" Max="1.85753670e+01"/>
    <Spectator SpecIndex="2" Expression="eta1" Label="eta1" Title="Single muon eta1" Unit="F" Internal="eta1" Type="F" Min="-2.39999175e+00" Max="2.39999604e+00"/>
    <Spectator SpecIndex="3" Expression="eta2" Label="eta2" Title="Single muon eta2" Unit="F" Internal="eta2" Type="F" Min="-2.39997864e+00" Max="2.39998412e+00"/>
    <Spectator SpecIndex="4" Expression="cBin" Label="cBin" Title="Centrality times 2 bin" Unit="F" Internal="cBin" Type="F" Min="1.00000000e+00" Max="1.80000000e+02"/>
    <Spectator SpecIndex="5" Expression="mass" Label="mass" Title="Dimuon mass" Unit="F" Internal="mass" Type="F" Min="8.00220394e+00" Max="1.14993372e+01"/>
    <Spectator SpecIndex="6" Expression="pt" Label="pt" Title="Dimuon pt" Unit="F" Internal="pt" Type="F" Min="1.20000105e+01" Max="1.99999504e+01"/>
    <Spectator SpecIndex="7" Expression="y" Label="y" Title="Dimuon y" Unit="F" Internal="y" Type="F" Min="-2.39061451e+00" Max="2.39025855e+00"/>
  </Spectators>
  <Classes NClass="2">
    <Class Name="Signal" Index="0"/>
    <Class Name="Background" Index="1"/>
  </Classes>
  <Transformations NTransformations="0"/>
  <MVAPdfs>
    <PDF Name="BDT_PDFSig" MinNSmooth="0" MaxNSmooth="0" InterpolMethod="2" KDE_type="1" KDE_iter="1" KDE_border="1" KDE_finefactor="1.0000000000000000e+00">
      <Histogram Name="BDT_tr_S_original" NBins="3312" XMin="-2.9865711927413940e-01" XMax="5.3798031806945801e-01" HasEquidistantBins="1">
        0.00000000e+00 0.00000000e+00 0.00000000e+00 0.00000000e+00 0.00000000e+00 0.00000000e+00 0.00000000e+00 0.00000000e+00 0.00000000e+00 0.00000000e+00 0.00000000e+00 0.00000000e+00 0.00000000e+00 0.00000000e+00 0.00000000e+00 0.00000000e+00 0.00000000e+00 0.00000000e+00 0.00000000e+00 0.00000000e+00 0.00000000e+00 0.00000000e+00 0.00000000e+00 0.00000000e+00 0.00000000e+00 0.00000000e+00 0.00000000e+00 0.00000000e+00 0.00000000e+00 0.00000000e+00 0.00000000e+00 0.00000000e+00 0.00000000e+00 0.00000000e+00 0.00000000e+00 0.00000000e+00 0.00000000e+00 0.00000000e+00 0.00000000e+00 0.00000000e+00 0.00000000e+00 0.00000000e+00 0.00000000e+00 0.00000000e+00 0.00000000e+00 0.00000000e+00 0.00000000e+00 0.00000000e+00 0.00000000e+00 0.00000000e+00 0.00000000e+00 0.00000000e+00 0.00000000e+00 0.00000000e+00 0.00000000e+00 0.00000000e+00 0.00000000e+00 0.00000000e+00 0.00000000e+00 0.00000000e+00 0.00000000e+00 0.00000000e+00 0.00000000e+00 0.00000000e+00 0.00000000e+00 0.00000000e+00 0.00000000e+00 0.00000000e+00 0.00000000e+00 0.00000000e+00 0.00000000e+00 0.00000000e+00 0.00000000e+00 0.00000000e+00 0.00000000e+00 0.00000000e+00 0.00000000e+00 0.00000000e+00 0.00000000e+00 0.00000000e+00 0.00000000e+00 0.00000000e+00 0.00000000e+00 0.00000000e+00 0.00000000e+00 0.00000000e+00 0.00000000e+00 0.00000000e+00 0.00000000e+00 0.00000000e+00 0.00000000e+00 0.00000000e+00 0.00000000e+00 0.00000000e+00 0.00000000e+00 0.00000000e+00 0.00000000e+00 0.00000000e+00 0.00000000e+00 0.00000000e+00 0.00000000e+00 0.00000000e+00 0.00000000e+00 0.00000000e+00 0.00000000e+00 0.00000000e+00 0.00000000e+00 0.00000000e+00 0.00000000e+00 0.00000000e+00 0.00000000e+00 0.00000000e+00 0.00000000e+00 0.00000000e+00 0.00000000e+00 0.00000000e+00 0.00000000e+00 0.00000000e+00 0.00000000e+00 0.00000000e+00 0.00000000e+00 0.00000000e+00 0.00000000e+00 0.00000000e+00 0.00000000e+00 0.00000000e+00 0.00000000e+00 0.00000000e+00 0.00000000e+00 0.00000000e+00 0.00000000e+00 0.00000000e+00 0.00000000e+00 0.00000000e+00 0.00000000e+00 0.00000000e+00 0.00000000e+00 0.00000000e+00 0.00000000e+00 0.00000000e+00 0.00000000e+00 0.00000000e+00 0.00000000e+00 0.00000000e+00 0.00000000e+00 0.00000000e+00 0.00000000e+00 0.00000000e+00 0.00000000e+00 0.00000000e+00 0.00000000e+00 0.00000000e+00 0.00000000e+00 0.00000000e+00 0.00000000e+00 0.00000000e+00 0.00000000e+00 0.00000000e+00 0.00000000e+00 0.00000000e+00 0.00000000e+00 0.00000000e+00 0.00000000e+00 0.00000000e+00 0.00000000e+00 0.00000000e+00 0.00000000e+00 0.00000000e+00 0.00000000e+00 0.00000000e+00 0.00000000e+00 0.00000000e+00 0.00000000e+00 0.00000000e+00 0.00000000e+00 0.00000000e+00 0.00000000e+00 0.00000000e+00 0.00000000e+00 0.00000000e+00 0.00000000e+00 0.00000000e+00 0.00000000e+00 0.00000000e+00 0.00000000e+00 0.00000000e+00 0.00000000e+00 0.00000000e+00 0.00000000e+00 0.00000000e+00 0.00000000e+00 0.00000000e+00 0.00000000e+00 0.00000000e+00 0.00000000e+00 0.00000000e+00 0.00000000e+00 0.00000000e+00 0.00000000e+00 0.00000000e+00 0.00000000e+00 0.00000000e+00 0.00000000e+00 0.00000000e+00 0.00000000e+00 0.00000000e+00 0.00000000e+00 0.00000000e+00 0.00000000e+00 7.37731285e-02 0.00000000e+00 6.56183885e-03 0.00000000e+00 0.00000000e+00 0.00000000e+00 0.00000000e+00 0.00000000e+00 0.00000000e+00 0.00000000e+00 0.00000000e+00 0.00000000e+00 0.00000000e+00 0.00000000e+00 0.00000000e+00 0.00000000e+00 0.00000000e+00 0.00000000e+00 0.00000000e+00 0.00000000e+00 0.00000000e+00 0.00000000e+00 0.00000000e+00 0.00000000e+00 0.00000000e+00 0.00000000e+00 0.00000000e+00 0.00000000e+00 0.00000000e+00 7.65107443e-02 0.00000000e+00 2.48498857e-02 0.00000000e+00 0.00000000e+00 0.00000000e+00 0.00000000e+00 0.00000000e+00 0.00000000e+00 0.00000000e+00 0.00000000e+00 0.00000000e+00 0.00000000e+00 0.00000000e+00 0.00000000e+00 0.00000000e+00 0.00000000e+00 0.00000000e+00 0.00000000e+00 8.79749094e-02 0.00000000e+00 0.00000000e+00 0.00000000e+00 0.00000000e+00 0.00000000e+00 0.00000000e+00 0.00000000e+00 0.00000000e+00 0.00000000e+00 0.00000000e+00 0.00000000e+00 3.39446391e-02 2.06935482e-03 0.00000000e+00 0.00000000e+00 0.00000000e+00 0.00000000e+00 0.00000000e+00 0.00000000e+00 0.00000000e+00 0.00000000e+00 5.52194017e-03 0.00000000e+00 1.72062517e-01 0.00000000e+00 6.17666424e-02 0.00000000e+00 1.56870957e-03 2.92447630e-02 0.00000000e+00 0.00000000e+00 0.00000000e+00 0.00000000e+00 0.00000000e+00 0.00000000e+00 0.00000000e+00 0.00000000e+00 0.00000000e+00 0.00000000e+00 0.00000000e+00 0.00000000e+00 1.71502266e-03 0.00000000e+00 0.00000000e+00 0.00000000e+00 0.00000000e+00 7.24025018e-02 0.00000000e+00 0.00000000e+00 0.00000000e+00 0.00000000e+00 8.36274402e-02 0.00000000e+00 0.00000000e+00 0.00000000e+00 0.00000000e+00 0.00000000e+00 0.00000000e+00 6.07862337e-02 0.00000000e+00 0.00000000e+00 4.69336265e-02 0.00000000e+00 2.16011408e-02 0.00000000e+00 0.00000000e+00 0.00000000e+00 0.00000000e+00 0.00000000e+00 0.00000000e+00 0.00000000e+00 0.00000000e+00 3.27024440e-02 0.00000000e+00 0.00000000e+00 0.00000000e+00 0.00000000e+00 0.00000000e+00 0.00000000e+00 2.88016274e-02 0.00000000e+00 0.00000000e+00 0.00000000e+00 0.00000000e+00 0.00000000e+00 0.00000000e+00 0.00000000e+00 5.66718644e-02 0.00000000e+00 0.00000000e+00 0.00000000e+00 0.00000000e+00 0.00000000e+00 1.83041419e-02 0.00000000e+00 0.00000000e+00 2.78037277e-03 4.95409081e-02 0.00000000e+00 0.00000000e+00 0.00000000e+00 0.00000000e+00 0.00000000e+00 0.00000000e+00 1.54804380e-01 0.00000000e+00 0.00000000e+00 0.00000000e+00 0.00000000e+00 0.00000000e+00 0.00000000e+00 0.00000000e+00 0.00000000e+00 0.00000000e+00 0.00000000e+00 4.09833216e-02 0.00000000e+00 0.00000000e+00 1.23473333e-02 0.00000000e+00 0.00000000e+00 2.94008326e-02 7.76310923e-02 0.00000000e+00 0.00000000e+00 0.00000000e+00 2.95124360e-03 0.00000000e+00 0.00000000e+00 0.00000000e+00 8.05221517e-02 0.00000000e+00 0.00000000e+00 3.83186909e-04 0.00000000e+00 0.00000000e+00 0.00000000e+00 6.87030454e-04 0.00000000e+00 0.00000000e+00 9.31244035e-02 0.00000000e+00 0.00000000e+00 7.69836550e-04 0.00000000e+00 2.92922129e-02 0.00000000e+00 1.90266724e-01 5.24253280e-04 1.13657209e-01 0.00000000e+00 0.00000000e+00 0.00000000e+00 9.85470649e-02 0.00000000e+00 1.63633925e-03 0.00000000e+00 0.00000000e+00 0.00000000e+00 0.00000000e+00 9.44536897e-03 0.00000000e+00 0.00000000e+00 9.40087537e-02 0.00000000e+00 0.00000000e+00 3.09072367e-02 8.88342160e-02 0.00000000e+00 0.00000000e+00 3.57722988e-04 3.82328964e-02 0.00000000e+00 2.50177674e-02 0.00000000e+00 1.51284914e-02 0.00000000e+00 0.00000000e+00 0.00000000e+00 1.65063847e-02 0.00000000e+00 0.00000000e+00 0.00000000e+00 0.00000000e+00 0.00000000e+00 0.00000000e+00 0.00000000e+00 0.00000000e+00 0.00000000e+00 0.00000000e+00 9.01625039e-02 0.00000000e+00 0.00000000e+00 0.00000000e+00 0.00000000e+00 0.00000000e+00 0.00000000e+00 0.00000000e+00 0.00000000e+00 0.00000000e+00 9.11309634e-04 2.58539458e-03 1.51451508e-02 0.00000000e+00 0.00000000e+00 3.68251451e-02 0.00000000e+00 1.65360699e-02 1.54161446e-01 7.76812838e-02 0.00000000e+00 8.26719555e-02 2.01008677e-01 1.31985678e-01 0.00000000e+00 5.49411754e-02 0.00000000e+00 0.00000000e+00 0.00000000e+00 0.00000000e+00 0.00000000e+00 0.00000000e+00 2.09358673e-03 0.00000000e+00 0.00000000e+00 1.52509733e-03 0.00000000e+00 0.00000000e+00 0.00000000e+00 0.00000000e+00 0.00000000e+00 3.37006118e-02 5.99334090e-04 9.37306526e-04 1.75236324e-02 9.29376162e-02 9.11067814e-02 0.00000000e+00 6.76392695e-03 1.28712037e-03 2.36756432e-01 0.00000000e+00 0.00000000e+00 0.00000000e+00 0.00000000e+00 0.00000000e+00 0.00000000e+00 0.00000000e+00 0.00000000e+00 0.00000000e+00 0.00000000e+00 1.39397105e-03 0.00000000e+00 0.00000000e+00 0.00000000e+00 1.64907311e-02 1.32920996e-01 3.97722652e-02 3.70494657e-02 5.91931249e-04 1.99862001e-02 1.04116961e-02 7.38854656e-03 0.00000000e+00 0.00000000e+00 1.07055498e-03 1.31308296e-01 6.57736236e-04 4.89449290e-01 1.35047513e-01 0.00000000e+00 6.95053606e-02 0.00000000e+00 2.56341453e-01 1.64312238e-02 0.00000000e+00 2.50277551e-02 5.83945434e-02 3.04603174e-02 0.00000000e+00 1.89442944e-01 0.00000000e+00 3.34508093e-02 4.43685581e-02 2.53019417e-02 4.55026189e-02 0.00000000e+00 1.60405112e-01 1.32941485e-01 7.96986525e-02 3.97985728e-02 1.01910234e-01 3.11953337e-02 0.00000000e+00 0.00000000e+00 0.00000000e+00 8.50511821e-02 0.00000000e+00 8.02928406e-02 9.41024816e-02 0.00000000e+00 3.91302901e-02 1.87056782e-03 0.00000000e+00 4.66338921e-02 3.14390262e-02 0.00000000e+00 1.53281833e-01 1.40748448e-01 8.53895901e-02 7.19734547e-02 6.83675437e-02 1.75293991e-01 4.97214234e-04 7.60362531e-02 0.00000000e+00 8.53617072e-04 0.00000000e+00 1.59011183e-01 1.21393130e-01 2.36137890e-04 0.00000000e+00 0.00000000e+00 0.00000000e+00 2.65630839e-01 3.05726917e-02 3.35418671e-04 1.48112053e-02 0.00000000e+00 1.22187342e-01 3.41941315e-02 1.86815620e-01 0.00000000e+00 1.33626979e-01 0.00000000e+00 1.16999145e-01 1.66697216e-01 2.27679517e-03 1.21776231e-01 4.54348717e-03 1.48771759e-03 4.82581721e-02 2.05484548e-01 0.00000000e+00 0.00000000e+00 5.81800884e-02 4.61503459e-02 4.76359960e-02 0.00000000e+00 2.08089770e-01 1.34568358e-01 1.30770176e-01 6.69498781e-02 3.77889668e-02 1.22754105e-02 1.58854626e-01 0.00000000e+00 5.47912428e-02 0.00000000e+00 0.00000000e+00 1.86879521e-02 2.37736171e-03 0.00000000e+00 8.25558201e-03 1.68672875e-02 2.99018987e-01 6.80263666e-02 1.23397515e-01 1.92824937e-01 1.56939784e-01 2.59115092e-01 1.26305418e-01 0.00000000e+00 0.00000000e+00 6.26243601e-02 1.22333193e-03 1.43901081e-01 2.34507923e-04 5.25719450e-02 2.24980164e-02 3.44145829e-02 0.00000000e+00 4.15349527e-03 5.89343525e-01 1.13445096e-03 1.12320103e-02 5.57137914e-02 1.26054249e-01 1.88537430e-02 2.08321660e-03 7.39379954e-02 2.03166240e-02 8.72942515e-02 2.59527871e-01 0.00000000e+00 0.00000000e+00 1.09729471e-01 4.90151661e-02 3.72848091e-02 4.38581821e-02 5.40863045e-02 9.92424429e-02 7.47961075e-03 4.55426867e-02 1.47990489e-01 0.00000000e+00 2.18094973e-01 1.48331745e-03 2.26260802e-01 7.16562562e-04 6.38607145e-02 4.38863949e-02 1.37350489e-01 1.56113814e-01 4.78018043e-02 9.15595856e-02 2.82655877e-01 9.05655602e-02 4.98963630e-02 5.96060217e-02 1.65531531e-01 7.65462343e-02 5.40489706e-02 7.94598434e-02 4.99240286e-02 2.77700614e-01 2.20086607e-01 1.36757973e-01 8.66627053e-02 2.57334527e-01 1.72764128e-01 4.40915335e-02 2.23083087e-02 8.20848577e-03 3.17824633e-01 2.49013371e-01 1.41297658e-01 2.45309040e-01 5.68275355e-03 5.67616228e-01 0.00000000e+00 4.11575871e-02 4.44901926e-02 1.48383494e-02 2.20315038e-01 5.63230481e-04 1.04308467e-02 3.48874620e-01 2.63394421e-01 7.02136388e-01 2.59889272e-01 3.80895238e-02 4.68752013e-02 9.13328107e-02 4.62127378e-02 1.10719944e-01 8.04671294e-03 5.27892269e-02 6.20716453e-02 1.02393992e-02 6.54264385e-03 2.40599140e-01 9.50592255e-02 1.38242761e-02 2.19641182e-01 1.49796173e-01 1.65936413e-01 2.09546319e-03 2.12252142e-01 4.19033749e-01 1.00711016e-01 1.86614134e-01 1.11769383e-01 1.36977915e-01 1.51666183e-01 1.47190046e-01 1.18382988e-02 2.82003705e-02 6.24975731e-02 1.99275712e-01 1.53999014e-01 1.80437255e-01 2.94552663e-01 3.20724340e-01 1.15937010e-01 1.20383507e-01 1.34833831e-01 1.85764373e-01 5.25380732e-02 1.60971048e-01 8.71645599e-02 2.30815016e-02 5.39049680e-02 1.16564419e-01 1.61682519e-01 6.71667315e-02 1.15166666e-01 4.57354041e-01 3.30432897e-02 2.41596063e-02 2.43228010e-02 3.74689227e-01 3.29408285e-01 1.38773578e-01 1.99858278e-01 2.06307617e-02 1.52683782e-01 9.81142133e-02 2.70539141e-01 9.43533856e-02 2.87363908e-02 2.21059356e-01 2.92963400e-01 2.30599554e-01 3.91168443e-02 5.21045669e-02 1.06245333e-01 3.34506044e-01 2.26888401e-01 1.21334185e-01 4.00440083e-01 1.23591516e-01 2.10219611e-01 3.12597227e-01 3.18910289e-01 2.80128290e-01 1.14317088e-01 2.45740739e-02 1.58514565e-01 1.44487635e-01 1.28143447e-01 4.83863355e-01 4.05419508e-02 2.30808491e-01 3.15946217e-01 3.56637699e-01 4.17034396e-01 2.37503087e-01 8.55225144e-03 2.34633167e-01 2.88794398e-01 2.41119630e-02 3.83506124e-01 2.67233758e-01 3.34124701e-01 2.40265383e-01 2.82599331e-01 6.28270551e-01 2.50839253e-01 7.77994531e-02 6.28706387e-01 3.01326898e-01 2.64614140e-01 3.10398566e-01 3.47976846e-01 2.06926259e-01 2.11272663e-01 1.88386786e-01 2.21061836e-01 1.95775708e-01 1.43459295e-01 1.19404498e-01 8.34292494e-01 1.57771383e-01 1.71478122e-01 2.35989493e-01 2.76507678e-01 1.26530913e-01 3.13593421e-01 1.15985331e-01 1.52526061e-01 1.67140158e-01 5.17614638e-01 3.17233757e-01 4.76320621e-01 3.23387955e-01 1.59226482e-01 1.58084244e-01 5.10467925e-01 4.40591726e-01 5.09643384e-01 9.02781031e-02 2.96774946e-01 1.40474569e-01 9.11896781e-02 2.21672176e-01 2.57814690e-01 5.98955940e-01 3.63714474e-01 3.02671975e-01 4.40327413e-01 8.35062489e-01 3.52884253e-01 4.02057701e-01 2.90655077e-01 6.81672566e-02 3.21851767e-01 1.25326474e-01 3.88104482e-01 1.44864152e-01 1.68420416e-01 2.78835705e-01 1.56500184e-01 3.11351303e-01 3.16145584e-01 1.48861360e-01 2.41875410e-01 3.65304756e-01 1.97523825e-01 3.34217347e-01 2.06507737e-01 5.09427946e-01 1.83274298e-01 4.62518462e-01 8.56556625e-01 5.69446165e-01 3.67057560e-01 1.96014102e-01 2.61566368e-01 2.71067402e-01 1.42368273e-01 2.05891039e-01 3.73186058e-01 5.26930866e-01 8.48657443e-01 2.06057369e-01 6.34945004e-01 5.38872838e-01 4.61032503e-01 2.57249120e-01 7.09890155e-01 2.85049003e-01 2.13313616e-01 6.55487921e-01 3.92773847e-01 1.85865682e-01 2.65395097e-01 2.71333973e-01 5.22007665e-01 4.61035214e-01 6.40971536e-01 6.73697843e-01 6.86078178e-01 5.01251328e-01 1.33316806e-01 1.03680579e-01 7.22532759e-01 3.93761500e-01 1.43614084e+00 8.22083455e-01 5.86832397e-01 4.13422262e-01 3.30359049e-01 1.54039537e-01 3.47827847e-01 2.64302208e-01 3.98749447e-01 3.43070589e-01 6.40705897e-01 1.22729605e-01 1.45267865e+00 3.28159720e-01 4.00688352e-01 6.09299832e-01 2.03771547e-01 3.55649402e-01 4.00832802e-01 4.89836676e-01 4.94770050e-01 7.37505709e-01 5.06005325e-01 2.45653573e-01 9.50815684e-01 5.96561632e-01 7.68411146e-01 5.80580585e-01 4.27157367e-01 5.35658363e-01 2.82066939e-01 2.32384821e-01 7.11216544e-01 5.56445544e-01 4.45441069e-01 4.23002536e-01 2.29026330e-01 3.52641042e-01 6.12042068e-01 2.24915501e-01 1.73361560e-01 4.44214976e-01 4.76702412e-01 3.61181325e-01 4.28984493e-01 1.83131333e-01 1.12400530e-01 1.79712079e-01 5.06018140e-01 1.80128913e-01 4.86534360e-01 4.95233032e-01 7.98999766e-01 2.88729604e-01 3.58269237e-01 3.66799511e-01 4.96458697e-01 3.03357983e-01 8.77378934e-01 6.12430056e-01 2.94631730e-01 4.17058658e-01 4.95911715e-01 8.78068908e-02 6.52149382e-01 8.29407587e-01 2.20117618e-01 3.27734388e-01 1.65487918e-01 2.19256010e-01 1.61419401e-01 5.49430942e-01 4.32997889e-01 5.15762963e-01 4.64478083e-01 5.74872934e-01 5.10505817e-01 3.56219155e-01 6.87894172e-01 5.47645080e-01 2.48003695e-01 2.05528217e-01 1.52386957e-01 5.57775616e-01 7.43531829e-01 1.37681978e+00 1.25318236e+00 2.94385977e-01 2.43771716e-01 5.98921163e-01 4.16214017e-01 1.36223719e+00 1.07855072e+00 2.33744966e-01 3.71051207e-01 9.89917879e-01 3.57283469e-01 4.50935041e-01 8.37904912e-01 6.27927204e-01 4.50146642e-01 2.54673406e-01 6.14417076e-01 6.35620702e-01 4.50260701e-01 4.83634049e-01 1.06037602e+00 4.57375373e-01 7.70056152e-01 8.32494791e-01 1.71799313e-01 3.76887750e-01 1.00732830e+00 8.31044007e-01 4.59297646e-01 4.75117153e-01 4.11088687e-01 7.15386350e-01 4.79766495e-01 3.96437693e-01 7.31037388e-01 7.67307867e-01 5.14835411e-01 1.04096955e+00 2.11705787e-01 7.63192089e-01 1.91414871e-01 6.13283865e-01 4.21770711e-01 4.20622600e-01 2.75292103e-01 5.88598903e-01 1.51703180e+00 1.23910989e+00 4.53875834e-01 7.19917987e-01 8.37812418e-01 8.95987194e-01 6.10726345e-01 8.32497866e-01 1.05542353e+00 7.71770463e-01 5.89299213e-01 1.70105429e+00 6.00465272e-01 3.78310766e-01 3.01826146e-01 2.08696665e-01 1.39714220e+00 2.01413202e+00 7.04808977e-01 1.57179241e+00 6.23205967e-01 4.86155775e-01 6.27481460e-01 4.16041946e-01 9.34010383e-01 3.52885338e-01 3.77163728e-01 8.29997378e-01 4.83015822e-01 1.51749819e+00 5.88926656e-01 3.55012916e-01 1.44856412e-01 8.05248024e-01 5.45272039e-01 4.54855590e-01 7.77166935e-01 5.84933553e-01 5.40713638e-01 1.56881197e+00 4.90098429e-01 9.43662139e-01 5.82166634e-01 9.82998670e-01 6.35497086e-01 9.81582268e-01 6.22236263e-01 1.26815820e+00 1.35576187e+00 7.56355143e-01 5.99295742e-01 1.17859646e+00 8.09669395e-01 7.69128984e-01 7.20910994e-01 5.81314150e-01 1.32277164e+00 6.44816985e-01 1.64988952e+00 8.71690919e-01 8.29135585e-01 7.33089168e-01 6.15358453e-01 9.35996701e-01 3.76399476e-01 1.14152400e+00 7.08932935e-01 1.95139345e+00 5.02827313e-01 7.67477718e-01 3.28128030e-01 1.01429229e+00 5.10352396e-01 5.88603390e-01 4.28733026e-01 1.78174974e+00 8.13969260e-01 6.18721687e-01 1.09313449e+00 7.10305626e-01 4.88168974e-01 6.86045242e-01 1.22961017e+00 9.28147276e-01 1.50649216e+00 8.39667188e-01 4.55682725e-01 6.90960805e-01 7.29257457e+00 6.94423855e-01 1.47938676e+00 5.90191849e-01 1.25715459e+00 5.62881182e-01 6.58988378e-01 1.29877825e+00 1.05549523e+00 6.38387555e-01 6.19435986e-01 1.60212080e+00 1.50317434e+00 3.41747580e-01 7.18220922e-01 9.95871380e-01 1.20647507e+00 1.50490645e+00 5.07815764e-01 7.74971438e-01 8.19485571e-01 5.65527979e-01 4.97901047e-01 1.47776337e+00 4.80138749e-01 4.38579183e+00 8.50318439e-01 3.76390914e-01 2.03722211e+00 7.53303641e-01 5.12656735e-01 7.60319639e-01 8.94340038e-01 8.15002880e-01 1.11785649e+00 6.29305231e-01 5.64226162e-01 5.40283058e-01 7.95557989e-01 1.25826304e+00 8.65523555e-01 1.09022909e+00 1.07858098e+00 8.78432789e-01 1.17063675e+00 5.77940038e-01 1.59540110e+00 7.87935640e+00 1.49811665e+00 9.55388745e-01 6.22146539e-01 1.47234350e+00 7.47717679e-01 1.13184483e+00 9.05212551e-01 1.22754141e+00 7.02546618e-01 8.15484827e-01 5.82126904e-01 7.66024175e-01 1.00937142e+00 1.32906053e+00 4.83102674e-01 8.66510161e-01 1.60495757e+00 1.71498448e+00 8.79200743e-01 8.94971851e-01 6.67139994e-01 7.87383987e-01 1.63547956e+00 1.55920474e+00 6.57943822e-01 1.70202899e+00 1.19968822e+00 1.06159182e+00 9.45262838e-01 6.53523798e-01 9.75538283e-01 6.75034607e-01 1.00487583e+00 1.30105034e+00 8.75228391e-01 8.04259455e-01 8.55438250e-01 5.94502846e-01 4.50242377e-01 7.16078072e-01 9.48711779e-01 7.71447730e-01 1.02507256e+00 1.20730079e+00 1.08251519e+00 1.60784133e+00 8.15306779e-01 1.04401134e+00 6.28539492e-01 7.24463098e-01 1.07065374e+00 8.15752898e-01 1.22261799e+00 5.57191578e-01 8.51895903e-01 8.34518618e-01 9.48902452e-01 9.65168909e-01 1.39901352e+00 8.95202743e-01 7.87648379e-01 4.97946298e-01 1.41851314e+00 1.06771528e+00 1.74107667e+00 1.57225268e+00 1.43605872e+00 8.97129967e-01 8.96602297e-01 1.07345930e+00 5.39506023e-01 1.55531618e+00 1.34008649e+00 1.02549280e+00 8.68455434e-01 9.61721173e-01 6.12447464e-01 8.45016348e-01 5.16277089e-01 1.09100087e+00 1.16263089e+00 1.57833894e+00 1.27228848e+00 1.31918497e+00 7.86154094e-01 1.46433964e+00 1.00802924e+00 1.20828386e+00 4.73533621e-01 2.03507613e+00 8.18726991e-01 1.31038820e+00 1.17963366e+00 1.00648150e+00 1.12552926e+00 1.04614328e+00 7.11994839e-01 1.23115871e+00 2.15534970e+00 8.55979596e-01 7.30768638e-01 1.13017502e+00 9.92163923e-01 1.12395524e+00 7.98254794e-01 6.81645697e-01 1.14093327e+00 1.27078679e+00 7.80764905e-01 8.07085330e-01 9.32957742e-01 9.07844792e-01 9.84061281e-01 7.02580018e-01 7.94656831e-01 1.18878781e+00 1.04036001e+00 1.53898137e+00 1.14846455e+00 1.53106852e+00 1.20252105e+00 1.29780264e+00 1.45501745e+00 1.53274329e+00 6.35712414e-01 1.72910614e+00 5.22171449e-01 1.12386763e+00 1.34587909e+00 1.25888696e+00 1.01007356e+00 7.68822812e-01 6.92853237e-01 1.06433909e+00 6.90300446e-01 1.48066895e+00 1.12171757e+00 1.22472569e+00 4.80040861e-01 9.23259805e-01 2.00512666e+00 2.04151838e+00 8.63589331e-01 1.84095185e+00 1.21308140e+00 1.26272282e+00 1.40078012e+00 7.65650796e-01 1.16448629e+00 1.11208059e+00 8.47055954e-01 1.28389615e+00 9.16183170e-01 6.88865930e-01 1.01592157e+00 1.26076613e+00 1.03495502e+00 1.17492522e+00 1.57345341e+00 1.44755523e+00 1.26556919e+00 1.30020891e+00 1.20273797e+00 2.50451442e+00 9.37636033e-01 1.06371055e+00 1.24896690e+00 1.83491518e+00 1.30408974e+00 1.31589457e+00 1.23026957e+00 1.02317415e+00 1.47864618e+00 7.64213192e-01 1.46279793e+00 8.64101285e-01 2.10963004e+00 1.28665701e+00 1.23761016e+00 1.18887838e+00 1.24325335e+00 1.10023387e+00 1.80341055e+00 1.37889116e+00 1.60977579e+00 5.85564005e-01 2.04474662e+00 1.24859174e+00 1.29925055e+00 2.31586763e+00 1.81809788e+00 1.18625426e+00 8.13389230e-01 3.65818508e+00 1.85572078e+00 9.91943100e-01 1.14939314e+00 1.07891857e+00 9.66821100e-01 1.42710161e+00 1.55775551e+00 9.75103495e-01 1.30538589e+00 1.58152062e+00 1.33708475e+00 1.52216758e+00 1.13845659e+00 1.35626759e+00 1.53208046e+00 1.04313142e+00 1.68759414e+00 1.49420067e+00 1.02264571e+00 1.29294183e+00 1.61205774e+00 1.42938185e+00 1.07256615e+00 1.58625141e+00 2.11413854e+00 1.47908237e+00 9.09025722e-01 2.60214939e+00 1.15964082e+00 1.93102253e+00 1.51073854e+00 1.40562675e+00 1.64837100e+00 1.50719061e+00 1.65037551e+00 1.38376205e+00 3.21143354e+00 1.62885181e+00 1.83643098e+00 1.15276020e+00 9.81113306e-01 1.06183565e+00 2.13467733e+00 2.57021628e+00 1.61801545e+00 1.66860928e+00 1.64245546e+00 2.32865211e+00 1.02097793e+00 1.86247226e+00 1.52346643e+00 1.50420091e+00 1.98477379e+00 1.27180871e+00 1.53510601e+00 1.73304605e+00 1.05571577e+00 2.31683932e+00 9.61396457e-01 1.41917675e+00 1.05235665e+00 1.35844159e+00 1.28052423e+00 1.82153703e+00 1.82813964e+00 1.11582756e+00 2.36778944e+00 1.49618203e+00 2.18150710e+00 4.42223831e+00 3.00798361e+00 1.89464786e+00 2.87700541e+00 2.15524804e+00 2.65450556e+00 1.72486236e+00 1.69515516e+00 2.70320150e+00 1.77162973e+00 1.41392057e+00 1.56825071e+00 9.57012138e-01 2.61528207e+00 1.60784830e+00 2.02602280e+00 1.90857032e+00 2.06204892e+00 2.07720135e+00 2.17275875e+00 9.22611788e-01 1.94523885e+00 1.46487739e+00 2.34112607e+00 1.43582426e+00 1.41045121e+00 2.01888116e+00 2.21544693e+00 2.33307306e+00 1.89666733e+00 2.18626340e+00 1.87638067e+00 2.26026303e+00 1.34946623e+00 1.72553181e+00 2.07817132e+00 1.61155248e+00 1.59068182e+00 1.37769759e+00 3.40890513e+00 2.75258903e+00 1.51328601e+00 2.73866617e+00 2.04877434e+00 1.45388655e+00 1.56065400e+00 1.23607467e+00 2.24220419e+00 2.24286887e+00 1.88577559e+00 1.81850206e+00 2.78994840e+00 2.92397461e+00 1.61687586e+00 1.70725081e+00 2.15371794e+00 2.25474845e+00 1.73865650e+00 1.65725265e+00 2.59806202e+00 1.45721792e+00 1.68432212e+00 1.96169608e+00 1.76522519e+00 3.25659350e+00 2.30038682e+00 2.70330071e+00 2.47741720e+00 2.39007732e+00 2.30846255e+00 2.07114798e+00 1.69893556e+00 1.70863964e+00 1.95312174e+00 2.00121030e+00 2.48732430e+00 2.08428109e+00 1.98329357e+00 1.43340881e+00 2.59092738e+00 1.58373773e+00 1.26455043e+00 2.08625715e+00 1.83102899e+00 2.17418085e+00 2.11711188e+00 1.41200039e+00 3.81044075e+00 2.89123703e+00 2.21130587e+00 2.15333326e+00 2.37293152e+00 3.06309556e+00 2.58995115e+00 1.80511131e+00 3.22328271e+00 1.99072738e+00 1.63133430e+00 2.14934598e+00 3.50379030e+00 2.25574597e+00 2.79810820e+00 1.79399476e+00 2.27118158e+00 1.83288822e+00 2.45745753e+00 2.49563318e+00 1.93364802e+00 3.60935131e+00 2.21246626e+00 1.85533674e+00 2.44017116e+00 1.95418507e+00 1.96260972e+00 2.57347871e+00 3.53856832e+00 1.68254010e+00 2.06082674e+00 2.24691687e+00 2.59070053e+00 1.66033157e+00 2.47236418e+00 2.53293984e+00 2.88336974e+00 2.19589128e+00 2.01228833e+00 2.05631722e+00 2.53497204e+00 2.30629176e+00 2.40199580e+00 2.75364084e+00 2.48474370e+00 2.47688987e+00 3.10700899e+00 2.14412106e+00 2.64695266e+00 2.18888474e+00 2.33640992e+00 2.77783403e+00 2.22967393e+00 2.80021727e+00 1.94217813e+00 1.54889575e+00 2.42613869e+00 3.05097943e+00 2.15127169e+00 2.68770307e+00 1.89490440e+00 2.71504128e+00 3.72021853e+00 2.16655189e+00 2.91508345e+00 2.72930103e+00 2.65578811e+00 1.92205584e+00 2.16575637e+00 2.00115839e+00 1.97737102e+00 2.94135317e+00 2.49646567e+00 3.47975169e+00 2.23626740e+00 1.89459221e+00 2.69198320e+00 2.08638310e+00 2.87655398e+00 2.11266297e+00 2.66963540e+00 2.52221264e+00 2.32659830e+00 2.75344952e+00 2.23360279e+00 2.25340184e+00 2.45164012e+00 3.22110714e+00 2.43174957e+00 1.59508210e+00 2.73528625e+00 2.54709601e+00 3.76553667e+00 2.49094859e+00 2.26956455e+00 2.76518108e+00 3.57937376e+00 2.46014320e+00 2.57578481e+00 3.23123098e+00 1.81150654e+00 2.71292257e+00 3.83043826e+00 2.67940077e+00 2.69020520e+00 3.07153822e+00 3.43543864e+00 2.60982055e+00 2.72642339e+00 2.40090469e+00 2.46569948e+00 2.44685075e+00 2.73375339e+00 4.56403232e+00 2.69842926e+00 1.73454283e+00 2.83370580e+00 2.82464406e+00 2.94898575e+00 2.64834703e+00 2.42574962e+00 2.45143084e+00 2.23994419e+00 2.40986296e+00 2.93347593e+00 1.73055784e+00 3.44293131e+00 3.04954011e+00 3.35184649e+00 2.91486070e+00 3.38185026e+00 2.89812041e+00 2.45950481e+00 2.81961169e+00 2.60225324e+00 2.71109742e+00 3.36632077e+00 3.26844032e+00 2.67217710e+00 1.69045622e+00 3.32042150e+00 2.23152717e+00 2.77011741e+00 2.27443301e+00 1.97349260e+00 3.04885396e+00 3.00210042e+00 3.96258222e+00 3.00759158e+00 2.31929773e+00 1.91980773e+00 3.97560407e+00 2.72276577e+00 4.09827710e+00 1.00971928e+01 2.25492902e+00 2.97797995e+00 3.28333132e+00 2.44819521e+00 2.57623433e+00 2.17408213e+00 3.01677907e+00 3.53226693e+00 3.55323843e+00 2.76846464e+00 3.40795222e+00 3.44050669e+00 3.69793694e+00 2.28544132e+00 1.93925480e+00 3.68172397e+00 3.07810983e+00 2.76299872e+00 4.06222434e+00 3.15885382e+00 2.10470689e+00 2.58641712e+00 2.85276095e+00 2.43536521e+00 4.72781830e+00 4.45546151e+00 3.47133878e+00 4.05510346e+00 3.10889473e+00 2.90232724e+00 2.88639540e+00 2.81684596e+00 3.63945144e+00 2.54980232e+00 2.47076242e+00 3.51639374e+00 3.35518219e+00 2.81742483e+00 2.94022409e+00 2.96146777e+00 2.85352919e+00 2.90774209e+00 4.00054208e+00 2.40922198e+00 2.19194920e+00 4.61858573e+00 3.79921570e+00 3.66470619e+00 2.36444185e+00 3.28533249e+00 4.05811516e+00 3.23193248e+00 4.04794068e+00 2.67647874e+00 3.55332281e+00 3.29343285e+00 2.02022734e+00 2.93162020e+00 2.66815810e+00 3.01419357e+00 2.86464534e+00 2.92611417e+00 2.57070067e+00 2.80946615e+00 4.00242598e+00 3.71330326e+00 3.05497155e+00 1.96834572e+00 2.31520213e+00 2.97861483e+00 2.96261198e+00 3.47874013e+00 3.17064861e+00 2.92939566e+00 3.32720411e+00 2.38113649e+00 2.82697056e+00 3.17681255e+00 4.06496638e+00 2.37448616e+00 2.82409035e+00 3.56195701e+00 3.72940423e+00 3.47055862e+00 2.46265609e+00 2.88724927e+00 2.83026722e+00 3.85631655e+00 2.89813989e+00 2.55526569e+00 3.13056758e+00 3.54706342e+00 4.11027282e+00 2.21256029e+00 3.91492793e+00 3.50222547e+00 3.87041103e+00 2.49872769e+00 3.28104169e+00 3.14581337e+00 2.59039055e+00 2.32177765e+00 3.09269669e+00 3.23898915e+00 2.92480412e+00 2.64789696e+00 3.22320137e+00 2.65144764e+00 2.45777979e+00 4.32650930e+00 3.01360516e+00 3.37523532e+00 2.73211541e+00 2.24394736e+00 2.58305874e+00 2.34321323e+00 3.25508696e+00 2.34423025e+00 2.92766092e+00 3.17872068e+00 2.50738670e+00 2.71458780e+00 3.41382488e+00 2.74996854e+00 3.71001496e+00 3.28922045e+00 3.32836500e+00 3.55448479e+00 3.15286792e+00 3.20487630e+00 3.68108945e+00 2.46277322e+00 2.96395840e+00 3.35750064e+00 2.68123045e+00 2.54292762e+00 2.15954167e+00 3.06003605e+00 2.51536346e+00 3.51918965e+00 2.70329955e+00 3.36453638e+00 2.92811313e+00 2.98406012e+00 2.43290943e+00 2.58594371e+00 3.12903999e+00 3.32393763e+00 3.01099795e+00 2.10846406e+00 2.46464597e+00 2.98663292e+00 2.60439557e+00 2.68743287e+00 2.67236032e+00 2.26787733e+00 2.85343171e+00 2.37612637e+00 2.88154246e+00 2.59557062e+00 2.51114500e+00 2.59404660e+00 2.96693474e+00 2.97139497e+00 4.23320974e+00 2.44766177e+00 2.97722526e+00 2.82018940e+00 3.06096610e+00 3.57960190e+00 2.95995595e+00 2.70934162e+00 2.27732126e+00 2.51509756e+00 2.59949609e+00 2.89826292e+00 2.66615213e+00 2.72527329e+00 2.36393270e+00 3.57216620e+00 2.16923613e+00 2.72654205e+00 2.63356958e+00 3.18379788e+00 4.24002140e+00 3.23104947e+00 2.66808959e+00 3.12202827e+00 3.13548846e+00 3.95665849e+00 3.03937328e+00 2.09807222e+00 1.86861181e+00 4.04848952e+00 3.29489630e+00 4.06311527e+00 2.49020361e+00 2.91210056e+00 2.55271140e+00 2.87651265e+00 3.23726502e+00 2.57806597e+00 3.20542118e+00 2.96433328e+00 4.21220576e+00 2.47408859e+00 2.52849782e+00 3.51951982e+00 2.83790252e+00 2.57696665e+00 2.54541732e+00 2.99984926e+00 2.93114631e+00 2.48556073e+00 3.24317987e+00 2.17599490e+00 3.23183792e+00 2.91211294e+00 2.69708889e+00 2.96269759e+00 2.37001240e+00 2.09090070e+00 3.10507752e+00 1.86336514e+00 1.91752203e+00 2.38536022e+00 2.46810034e+00 3.43001049e+00 3.01891044e+00 3.77356220e+00 2.90193124e+00 1.90947693e+00 3.28351792e+00 2.71733304e+00 2.99921569e+00 2.65232525e+00 3.10847838e+00 2.31039480e+00 3.26780775e+00 2.40494129e+00 2.60338225e+00 2.30897874e+00 2.93576582e+00 4.27857448e+00 2.64153144e+00 3.08786411e+00 2.58849798e+00 2.76514356e+00 3.17971260e+00 2.53274496e+00 2.76570167e+00 2.39878011e+00 1.80593419e+00 2.51455162e+00 2.52485384e+00 2.43562323e+00 3.15752404e+00 2.45275467e+00 3.51982716e+00 2.07503037e+00 2.72616332e+00 3.30936967e+00 2.07874581e+00 1.94555716e+00 2.56442969e+00 3.39828446e+00 3.47809821e+00 2.53938310e+00 3.24801452e+00 2.84689857e+00 1.98883750e+00 3.05653762e+00 2.82879222e+00 2.61768870e+00 2.50557621e+00 2.37092933e+00 2.89222419e+00 1.81402501e+00 3.66825032e+00 2.33772055e+00 2.09752312e+00 3.24908765e+00 2.55676769e+00 3.00528716e+00 2.67992187e+00 2.94088769e+00 2.72644171e+00 3.15347933e+00 3.11214175e+00 1.79656117e+00 2.95014458e+00 2.44362088e+00 3.38869431e+00 2.43193903e+00 3.56003489e+00 2.35328101e+00 2.43573950e+00 2.34690480e+00 3.06575094e+00 2.73843795e+00 2.23125041e+00 3.43372754e+00 2.82212187e+00 2.84282587e+00 2.96011312e+00 3.17074878e+00 2.87442038e+00 2.08178789e+00 2.54028815e+00 2.95039735e+00 2.40855278e+00 3.97057413e+00 3.53926524e+00 2.22844380e+00 3.21499604e+00 2.36977915e+00 2.68020958e+00 3.20045702e+00 2.26246592e+00 3.38210819e+00 2.56554485e+00 2.52442544e+00 2.87644849e+00 3.06294978e+00 2.26571985e+00 2.51211765e+00 2.47536286e+00 3.08231702e+00 2.65815356e+00 3.34192791e+00 2.64392373e+00 2.42701990e+00 3.32519736e+00 2.69494365e+00 2.98807497e+00 2.06672641e+00 2.46459939e+00 2.60168666e+00 2.91526613e+00 3.11125088e+00 2.34391673e+00 3.14486561e+00 2.74099077e+00 2.61709301e+00 3.82017196e+00 3.83408386e+00 2.67959540e+00 2.97875630e+00 2.55704188e+00 3.16523156e+00 3.00959050e+00 2.16229422e+00 2.23341267e+00 2.43903553e+00 2.49492216e+00 2.78267406e+00 2.73886997e+00 2.73480785e+00 2.63275147e+00 2.80074030e+00 3.31835666e+00 1.77680365e+00 1.90722911e+00 2.87904386e+00 2.78267353e+00 2.84916098e+00 4.10791498e+00 3.35128590e+00 2.50104301e+00 3.48566327e+00 3.34616059e+00 1.74851562e+00 2.84636781e+00 2.79190602e+00 2.46088267e+00 3.43806004e+00 2.61767542e+00 2.06692205e+00 2.15599729e+00 2.42850857e+00 3.04294502e+00 2.97476948e+00 2.49118199e+00 2.63070881e+00 3.14343157e+00 2.77966035e+00 2.92675745e+00 3.53193112e+00 3.25884821e+00 2.71712329e+00 3.10112001e+00 2.72038812e+00 2.80869843e+00 3.03253369e+00 2.10195591e+00 2.73187407e+00 2.47399715e+00 2.18610485e+00 2.65048239e+00 2.82019989e+00 2.42862205e+00 2.96374059e+00 2.57120098e+00 3.36401327e+00 3.73734009e+00 2.64320732e+00 2.76826760e+00 3.22286132e+00 3.07270024e+00 2.55776914e+00 3.53832782e+00 3.19786142e+00 2.93664132e+00 2.70149965e+00 3.26645939e+00 3.51767616e+00 2.89999853e+00 3.20362040e+00 2.93269148e+00 3.12217761e+00 3.48468244e+00 3.00676846e+00 2.93977408e+00 3.76776374e+00 3.07274168e+00 3.80032311e+00 2.16497610e+00 2.81755582e+00 2.93752059e+00 3.18470919e+00 2.34631386e+00 2.82173942e+00 2.50465331e+00 3.10677322e+00 3.14508573e+00 2.99376267e+00 3.08689084e+00 2.64001070e+00 2.44298017e+00 2.69959989e+00 3.70172430e+00 4.00793662e+00 2.72565440e+00 2.35428538e+00 2.94291230e+00 2.71836361e+00 3.96813238e+00 2.18389253e+00 2.53963651e+00 2.30570973e+00 2.91528529e+00 2.79478899e+00 3.43800445e+00 2.82042957e+00 2.60952413e+00 2.65629386e+00 2.70029829e+00 2.75260583e+00 2.80756354e+00 2.87800862e+00 2.46250551e+00 2.67080594e+00 2.99092802e+00 3.62830589e+00 2.88638830e+00 2.86495239e+00 2.55161846e+00 2.39937187e+00 2.79949365e+00 2.84775912e+00 3.00752018e+00 3.40057256e+00 2.99121186e+00 2.49374652e+00 2.70033532e+00 3.08423350e+00 2.60815100e+00 3.00340894e+00 2.20123313e+00 3.06064062e+00 2.55305742e+00 3.03312118e+00 2.43367834e+00 3.25389258e+00 3.22476241e+00 3.22180534e+00 2.94918531e+00 2.82699744e+00 3.79649446e+00 3.17586789e+00 3.29112981e+00 2.72665967e+00 2.80873130e+00 3.33596968e+00 3.03334220e+00 2.37263133e+00 2.91402896e+00 2.40017412e+00 2.51479209e+00 2.73380634e+00 4.07091457e+00 2.77755186e+00 1.75701959e+00 2.92298072e+00 2.97873764e+00 3.44121033e+00 3.35413771e+00 2.36716917e+00 3.18690214e+00 2.80758320e+00 2.55836793e+00 2.86815480e+00 3.25236363e+00 2.54150019e+00 3.94856240e+00 2.65226515e+00 3.33951697e+00 3.36038650e+00 3.19020480e+00 2.83922049e+00 2.43353943e+00 3.02472119e+00 2.07484359e+00 3.17590590e+00 1.96436828e+00 2.96133664e+00 2.86294080e+00 2.24750276e+00 2.93431265e+00 2.55196990e+00 2.53425703e+00 2.92361321e+00 2.91841297e+00 2.50141366e+00 2.56808276e+00 2.15511672e+00 3.29666837e+00 3.11339766e+00 2.19494050e+00 3.38277707e+00 2.53399964e+00 3.11480273e+00 2.72217128e+00 2.55784553e+00 2.88290268e+00 3.27101392e+00 2.97210368e+00 3.29327387e+00 2.38309111e+00 2.07577363e+00 3.56037721e+00 3.16935993e+00 2.90152842e+00 2.24009246e+00 2.19944822e+00 3.15418702e+00 2.78943879e+00 3.22582030e+00 2.37537876e+00 3.23146564e+00 2.00515340e+00 2.59998111e+00 3.00499511e+00 2.44189441e+00 3.06702342e+00 2.83927799e+00 2.74319429e+00 2.09848447e+00 2.77865469e+00 2.51974477e+00 2.30961419e+00 1.78590613e+00 2.61604847e+00 3.34052616e+00 1.92621600e+00 3.07993444e+00 2.26340765e+00 3.21712031e+00 2.10117853e+00 2.26348899e+00 1.76120486e+00 2.50589288e+00 2.46802562e+00 4.18296385e+00 2.57291306e+00 4.47298356e+00 3.55987034e+00 2.38623642e+00 2.93223858e+00 3.03294338e+00 2.58594519e+00 2.57431758e+00 3.27993217e+00 2.92720317e+00 2.53726842e+00 1.92025207e+00 2.94512634e+00 1.63595542e+00 2.90159484e+00 2.56235797e+00 3.24465296e+00 2.73809337e+00 2.50793242e+00 2.39932760e+00 2.60893287e+00 3.36475138e+00 3.28968110e+00 2.20634811e+00 2.82437752e+00 2.86000278e+00 2.57482791e+00 2.44420726e+00 2.63416609e+00 2.01110344e+00 2.34131744e+00 2.29289588e+00 2.47141882e+00 2.52482975e+00 2.73577091e+00 2.10045432e+00 2.83282821e+00 2.99742567e+00 2.59717448e+00 2.79246980e+00 3.49072902e+00 2.33431070e+00 2.20390854e+00 3.20065924e+00 2.75167600e+00 2.52176020e+00 2.85142813e+00 2.14362520e+00 1.88112582e+00 2.04811217e+00 2.52353637e+00 3.15902439e+00 1.96270091e+00 3.33149417e+00 2.55786798e+00 1.44507816e+00 2.09790139e+00 3.04833170e+00 3.22261757e+00 2.19258840e+00 3.05455162e+00 2.32707345e+00 3.93228620e+00 2.80350111e+00 2.45338442e+00 2.28776071e+00 1.65484063e+00 2.72270485e+00 3.53387360e+00 2.64346944e+00 2.18029835e+00 2.50578880e+00 2.37784760e+00 3.10693984e+00 2.74080501e+00 2.56389810e+00 2.00950801e+00 2.34983308e+00 3.60154372e+00 2.65928977e+00 2.46941135e+00 3.13084743e+00 2.36247649e+00 2.00551411e+00 2.74283934e+00 2.19980530e+00 2.48870019e+00 2.07219584e+00 2.46181984e+00 2.33988578e+00 1.90598137e+00 2.37616723e+00 2.31234474e+00 3.38871740e+00 3.01337795e+00 2.79957129e+00 2.75953737e+00 2.47652406e+00 2.88756035e+00 1.82700818e+00 1.82158789e+00 2.52791928e+00 3.29861566e+00 1.83596203e+00 2.96350125e+00 2.44240421e+00 1.88919555e+00 3.26626236e+00 2.37573649e+00 1.91013761e+00 2.92199233e+00 1.75771038e+00 2.70817619e+00 2.46862302e+00 1.81314351e+00 2.88883730e+00 2.28848332e+00 1.86138904e+00 2.35416056e+00 1.82364065e+00 2.24394221e+00 2.71488975e+00 2.64826111e+00 2.18169326e+00 2.03484884e+00 2.59477816e+00 2.54817548e+00 2.50568759e+00 3.11139431e+00 2.56949161e+00 2.38107614e+00 2.90748129e+00 2.49351033e+00 2.23606120e+00 2.01925455e+00 1.75490703e+00 2.22422553e+00 2.44889911e+00 2.24251256e+00 2.30263766e+00 2.76136229e+00 2.16090334e+00 2.45593659e+00 1.99279842e+00 1.47065680e+00 1.39760878e+00 2.80201814e+00 3.30097194e+00 2.54685989e+00 2.58393684e+00 1.80669760e+00 2.88441514e+00 2.61290364e+00 2.17966399e+00 2.80880545e+00 2.59420820e+00 2.06558924e+00 2.92759511e+00 1.58531436e+00 2.49613327e+00 2.31425674e+00 2.65151768e+00 1.88062514e+00 2.54129167e+00 2.58573428e+00 2.51356853e+00 1.62772270e+00 2.02927899e+00 2.54646715e+00 2.19818644e+00 1.66344446e+00 2.22619453e+00 1.98421429e+00 2.20010670e+00 2.26170486e+00 2.46235590e+00 1.47270633e+00 2.85575138e+00 2.18420451e+00 1.87616269e+00 2.07800231e+00 1.92764084e+00 2.83275999e+00 1.80773920e+00 1.80222925e+00 1.84950025e+00 2.61137107e+00 1.92191199e+00 2.10921180e+00 2.02748057e+00 2.02504525e+00 2.03344407e+00 2.48157631e+00 2.03598949e+00 1.68737310e+00 2.23093690e+00 2.05720247e+00 1.57697887e+00 2.45783000e+00 2.45161691e+00 2.29417933e+00 2.10922280e+00 2.65018528e+00 2.01770574e+00 2.15431836e+00 2.39663948e+00 2.62917205e+00 1.94422891e+00 1.62795635e+00 2.12783433e+00 2.30610856e+00 1.86291938e+00 2.03601699e+00 2.18902592e+00 1.99401529e+00 1.48709257e+00 2.37825338e+00 2.23676085e+00 1.94457735e+00 2.26832007e+00 2.49366516e+00 1.74490225e+00 1.80737662e+00 1.93630248e+00 1.59754131e+00 1.84865611e+00 2.03174092e+00 2.35592050e+00 1.95064262e+00 1.44232219e+00 1.66615068e+00 2.03504358e+00 1.79974062e+00 2.25019660e+00 2.04275017e+00 1.91840904e+00 2.38127593e+00 2.55311169e+00 2.07706985e+00 2.04579124e+00 2.30169376e+00 1.64673420e+00 2.26252173e+00 2.18975786e+00 2.60464263e+00 2.09850078e+00 1.84251530e+00 1.33238254e+00 2.40608498e+00 2.30711574e+00 2.56400731e+00 2.00483855e+00 2.50720018e+00 2.22445748e+00 1.92604663e+00 1.26786937e+00 2.02394977e+00 1.56919967e+00 2.06104450e+00 2.01866065e+00 1.76276185e+00 1.77255658e+00 1.66613411e+00 1.71985367e+00 2.73265279e+00 1.65644123e+00 1.52395831e+00 1.96110667e+00 2.65720102e+00 1.86215326e+00 2.07806896e+00 2.20787998e+00 1.42065256e+00 1.74723525e+00 1.58253096e+00 2.62446773e+00 1.90101140e+00 1.88947456e+00 1.40025082e+00 2.43528847e+00 1.78787223e+00 2.28578015e+00 2.56019865e+00 2.26711478e+00 2.19532011e+00 1.67625741e+00 1.83969370e+00 2.16155887e+00 2.14022917e+00 1.45863621e+00 1.64989890e+00 2.16468272e+00 2.02276151e+00 2.44849141e+00 1.62211923e+00 1.61090039e+00 1.63243696e+00 1.77161941e+00 1.65849723e+00 1.57731791e+00 1.22357519e+00 1.70360739e+00 1.99345147e+00 1.43547503e+00 1.83629433e+00 1.61061999e+00 1.77672231e+00 2.82899072e+00 1.80855206e+00 1.55687936e+00 1.83261955e+00 2.28561492e+00 1.62073378e+00 1.99012703e+00 1.44739767e+00 2.02235971e+00 1.84218061e+00 1.41328798e+00 1.44670507e+00 2.14443874e+00 1.48562867e+00 1.38360296e+00 1.72311347e+00 1.70302319e+00 1.56338244e+00 2.05435540e+00 1.55152954e+00 1.69810936e+00 1.85482638e+00 1.68129614e+00 2.00522189e+00 1.52659476e+00 2.14241631e+00 1.95826143e+00 1.81976839e+00 1.91060659e+00 1.55958559e+00 1.12837350e+00 1.65643923e+00 1.12557892e+00 1.81845528e+00 1.29292351e+00 1.20102659e+00 1.15336660e+00 1.81484928e+00 1.72558032e+00 8.87877150e-01 1.16492991e+00 1.62993127e+00 6.24012424e-01 1.31283310e+00 1.18430802e+00 1.94481648e+00 2.09777187e+00 1.20529833e+00 1.56788760e+00 1.78392423e+00 1.27092627e+00 1.33921859e+00 1.80324064e+00 1.11068064e+00 1.74126427e+00 1.33694674e+00 1.13015562e+00 1.82574807e+00 1.56580417e+00 1.21629731e+00 1.50018135e+00 1.66702847e+00 1.13703269e+00 1.47332710e+00 1.42569463e+00 1.56143685e+00 1.63479065e+00 1.53179662e+00 1.56679416e+00 1.47377741e+00 1.03919851e+00 1.02928310e+00 1.93570676e+00 1.16208325e+00 1.53511254e+00 1.53576030e+00 1.47449558e+00 1.93659493e+00 1.30711658e+00 1.54555247e+00 1.51755541e+00 1.45631450e+00 1.51950445e+00 1.58951032e+00 1.28688882e+00 1.13436254e+00 1.16365380e+00 1.28941542e+00 1.56242757e+00 1.97093797e+00 1.23405501e+00 1.17311530e+00 1.35917524e+00 1.05050258e+00 1.70904956e+00 1.07761100e+00 1.01171306e+00 1.43838233e+00 1.99205034e+00 1.28323861e+00 8.61028087e-01 1.21979176e+00 1.69154540e+00 1.83157408e+00 1.32750461e+00 1.29691729e+00 1.06160744e+00 1.67793607e+00 1.38630695e+00 9.25751773e-01 1.51353440e+00 1.15431458e+00 1.39384261e+00 1.85257815e+00 1.20131809e+00 1.39590598e+00 1.67340317e+00 1.37879891e+00 1.64899437e+00 1.01617995e+00 9.05115100e-01 1.27712098e+00 9.04166297e-01 1.55437425e+00 1.12074220e+00 1.07447351e+00 1.41482661e+00 1.44074293e+00 1.20416091e+00 1.31624744e+00 1.33026040e+00 1.73078136e+00 1.12582634e+00 1.12518703e+00 1.34911456e+00 1.85272966e+00 1.23728563e+00 1.48081793e+00 1.38556884e+00 1.09648769e+00 1.07604473e+00 1.32005405e+00 1.10437622e+00 1.30443824e+00 1.07316986e+00 1.30872816e+00 1.06761826e+00 1.31254447e+00 1.10595013e+00 1.20314008e+00 1.08462890e+00 7.61711626e-01 1.44108590e+00 1.87887988e+00 1.29890716e+00 1.16861930e+00 1.02666738e+00 7.02768263e-01 8.06834549e-01 1.41836297e+00 1.04651758e+00 1.10394331e+00 1.20307673e+00 1.19697413e+00 9.26632801e-01 9.57251839e-01 1.34778548e+00 9.73262458e-01 1.31122188e+00 1.29045886e+00 9.52421338e-01 1.03742060e+00 7.54732668e-01 1.23568840e+00 5.91315777e-01 9.80811005e-01 1.11988835e+00 1.06045202e+00 8.61373155e-01 7.34826769e-01 7.77986680e-01 5.65747079e-01 9.00731216e-01 6.60772098e-01 9.07220595e-01 8.57876431e-01 1.11720473e+00 1.03018356e+00 4.80056223e-01 6.51292292e-01 5.88496855e-01 6.08892137e-01 1.12106331e+00 7.31208505e-01 9.38912765e-01 1.23998947e+00 1.29599876e+00 1.10662812e+00 1.08997438e+00 7.52495048e-01 1.04430300e+00 9.73097530e-01 1.34457068e+00 8.28637892e-01 8.85935939e-01 1.22853260e+00 7.90483648e-01 8.51645436e-01 9.65679556e-01 1.13240872e+00 1.01474234e+00 8.59998023e-01 1.07839781e+00 9.08797603e-01 5.88580122e-01 1.10860489e+00 1.09238969e+00 1.13121294e+00 5.02484772e-01 7.22310004e-01 1.10135996e+00 9.82066566e-01 4.18849673e-01 9.53632329e-01 1.18401562e+00 5.75554063e-01 4.49710398e-01 6.03616133e-01 1.27584855e+00 4.67942368e-01 1.38410715e+00 8.02948166e-01 1.37530715e+00 9.05260862e-01 1.01338608e+00 7.15632569e-01 9.04753895e-01 5.07346252e-01 5.66169388e-01 9.44332393e-01 1.09451991e+00 8.30354683e-01 9.12072743e-01 5.30787425e-01 3.55188182e-01 5.01081142e-01 7.08501205e-01 9.85310340e-01 7.49942875e-01 6.21135614e-01 8.75827339e-01 8.30303503e-01 6.61935224e-01 8.67642425e-01 7.75669615e-01 1.08197493e+00 6.21581488e-01 4.34425687e-01 2.60080868e-01 3.75676860e-01 4.52010040e-01 4.54930868e-01 5.33671035e-01 4.95407198e-01 4.26526960e-01 5.77538174e-01 4.72775266e-01 8.71461302e-01 3.26867419e-01 3.43078698e-01 4.01581059e-01 7.22904099e-01 9.60645892e-01 3.18814417e-01 7.02946259e-01 6.27999788e-01 7.08079943e-01 4.67793764e-01 6.70403126e-01 6.70377966e-01 4.83552993e-01 4.30267963e-01 2.82742019e-01 3.38952514e-01 5.95176919e-01 3.85390063e-01 6.40061750e-01 5.83302334e-01 5.00699797e-01 5.98654116e-01 6.88672337e-01 7.07511593e-01 3.99050586e-01 3.69427327e-01 3.75565202e-01 6.13546632e-01 4.23418022e-01 5.06823629e-01 6.57097506e-01 4.56803442e-01 4.84732116e-01 1.16676989e+00 7.71820184e-01 5.52452819e-01 1.03077147e+00 2.65122505e-01 3.60120189e-01 3.18099882e-01 4.72169036e-01 4.57389752e-01 4.84842573e-01 5.84699502e-01 2.66005509e-01 6.02061742e-01 4.17031754e-01 2.71127424e-01 7.75382068e-01 4.95948251e-01 2.32563078e-01 4.26166043e-01 4.69404649e-01 6.90897725e-01 7.70343955e-01 7.55244393e-01 6.44219710e-01 4.03487540e-01 4.52069649e-01 1.71801929e-01 2.95930115e-01 6.52845201e-01 1.86186194e-01 2.34254171e-01 4.15276342e-01 3.49160500e-01 2.00728985e-01 1.39336803e-01 5.62155087e-01 2.54058427e-01 3.98951540e-01 3.76051033e-01 5.02832742e-01 7.83990781e-01 4.04170167e-01 3.06377670e-01 2.17611468e-01 4.12154036e-01 1.59157834e-01 3.04862029e-01 2.51214002e-01 4.39202406e-01 4.21607346e-01 1.95381401e-01 4.67825937e-01 2.20702882e-01 2.72723422e-01 5.92861062e-01 5.46208827e-01 1.55581919e-01 8.29369189e-02 8.81512366e-01 5.79795697e-01 4.92855599e-01 2.28297610e-01 1.30032006e-01 9.82427096e-02 9.65106024e-02 1.77293230e-01 5.94976595e-01 2.93395741e-01 2.23142037e-01 2.29574625e-01 4.52407513e-01 3.33552396e-01 2.80705289e-01 2.70116946e-01 3.36783694e-01 4.43098896e-01 1.30952989e-01 2.02580104e-01 5.18630178e-01 1.49929413e-01 3.19260606e-01 1.55768782e-01 3.33297406e-01 1.05053396e-01 1.85589042e-01 1.13096600e-01 1.22668997e-01 3.97828554e-01 6.51103687e-02 1.66825660e-01 1.69762421e-01 6.48089140e-01 1.49199859e-01 1.69950409e-01 1.32168625e-01 2.86096700e-01 8.06813054e-02 3.77866103e-01 1.95447484e-01 2.35104418e-01 3.85863518e-01 1.39250904e-01 7.58089051e-02 7.05887955e-02 1.45891820e-01 3.82187831e-01 1.45767616e-01 1.41591421e-01 2.59974913e-01 1.01001388e-01 2.65073150e-01 2.65150220e-01 1.44068346e-01 2.06573693e-01 8.02212594e-03 3.54230514e-01 2.51958538e-01 7.57486663e-02 5.44707827e-02 5.46085825e-02 9.79280917e-02 3.76339160e-01 2.09332655e-01 6.83550670e-02 2.78915476e-02 1.10656423e-01 6.69076934e-02 8.18076702e-02 3.44375003e-01 1.89620167e-01 2.04246968e-01 1.75591720e-01 5.83465653e-02 5.69649543e-02 1.01786002e-01 3.37741644e-01 9.15541433e-02 1.35801881e-01 1.37196975e-01 2.26356971e-01 2.43821581e-01 3.38253082e-01 1.37617096e-01 3.12277555e-02 1.80187679e-01 1.43431094e-01 2.30773701e-02 7.57435159e-02 4.46259968e-01 4.47326607e-03 1.01291107e-01 1.93659205e-01 7.57178070e-02 3.87552229e-02 1.57975093e-01 1.32670274e-02 5.13454234e-02 1.67405932e-01 1.81657251e-02 4.18287100e-02 3.84247835e-01 1.75080007e-01 7.24832971e-02 1.36357011e-01 9.49753940e-03 7.69794675e-02 6.03461302e-02 3.65406760e-02 1.63526263e-01 1.17256787e-01 7.85233061e-02 3.20623974e-03 1.80383155e-01 1.15189903e-02 2.61553501e-01 2.05951827e-01 1.28230532e-02 2.51146660e-01 1.01824800e-01 6.93857813e-03 5.46862124e-02 5.07318405e-02 6.43540244e-03 1.19047639e-01 3.26029807e-02 1.32925469e-02 8.37998980e-03 1.51016934e-01 2.67759029e-02 1.80972859e-02 3.15280003e-03 3.01602408e-01 1.45091610e-01 2.62269206e-02 5.15156213e-02 4.74227272e-02 1.83598253e-02 1.45276073e-01 1.75859439e-01 1.58437952e-02 4.96469288e-03 1.72849583e-03 6.13979970e-02 1.25140841e-01 1.02790019e-01 3.00684017e-02 2.88978135e-03 7.73551813e-02 4.91593499e-04 1.56098104e-01 1.93562997e-02 4.26599260e-02 3.34329624e-02 2.35599484e-03 1.77619034e-03 3.31836994e-04 9.84465809e-03 4.94804663e-03 1.53957920e-01 2.43276556e-02 1.17444818e-01 0.00000000e+00 1.94643097e-01 3.30014668e-03 4.55192894e-04 6.54939900e-02 1.25049115e-01 3.45761320e-02 1.97568309e-01 4.06972832e-02 6.34082370e-02 0.00000000e+00 0.00000000e+00 1.09588296e-03 1.11173036e-02 4.22982756e-02 5.13321538e-02 0.00000000e+00 9.90415057e-03 0.00000000e+00 4.56734036e-03 8.74458898e-02 5.47755158e-02 1.08194653e-01 2.66905480e-02 1.36834784e-01 8.54529370e-02 0.00000000e+00 4.28758605e-03 0.00000000e+00 1.16179355e-03 1.62941060e-03 6.76037742e-02 1.77900762e-02 6.98856384e-02 7.06699695e-02 3.66714556e-04 7.80939073e-03 2.13987863e-02 2.37897735e-02 4.20312476e-02 0.00000000e+00 1.14118909e-02 0.00000000e+00 0.00000000e+00 5.78829862e-03 1.61723400e-01 0.00000000e+00 5.85368070e-03 8.42037317e-03 1.94618658e-02 0.00000000e+00 0.00000000e+00 0.00000000e+00 3.79734949e-02 0.00000000e+00 3.30026137e-02 1.81413114e-02 0.00000000e+00 4.87268147e-03 6.47901481e-03 3.66441253e-04 5.42870904e-02 2.35760420e-03 6.54514588e-04 6.00900809e-02 2.99723787e-04 1.56337941e-03 0.00000000e+00 7.17897624e-04 3.28166356e-03 0.00000000e+00 0.00000000e+00 7.29957580e-03 1.79720794e-03 4.10226146e-04 0.00000000e+00 0.00000000e+00 1.81263400e-03 0.00000000e+00 3.50557463e-04 0.00000000e+00 0.00000000e+00 0.00000000e+00 0.00000000e+00 3.15792416e-02 0.00000000e+00 2.22600203e-02 0.00000000e+00 0.00000000e+00 0.00000000e+00 0.00000000e+00 0.00000000e+00 1.36031344e-03 0.00000000e+00 0.00000000e+00 0.00000000e+00 3.77381449e-04 1.66715597e-03 5.02588490e-04 0.00000000e+00 0.00000000e+00 0.00000000e+00 0.00000000e+00 0.00000000e+00 0.00000000e+00 0.00000000e+00 0.00000000e+00 2.57469170e-04 1.91167299e-02 0.00000000e+00 0.00000000e+00 2.26528216e-02 0.00000000e+00 0.00000000e+00 2.99089210e-04 0.00000000e+00 0.00000000e+00 0.00000000e+00 0.00000000e+00 8.14871740e-03 0.00000000e+00 2.85262442e-02 0.00000000e+00 0.00000000e+00 6.11379579e-02 0.00000000e+00 0.00000000e+00 3.22546451e-04 1.31823443e-03 0.00000000e+00 0.00000000e+00 7.98072042e-04 0.00000000e+00 9.17838160e-03 1.54232292e-03 0.00000000e+00 0.00000000e+00 0.00000000e+00 0.00000000e+00 0.00000000e+00 0.00000000e+00 0.00000000e+00 8.62237122e-02 0.00000000e+00 0.00000000e+00 0.00000000e+00 4.48385367e-03 0.00000000e+00 0.00000000e+00 0.00000000e+00 0.00000000e+00 6.18559302e-04 0.00000000e+00 4.11600005e-04 0.00000000e+00 0.00000000e+00 0.00000000e+00 0.00000000e+00 0.00000000e+00 0.00000000e+00 0.00000000e+00 0.00000000e+00 0.00000000e+00 0.00000000e+00 0.00000000e+00 0.00000000e+00 0.00000000e+00 0.00000000e+00 0.00000000e+00 0.00000000e+00 0.00000000e+00 0.00000000e+00 0.00000000e+00 0.00000000e+00 0.00000000e+00 0.00000000e+00 0.00000000e+00 0.00000000e+00 0.00000000e+00 0.00000000e+00 0.00000000e+00 0.00000000e+00 0.00000000e+00 0.00000000e+00 0.00000000e+00 0.00000000e+00 0.00000000e+00 0.00000000e+00 7.55254454e-04 0.00000000e+00 0.00000000e+00 0.00000000e+00 0.00000000e+00 0.00000000e+00 0.00000000e+00 0.00000000e+00 0.00000000e+00 0.00000000e+00 0.00000000e+00 0.00000000e+00 0.00000000e+00 0.00000000e+00 0.00000000e+00 0.00000000e+00 2.20349125e-02 0.00000000e+00 0.00000000e+00 0.00000000e+00 0.00000000e+00 0.00000000e+00 0.00000000e+00 0.00000000e+00 0.00000000e+00 0.00000000e+00 0.00000000e+00 0.00000000e+00 0.00000000e+00 0.00000000e+00 0.00000000e+00 0.00000000e+00 
      </Histogram>
    </PDF>
    <PDF Name="BDT_PDFBkg" MinNSmooth="0" MaxNSmooth="0" InterpolMethod="2" KDE_type="1" KDE_iter="1" KDE_border="1" KDE_finefactor="1.0000000000000000e+00">
      <Histogram Name="BDT_tr_B_original" NBins="3312" XMin="-2.9865711927413940e-01" XMax="5.3798031806945801e-01" HasEquidistantBins="1">
        3.44534729e+00 0.00000000e+00 0.00000000e+00 0.00000000e+00 0.00000000e+00 0.00000000e+00 0.00000000e+00 0.00000000e+00 0.00000000e+00 0.00000000e+00 0.00000000e+00 0.00000000e+00 0.00000000e+00 0.00000000e+00 0.00000000e+00 0.00000000e+00 3.44534729e+00 0.00000000e+00 0.00000000e+00 0.00000000e+00 0.00000000e+00 0.00000000e+00 0.00000000e+00 0.00000000e+00 0.00000000e+00 0.00000000e+00 0.00000000e+00 0.00000000e+00 0.00000000e+00 0.00000000e+00 0.00000000e+00 0.00000000e+00 0.00000000e+00 0.00000000e+00 0.00000000e+00 0.00000000e+00 0.00000000e+00 0.00000000e+00 0.00000000e+00 0.00000000e+00 0.00000000e+00 0.00000000e+00 0.00000000e+00 0.00000000e+00 0.00000000e+00 3.44534729e+00 0.00000000e+00 0.00000000e+00 0.00000000e+00 0.00000000e+00 0.00000000e+00 0.00000000e+00 0.00000000e+00 0.00000000e+00 0.00000000e+00 0.00000000e+00 0.00000000e+00 0.00000000e+00 0.00000000e+00 0.00000000e+00 0.00000000e+00 0.00000000e+00 0.00000000e+00 3.44534729e+00 0.00000000e+00 0.00000000e+00 0.00000000e+00 0.00000000e+00 0.00000000e+00 0.00000000e+00 0.00000000e+00 0.00000000e+00 0.00000000e+00 0.00000000e+00 0.00000000e+00 0.00000000e+00 0.00000000e+00 0.00000000e+00 0.00000000e+00 0.00000000e+00 0.00000000e+00 0.00000000e+00 0.00000000e+00 0.00000000e+00 0.00000000e+00 0.00000000e+00 0.00000000e+00 0.00000000e+00 0.00000000e+00 0.00000000e+00 3.44534729e+00 0.00000000e+00 0.00000000e+00 0.00000000e+00 0.00000000e+00 0.00000000e+00 0.00000000e+00 0.00000000e+00 0.00000000e+00 0.00000000e+00 0.00000000e+00 0.00000000e+00 0.00000000e+00 0.00000000e+00 0.00000000e+00 0.00000000e+00 0.00000000e+00 0.00000000e+00 0.00000000e+00 0.00000000e+00 0.00000000e+00 0.00000000e+00 0.00000000e+00 0.00000000e+00 0.00000000e+00 0.00000000e+00 0.00000000e+00 0.00000000e+00 0.00000000e+00 0.00000000e+00 0.00000000e+00 0.00000000e+00 0.00000000e+00 0.00000000e+00 0.00000000e+00 0.00000000e+00 0.00000000e+00 0.00000000e+00 0.00000000e+00 0.00000000e+00 0.00000000e+00 0.00000000e+00 0.00000000e+00 0.00000000e+00 0.00000000e+00 3.44534729e+00 0.00000000e+00 0.00000000e+00 0.00000000e+00 0.00000000e+00 0.00000000e+00 3.44534729e+00 0.00000000e+00 0.00000000e+00 0.00000000e+00 0.00000000e+00 0.00000000e+00 0.00000000e+00 0.00000000e+00 0.00000000e+00 0.00000000e+00 0.00000000e+00 0.00000000e+00 0.00000000e+00 0.00000000e+00 0.00000000e+00 0.00000000e+00 0.00000000e+00 0.00000000e+00 0.00000000e+00 0.00000000e+00 0.00000000e+00 0.00000000e+00 0.00000000e+00 0.00000000e+00 0.00000000e+00 0.00000000e+00 0.00000000e+00 0.00000000e+00 0.00000000e+00 0.00000000e+00 0.00000000e+00 0.00000000e+00 0.00000000e+00 0.00000000e+00 0.00000000e+00 0.00000000e+00 0.00000000e+00 0.00000000e+00 0.00000000e+00 0.00000000e+00 0.00000000e+00 0.00000000e+00 0.00000000e+00 0.00000000e+00 0.00000000e+00 0.00000000e+00 0.00000000e+00 3.44534729e+00 0.00000000e+00 0.00000000e+00 0.00000000e+00 0.00000000e+00 0.00000000e+00 0.00000000e+00 0.00000000e+00 0.00000000e+00 0.00000000e+00 3.44534729e+00 0.00000000e+00 0.00000000e+00 0.00000000e+00 0.00000000e+00 0.00000000e+00 0.00000000e+00 0.00000000e+00 0.00000000e+00 0.00000000e+00 0.00000000e+00 0.00000000e+00 3.44534729e+00 0.00000000e+00 0.00000000e+00 0.00000000e+00 0.00000000e+00 0.00000000e+00 0.00000000e+00 3.44534729e+00 0.00000000e+00 0.00000000e+00 0.00000000e+00 0.00000000e+00 0.00000000e+00 0.00000000e+00 0.00000000e+00 0.00000000e+00 0.00000000e+00 0.00000000e+00 0.00000000e+00 0.00000000e+00 0.00000000e+00 3.44534729e+00 0.00000000e+00 0.00000000e+00 0.00000000e+00 3.44534729e+00 0.00000000e+00 0.00000000e+00 0.00000000e+00 0.00000000e+00 0.00000000e+00 0.00000000e+00 0.00000000e+00 0.00000000e+00 3.44534729e+00 0.00000000e+00 0.00000000e+00 0.00000000e+00 0.00000000e+00 0.00000000e+00 0.00000000e+00 0.00000000e+00 0.00000000e+00 0.00000000e+00 0.00000000e+00 0.00000000e+00 0.00000000e+00 0.00000000e+00 6.89069458e+00 0.00000000e+00 0.00000000e+00 0.00000000e+00 0.00000000e+00 0.00000000e+00 0.00000000e+00 0.00000000e+00 0.00000000e+00 0.00000000e+00 0.00000000e+00 0.00000000e+00 0.00000000e+00 0.00000000e+00 0.00000000e+00 0.00000000e+00 0.00000000e+00 0.00000000e+00 3.44534729e+00 0.00000000e+00 0.00000000e+00 3.44534729e+00 0.00000000e+00 0.00000000e+00 0.00000000e+00 3.44534729e+00 0.00000000e+00 0.00000000e+00 0.00000000e+00 3.44534729e+00 0.00000000e+00 0.00000000e+00 0.00000000e+00 0.00000000e+00 0.00000000e+00 3.44534729e+00 0.00000000e+00 6.89069458e+00 0.00000000e+00 0.00000000e+00 0.00000000e+00 0.00000000e+00 0.00000000e+00 0.00000000e+00 0.00000000e+00 0.00000000e+00 3.44534729e+00 0.00000000e+00 3.44534729e+00 0.00000000e+00 3.44534729e+00 3.44534729e+00 0.00000000e+00 0.00000000e+00 0.00000000e+00 0.00000000e+00 0.00000000e+00 0.00000000e+00 6.89069458e+00 3.44534729e+00 0.00000000e+00 0.00000000e+00 0.00000000e+00 0.00000000e+00 0.00000000e+00 0.00000000e+00 0.00000000e+00 0.00000000e+00 0.00000000e+00 0.00000000e+00 0.00000000e+00 3.44534729e+00 0.00000000e+00 3.44534729e+00 0.00000000e+00 3.44534729e+00 0.00000000e+00 3.44534729e+00 0.00000000e+00 0.00000000e+00 3.44534729e+00 0.00000000e+00 0.00000000e+00 0.00000000e+00 0.00000000e+00 0.00000000e+00 6.89069458e+00 3.44534729e+00 0.00000000e+00 6.89069458e+00 0.00000000e+00 0.00000000e+00 3.44534729e+00 3.44534729e+00 0.00000000e+00 0.00000000e+00 0.00000000e+00 0.00000000e+00 3.44534729e+00 3.44534729e+00 0.00000000e+00 3.44534729e+00 0.00000000e+00 0.00000000e+00 3.44534729e+00 0.00000000e+00 0.00000000e+00 0.00000000e+00 0.00000000e+00 0.00000000e+00 0.00000000e+00 0.00000000e+00 0.00000000e+00 0.00000000e+00 0.00000000e+00 3.44534729e+00 3.44534729e+00 0.00000000e+00 3.44534729e+00 0.00000000e+00 0.00000000e+00 0.00000000e+00 0.00000000e+00 3.44534729e+00 3.44534729e+00 0.00000000e+00 0.00000000e+00 0.00000000e+00 3.44534729e+00 0.00000000e+00 0.00000000e+00 3.44534729e+00 3.44534729e+00 0.00000000e+00 3.44534729e+00 0.00000000e+00 3.44534729e+00 0.00000000e+00 0.00000000e+00 0.00000000e+00 3.44534729e+00 3.44534729e+00 0.00000000e+00 0.00000000e+00 6.89069458e+00 3.44534729e+00 0.00000000e+00 3.44534729e+00 0.00000000e+00 0.00000000e+00 0.00000000e+00 0.00000000e+00 0.00000000e+00 0.00000000e+00 3.44534729e+00 0.00000000e+00 0.00000000e+00 0.00000000e+00 0.00000000e+00 0.00000000e+00 0.00000000e+00 0.00000000e+00 0.00000000e+00 0.00000000e+00 3.44534729e+00 0.00000000e+00 3.44534729e+00 3.44534729e+00 3.44534729e+00 6.89069458e+00 0.00000000e+00 3.44534729e+00 3.44534729e+00 0.00000000e+00 3.44534729e+00 0.00000000e+00 0.00000000e+00 3.44534729e+00 0.00000000e+00 0.00000000e+00 3.44534729e+00 0.00000000e+00 3.44534729e+00 0.00000000e+00 0.00000000e+00 0.00000000e+00 0.00000000e+00 3.44534729e+00 0.00000000e+00 3.44534729e+00 0.00000000e+00 0.00000000e+00 0.00000000e+00 0.00000000e+00 0.00000000e+00 0.00000000e+00 1.03360419e+01 0.00000000e+00 0.00000000e+00 0.00000000e+00 0.00000000e+00 3.44534729e+00 0.00000000e+00 0.00000000e+00 0.00000000e+00 3.44534729e+00 6.89069458e+00 3.44534729e+00 3.44534729e+00 3.44534729e+00 0.00000000e+00 0.00000000e+00 6.89069458e+00 3.44534729e+00 0.00000000e+00 0.00000000e+00 0.00000000e+00 0.00000000e+00 0.00000000e+00 6.89069458e+00 3.44534729e+00 0.00000000e+00 6.89069458e+00 0.00000000e+00 0.00000000e+00 0.00000000e+00 0.00000000e+00 0.00000000e+00 0.00000000e+00 0.00000000e+00 6.89069458e+00 0.00000000e+00 0.00000000e+00 6.89069458e+00 0.00000000e+00 3.44534729e+00 0.00000000e+00 3.44534729e+00 0.00000000e+00 3.44534729e+00 0.00000000e+00 0.00000000e+00 0.00000000e+00 3.44534729e+00 0.00000000e+00 6.89069458e+00 0.00000000e+00 0.00000000e+00 6.89069458e+00 0.00000000e+00 0.00000000e+00 0.00000000e+00 3.44534729e+00 0.00000000e+00 0.00000000e+00 3.44534729e+00 0.00000000e+00 0.00000000e+00 6.89069458e+00 0.00000000e+00 0.00000000e+00 3.44534729e+00 3.44534729e+00 3.44534729e+00 3.44534729e+00 0.00000000e+00 0.00000000e+00 0.00000000e+00 3.44534729e+00 0.00000000e+00 0.00000000e+00 0.00000000e+00 3.44534729e+00 0.00000000e+00 0.00000000e+00 0.00000000e+00 0.00000000e+00 3.44534729e+00 0.00000000e+00 0.00000000e+00 0.00000000e+00 0.00000000e+00 0.00000000e+00 0.00000000e+00 0.00000000e+00 0.00000000e+00 6.89069458e+00 0.00000000e+00 0.00000000e+00 3.44534729e+00 3.44534729e+00 3.44534729e+00 0.00000000e+00 3.44534729e+00 3.44534729e+00 0.00000000e+00 0.00000000e+00 6.89069458e+00 0.00000000e+00 3.44534729e+00 3.44534729e+00 3.44534729e+00 0.00000000e+00 0.00000000e+00 6.89069458e+00 3.44534729e+00 0.00000000e+00 0.00000000e+00 0.00000000e+00 3.44534729e+00 0.00000000e+00 0.00000000e+00 3.44534729e+00 0.00000000e+00 0.00000000e+00 0.00000000e+00 3.44534729e+00 3.44534729e+00 3.44534729e+00 0.00000000e+00 0.00000000e+00 0.00000000e+00 0.00000000e+00 3.44534729e+00 0.00000000e+00 0.00000000e+00 3.44534729e+00 1.37813892e+01 0.00000000e+00 0.00000000e+00 0.00000000e+00 0.00000000e+00 0.00000000e+00 3.44534729e+00 0.00000000e+00 3.44534729e+00 1.37813892e+01 3.44534729e+00 3.44534729e+00 3.44534729e+00 3.44534729e+00 3.44534729e+00 3.44534729e+00 3.44534729e+00 3.44534729e+00 3.44534729e+00 0.00000000e+00 0.00000000e+00 0.00000000e+00 1.03360419e+01 0.00000000e+00 6.89069458e+00 3.44534729e+00 0.00000000e+00 1.03360419e+01 0.00000000e+00 3.44534729e+00 3.44534729e+00 3.44534729e+00 0.00000000e+00 0.00000000e+00 0.00000000e+00 0.00000000e+00 3.44534729e+00 3.44534729e+00 0.00000000e+00 3.44534729e+00 3.44534729e+00 3.44534729e+00 3.44534729e+00 3.44534729e+00 0.00000000e+00 0.00000000e+00 3.44534729e+00 0.00000000e+00 0.00000000e+00 3.44534729e+00 0.00000000e+00 1.03360419e+01 0.00000000e+00 0.00000000e+00 0.00000000e+00 0.00000000e+00 0.00000000e+00 0.00000000e+00 3.44534729e+00 3.44534729e+00 0.00000000e+00 0.00000000e+00 0.00000000e+00 0.00000000e+00 6.89069458e+00 0.00000000e+00 0.00000000e+00 3.44534729e+00 0.00000000e+00 1.37813892e+01 0.00000000e+00 3.44534729e+00 6.89069458e+00 1.03360419e+01 1.03360419e+01 3.44534729e+00 1.37813892e+01 3.44534729e+00 0.00000000e+00 1.37813892e+01 0.00000000e+00 6.89069458e+00 0.00000000e+00 3.44534729e+00 0.00000000e+00 0.00000000e+00 1.03360419e+01 0.00000000e+00 3.44534729e+00 6.89069458e+00 3.44534729e+00 3.44534729e+00 3.44534729e+00 3.44534729e+00 3.44534729e+00 3.44534729e+00 0.00000000e+00 0.00000000e+00 6.89069458e+00 3.44534729e+00 3.44534729e+00 0.00000000e+00 0.00000000e+00 3.44534729e+00 0.00000000e+00 3.44534729e+00 3.44534729e+00 1.37813892e+01 0.00000000e+00 3.44534729e+00 3.44534729e+00 0.00000000e+00 2.06720837e+01 3.44534729e+00 1.37813892e+01 0.00000000e+00 3.44534729e+00 1.03360419e+01 3.44534729e+00 0.00000000e+00 3.44534729e+00 0.00000000e+00 1.03360419e+01 3.44534729e+00 6.89069458e+00 0.00000000e+00 0.00000000e+00 6.89069458e+00 0.00000000e+00 0.00000000e+00 3.44534729e+00 6.89069458e+00 3.44534729e+00 0.00000000e+00 0.00000000e+00 0.00000000e+00 6.89069458e+00 0.00000000e+00 6.89069458e+00 3.44534729e+00 6.89069458e+00 6.89069458e+00 0.00000000e+00 6.89069458e+00 3.44534729e+00 0.00000000e+00 1.03360419e+01 3.44534729e+00 0.00000000e+00 0.00000000e+00 6.89069458e+00 3.44534729e+00 1.03360419e+01 0.00000000e+00 3.44534729e+00 3.44534729e+00 1.03360419e+01 0.00000000e+00 3.44534729e+00 0.00000000e+00 3.44534729e+00 0.00000000e+00 0.00000000e+00 0.00000000e+00 6.89069458e+00 6.89069458e+00 6.89069458e+00 6.89069458e+00 3.44534729e+00 3.44534729e+00 0.00000000e+00 0.00000000e+00 3.44534729e+00 1.03360419e+01 3.44534729e+00 3.44534729e+00 6.89069458e+00 3.44534729e+00 1.37813892e+01 6.89069458e+00 0.00000000e+00 6.89069458e+00 3.44534729e+00 3.44534729e+00 3.44534729e+00 0.00000000e+00 3.44534729e+00 3.44534729e+00 3.44534729e+00 0.00000000e+00 6.89069458e+00 1.37813892e+01 0.00000000e+00 3.44534729e+00 3.44534729e+00 3.44534729e+00 3.44534729e+00 0.00000000e+00 0.00000000e+00 6.89069458e+00 3.44534729e+00 1.37813892e+01 3.44534729e+00 0.00000000e+00 6.89069458e+00 3.44534729e+00 3.44534729e+00 6.89069458e+00 6.89069458e+00 3.44534729e+00 3.44534729e+00 0.00000000e+00 3.44534729e+00 3.44534729e+00 0.00000000e+00 0.00000000e+00 0.00000000e+00 3.44534729e+00 3.44534729e+00 0.00000000e+00 6.89069458e+00 3.44534729e+00 0.00000000e+00 6.89069458e+00 0.00000000e+00 0.00000000e+00 3.44534729e+00 6.89069458e+00 6.89069458e+00 0.00000000e+00 1.03360419e+01 3.44534729e+00 1.37813892e+01 0.00000000e+00 0.00000000e+00 1.37813892e+01 6.89069458e+00 0.00000000e+00 3.44534729e+00 1.03360419e+01 3.44534729e+00 3.44534729e+00 1.03360419e+01 6.89069458e+00 6.89069458e+00 0.00000000e+00 6.89069458e+00 3.44534729e+00 6.89069458e+00 6.89069458e+00 0.00000000e+00 6.89069458e+00 3.44534729e+00 3.44534729e+00 1.03360419e+01 3.44534729e+00 0.00000000e+00 3.44534729e+00 0.00000000e+00 3.44534729e+00 0.00000000e+00 0.00000000e+00 3.44534729e+00 6.89069458e+00 0.00000000e+00 0.00000000e+00 0.00000000e+00 3.44534729e+00 0.00000000e+00 3.44534729e+00 0.00000000e+00 1.37813892e+01 2.06720837e+01 0.00000000e+00 6.89069458e+00 6.89069458e+00 0.00000000e+00 1.03360419e+01 3.44534729e+00 0.00000000e+00 0.00000000e+00 0.00000000e+00 0.00000000e+00 0.00000000e+00 3.44534729e+00 3.44534729e+00 0.00000000e+00 6.89069458e+00 0.00000000e+00 3.44534729e+00 3.44534729e+00 3.44534729e+00 3.44534729e+00 3.44534729e+00 0.00000000e+00 1.03360419e+01 0.00000000e+00 0.00000000e+00 0.00000000e+00 1.03360419e+01 6.89069458e+00 3.44534729e+00 3.44534729e+00 0.00000000e+00 3.44534729e+00 3.44534729e+00 6.89069458e+00 3.44534729e+00 0.00000000e+00 0.00000000e+00 3.44534729e+00 0.00000000e+00 0.00000000e+00 1.03360419e+01 6.89069458e+00 1.37813892e+01 1.37813892e+01 0.00000000e+00 0.00000000e+00 3.44534729e+00 0.00000000e+00 6.89069458e+00 1.37813892e+01 3.44534729e+00 0.00000000e+00 6.89069458e+00 3.44534729e+00 6.89069458e+00 0.00000000e+00 6.89069458e+00 3.44534729e+00 0.00000000e+00 0.00000000e+00 6.89069458e+00 3.44534729e+00 3.44534729e+00 1.03360419e+01 0.00000000e+00 0.00000000e+00 3.44534729e+00 0.00000000e+00 6.89069458e+00 6.89069458e+00 0.00000000e+00 3.44534729e+00 1.37813892e+01 0.00000000e+00 0.00000000e+00 0.00000000e+00 3.44534729e+00 6.89069458e+00 0.00000000e+00 0.00000000e+00 3.44534729e+00 3.44534729e+00 3.44534729e+00 1.03360419e+01 0.00000000e+00 0.00000000e+00 0.00000000e+00 0.00000000e+00 0.00000000e+00 0.00000000e+00 3.44534729e+00 0.00000000e+00 3.44534729e+00 3.44534729e+00 6.89069458e+00 3.44534729e+00 0.00000000e+00 0.00000000e+00 6.89069458e+00 3.44534729e+00 3.44534729e+00 6.89069458e+00 3.44534729e+00 3.44534729e+00 0.00000000e+00 3.44534729e+00 0.00000000e+00 0.00000000e+00 3.44534729e+00 0.00000000e+00 3.44534729e+00 3.44534729e+00 1.03360419e+01 6.89069458e+00 0.00000000e+00 0.00000000e+00 0.00000000e+00 0.00000000e+00 3.44534729e+00 0.00000000e+00 0.00000000e+00 0.00000000e+00 3.44534729e+00 3.44534729e+00 0.00000000e+00 3.44534729e+00 6.89069458e+00 0.00000000e+00 1.03360419e+01 0.00000000e+00 0.00000000e+00 0.00000000e+00 3.44534729e+00 6.89069458e+00 1.03360419e+01 0.00000000e+00 0.00000000e+00 3.44534729e+00 0.00000000e+00 6.89069458e+00 3.44534729e+00 0.00000000e+00 0.00000000e+00 3.44534729e+00 3.44534729e+00 0.00000000e+00 3.44534729e+00 0.00000000e+00 3.44534729e+00 0.00000000e+00 3.44534729e+00 1.03360419e+01 0.00000000e+00 0.00000000e+00 3.44534729e+00 0.00000000e+00 0.00000000e+00 3.44534729e+00 1.03360419e+01 3.44534729e+00 0.00000000e+00 3.44534729e+00 1.03360419e+01 0.00000000e+00 0.00000000e+00 3.44534729e+00 0.00000000e+00 0.00000000e+00 0.00000000e+00 3.44534729e+00 0.00000000e+00 6.89069458e+00 6.89069458e+00 6.89069458e+00 0.00000000e+00 3.44534729e+00 6.89069458e+00 0.00000000e+00 3.44534729e+00 3.44534729e+00 3.44534729e+00 3.44534729e+00 6.89069458e+00 0.00000000e+00 6.89069458e+00 6.89069458e+00 0.00000000e+00 0.00000000e+00 6.89069458e+00 0.00000000e+00 0.00000000e+00 3.44534729e+00 1.03360419e+01 0.00000000e+00 1.03360419e+01 6.89069458e+00 6.89069458e+00 1.03360419e+01 0.00000000e+00 6.89069458e+00 0.00000000e+00 6.89069458e+00 0.00000000e+00 0.00000000e+00 6.89069458e+00 6.89069458e+00 3.44534729e+00 0.00000000e+00 0.00000000e+00 6.89069458e+00 3.44534729e+00 6.89069458e+00 6.89069458e+00 6.89069458e+00 3.44534729e+00 0.00000000e+00 0.00000000e+00 3.44534729e+00 3.44534729e+00 1.03360419e+01 6.89069458e+00 3.44534729e+00 3.44534729e+00 0.00000000e+00 0.00000000e+00 3.44534729e+00 6.89069458e+00 0.00000000e+00 3.44534729e+00 3.44534729e+00 3.44534729e+00 3.44534729e+00 0.00000000e+00 0.00000000e+00 6.89069458e+00 0.00000000e+00 3.44534729e+00 3.44534729e+00 0.00000000e+00 0.00000000e+00 3.44534729e+00 0.00000000e+00 0.00000000e+00 0.00000000e+00 3.44534729e+00 3.44534729e+00 0.00000000e+00 6.89069458e+00 0.00000000e+00 3.44534729e+00 3.44534729e+00 0.00000000e+00 3.44534729e+00 1.03360419e+01 0.00000000e+00 0.00000000e+00 0.00000000e+00 0.00000000e+00 0.00000000e+00 3.44534729e+00 0.00000000e+00 6.89069458e+00 0.00000000e+00 1.03360419e+01 0.00000000e+00 3.44534729e+00 0.00000000e+00 3.44534729e+00 2.06720837e+01 0.00000000e+00 3.44534729e+00 3.44534729e+00 3.44534729e+00 3.44534729e+00 0.00000000e+00 3.44534729e+00 0.00000000e+00 3.44534729e+00 0.00000000e+00 6.89069458e+00 1.37813892e+01 3.44534729e+00 3.44534729e+00 0.00000000e+00 0.00000000e+00 3.44534729e+00 3.44534729e+00 6.89069458e+00 0.00000000e+00 6.89069458e+00 6.89069458e+00 0.00000000e+00 0.00000000e+00 3.44534729e+00 6.89069458e+00 0.00000000e+00 0.00000000e+00 6.89069458e+00 3.44534729e+00 0.00000000e+00 0.00000000e+00 0.00000000e+00 0.00000000e+00 0.00000000e+00 3.44534729e+00 0.00000000e+00 0.00000000e+00 0.00000000e+00 3.44534729e+00 6.89069458e+00 3.44534729e+00 0.00000000e+00 3.44534729e+00 3.44534729e+00 6.89069458e+00 2.06720837e+01 3.44534729e+00 3.44534729e+00 1.03360419e+01 0.00000000e+00 3.44534729e+00 0.00000000e+00 0.00000000e+00 1.03360419e+01 0.00000000e+00 0.00000000e+00 0.00000000e+00 6.89069458e+00 6.89069458e+00 1.37813892e+01 6.89069458e+00 0.00000000e+00 0.00000000e+00 0.00000000e+00 6.89069458e+00 3.44534729e+00 0.00000000e+00 3.44534729e+00 0.00000000e+00 0.00000000e+00 3.44534729e+00 1.72267364e+01 3.44534729e+00 6.89069458e+00 3.44534729e+00 3.44534729e+00 0.00000000e+00 0.00000000e+00 0.00000000e+00 0.00000000e+00 3.44534729e+00 3.44534729e+00 0.00000000e+00 0.00000000e+00 0.00000000e+00 3.44534729e+00 1.03360419e+01 3.44534729e+00 3.44534729e+00 0.00000000e+00 3.44534729e+00 6.89069458e+00 6.89069458e+00 0.00000000e+00 3.44534729e+00 0.00000000e+00 0.00000000e+00 3.44534729e+00 0.00000000e+00 0.00000000e+00 0.00000000e+00 3.44534729e+00 0.00000000e+00 0.00000000e+00 0.00000000e+00 6.89069458e+00 0.00000000e+00 0.00000000e+00 3.44534729e+00 6.89069458e+00 0.00000000e+00 1.03360419e+01 3.44534729e+00 6.89069458e+00 0.00000000e+00 0.00000000e+00 3.44534729e+00 3.44534729e+00 0.00000000e+00 1.03360419e+01 3.44534729e+00 0.00000000e+00 0.00000000e+00 0.00000000e+00 0.00000000e+00 0.00000000e+00 6.89069458e+00 0.00000000e+00 0.00000000e+00 0.00000000e+00 0.00000000e+00 3.44534729e+00 0.00000000e+00 0.00000000e+00 0.00000000e+00 0.00000000e+00 0.00000000e+00 0.00000000e+00 6.89069458e+00 3.44534729e+00 0.00000000e+00 0.00000000e+00 0.00000000e+00 0.00000000e+00 0.00000000e+00 0.00000000e+00 3.44534729e+00 0.00000000e+00 0.00000000e+00 0.00000000e+00 1.03360419e+01 0.00000000e+00 3.44534729e+00 0.00000000e+00 3.44534729e+00 0.00000000e+00 3.44534729e+00 0.00000000e+00 0.00000000e+00 3.44534729e+00 0.00000000e+00 0.00000000e+00 0.00000000e+00 3.44534729e+00 0.00000000e+00 0.00000000e+00 0.00000000e+00 0.00000000e+00 3.44534729e+00 3.44534729e+00 6.89069458e+00 3.44534729e+00 0.00000000e+00 0.00000000e+00 0.00000000e+00 0.00000000e+00 0.00000000e+00 0.00000000e+00 0.00000000e+00 0.00000000e+00 0.00000000e+00 3.44534729e+00 3.44534729e+00 1.03360419e+01 3.44534729e+00 3.44534729e+00 0.00000000e+00 6.89069458e+00 3.44534729e+00 0.00000000e+00 3.44534729e+00 0.00000000e+00 0.00000000e+00 3.44534729e+00 0.00000000e+00 0.00000000e+00 0.00000000e+00 3.44534729e+00 3.44534729e+00 3.44534729e+00 3.44534729e+00 0.00000000e+00 3.44534729e+00 0.00000000e+00 3.44534729e+00 0.00000000e+00 0.00000000e+00 0.00000000e+00 3.44534729e+00 0.00000000e+00 3.44534729e+00 3.44534729e+00 0.00000000e+00 0.00000000e+00 0.00000000e+00 3.44534729e+00 0.00000000e+00 0.00000000e+00 0.00000000e+00 0.00000000e+00 3.44534729e+00 0.00000000e+00 0.00000000e+00 0.00000000e+00 0.00000000e+00 0.00000000e+00 0.00000000e+00 0.00000000e+00 0.00000000e+00 0.00000000e+00 0.00000000e+00 0.00000000e+00 1.03360419e+01 3.44534729e+00 3.44534729e+00 6.89069458e+00 0.00000000e+00 0.00000000e+00 0.00000000e+00 1.37813892e+01 0.00000000e+00 0.00000000e+00 6.89069458e+00 0.00000000e+00 0.00000000e+00 0.00000000e+00 3.44534729e+00 0.00000000e+00 0.00000000e+00 0.00000000e+00 0.00000000e+00 6.89069458e+00 0.00000000e+00 0.00000000e+00 0.00000000e+00 6.89069458e+00 0.00000000e+00 0.00000000e+00 0.00000000e+00 0.00000000e+00 1.03360419e+01 0.00000000e+00 6.89069458e+00 0.00000000e+00 3.44534729e+00 0.00000000e+00 3.44534729e+00 3.44534729e+00 0.00000000e+00 3.44534729e+00 0.00000000e+00 0.00000000e+00 6.89069458e+00 0.00000000e+00 0.00000000e+00 0.00000000e+00 6.89069458e+00 3.44534729e+00 3.44534729e+00 0.00000000e+00 6.89069458e+00 3.44534729e+00 0.00000000e+00 0.00000000e+00 0.00000000e+00 0.00000000e+00 3.44534729e+00 3.44534729e+00 0.00000000e+00 0.00000000e+00 3.44534729e+00 0.00000000e+00 3.44534729e+00 3.44534729e+00 0.00000000e+00 3.44534729e+00 0.00000000e+00 3.44534729e+00 0.00000000e+00 0.00000000e+00 0.00000000e+00 0.00000000e+00 0.00000000e+00 0.00000000e+00 0.00000000e+00 3.44534729e+00 0.00000000e+00 0.00000000e+00 0.00000000e+00 1.03360419e+01 3.44534729e+00 0.00000000e+00 0.00000000e+00 0.00000000e+00 0.00000000e+00 0.00000000e+00 0.00000000e+00 0.00000000e+00 0.00000000e+00 3.44534729e+00 0.00000000e+00 0.00000000e+00 6.89069458e+00 0.00000000e+00 0.00000000e+00 1.37813892e+01 3.44534729e+00 3.44534729e+00 1.37813892e+01 3.44534729e+00 6.89069458e+00 0.00000000e+00 0.00000000e+00 6.89069458e+00 6.89069458e+00 3.44534729e+00 0.00000000e+00 3.44534729e+00 0.00000000e+00 3.44534729e+00 3.44534729e+00 6.89069458e+00 6.89069458e+00 0.00000000e+00 0.00000000e+00 3.44534729e+00 0.00000000e+00 0.00000000e+00 1.03360419e+01 0.00000000e+00 3.44534729e+00 3.44534729e+00 3.44534729e+00 3.44534729e+00 0.00000000e+00 0.00000000e+00 3.44534729e+00 0.00000000e+00 0.00000000e+00 6.89069458e+00 6.89069458e+00 0.00000000e+00 0.00000000e+00 6.89069458e+00 3.44534729e+00 0.00000000e+00 0.00000000e+00 0.00000000e+00 0.00000000e+00 6.89069458e+00 0.00000000e+00 0.00000000e+00 0.00000000e+00 3.44534729e+00 3.44534729e+00 3.44534729e+00 6.89069458e+00 1.03360419e+01 0.00000000e+00 3.44534729e+00 3.44534729e+00 3.44534729e+00 3.44534729e+00 3.44534729e+00 3.44534729e+00 0.00000000e+00 3.44534729e+00 0.00000000e+00 0.00000000e+00 0.00000000e+00 0.00000000e+00 3.44534729e+00 6.89069458e+00 0.00000000e+00 0.00000000e+00 0.00000000e+00 3.44534729e+00 0.00000000e+00 3.44534729e+00 0.00000000e+00 3.44534729e+00 0.00000000e+00 0.00000000e+00 0.00000000e+00 0.00000000e+00 0.00000000e+00 6.89069458e+00 0.00000000e+00 0.00000000e+00 6.89069458e+00 0.00000000e+00 0.00000000e+00 3.44534729e+00 3.44534729e+00 3.44534729e+00 3.44534729e+00 0.00000000e+00 3.44534729e+00 0.00000000e+00 3.44534729e+00 0.00000000e+00 6.89069458e+00 3.44534729e+00 3.44534729e+00 3.44534729e+00 3.44534729e+00 3.44534729e+00 0.00000000e+00 3.44534729e+00 3.44534729e+00 3.44534729e+00 0.00000000e+00 0.00000000e+00 0.00000000e+00 0.00000000e+00 0.00000000e+00 3.44534729e+00 3.44534729e+00 3.44534729e+00 0.00000000e+00 3.44534729e+00 3.44534729e+00 3.44534729e+00 0.00000000e+00 3.44534729e+00 0.00000000e+00 0.00000000e+00 3.44534729e+00 0.00000000e+00 0.00000000e+00 6.89069458e+00 0.00000000e+00 0.00000000e+00 0.00000000e+00 0.00000000e+00 0.00000000e+00 0.00000000e+00 0.00000000e+00 0.00000000e+00 6.89069458e+00 0.00000000e+00 0.00000000e+00 3.44534729e+00 0.00000000e+00 3.44534729e+00 6.89069458e+00 0.00000000e+00 3.44534729e+00 3.44534729e+00 3.44534729e+00 3.44534729e+00 0.00000000e+00 3.44534729e+00 3.44534729e+00 0.00000000e+00 0.00000000e+00 0.00000000e+00 3.44534729e+00 3.44534729e+00 0.00000000e+00 0.00000000e+00 0.00000000e+00 0.00000000e+00 3.44534729e+00 0.00000000e+00 3.44534729e+00 0.00000000e+00 0.00000000e+00 0.00000000e+00 3.44534729e+00 0.00000000e+00 0.00000000e+00 0.00000000e+00 3.44534729e+00 0.00000000e+00 3.44534729e+00 0.00000000e+00 3.44534729e+00 0.00000000e+00 0.00000000e+00 6.89069458e+00 0.00000000e+00 0.00000000e+00 0.00000000e+00 3.44534729e+00 0.00000000e+00 3.44534729e+00 0.00000000e+00 0.00000000e+00 3.44534729e+00 0.00000000e+00 0.00000000e+00 0.00000000e+00 0.00000000e+00 0.00000000e+00 0.00000000e+00 3.44534729e+00 0.00000000e+00 0.00000000e+00 0.00000000e+00 3.44534729e+00 3.44534729e+00 0.00000000e+00 0.00000000e+00 3.44534729e+00 3.44534729e+00 0.00000000e+00 0.00000000e+00 0.00000000e+00 0.00000000e+00 0.00000000e+00 0.00000000e+00 6.89069458e+00 0.00000000e+00 0.00000000e+00 0.00000000e+00 3.44534729e+00 0.00000000e+00 0.00000000e+00 3.44534729e+00 0.00000000e+00 0.00000000e+00 3.44534729e+00 0.00000000e+00 3.44534729e+00 0.00000000e+00 0.00000000e+00 6.89069458e+00 0.00000000e+00 0.00000000e+00 1.03360419e+01 0.00000000e+00 0.00000000e+00 3.44534729e+00 3.44534729e+00 0.00000000e+00 3.44534729e+00 0.00000000e+00 3.44534729e+00 3.44534729e+00 0.00000000e+00 0.00000000e+00 0.00000000e+00 3.44534729e+00 0.00000000e+00 0.00000000e+00 0.00000000e+00 0.00000000e+00 3.44534729e+00 3.44534729e+00 0.00000000e+00 0.00000000e+00 0.00000000e+00 3.44534729e+00 1.03360419e+01 0.00000000e+00 6.89069458e+00 0.00000000e+00 0.00000000e+00 0.00000000e+00 0.00000000e+00 0.00000000e+00 0.00000000e+00 0.00000000e+00 0.00000000e+00 3.44534729e+00 0.00000000e+00 0.00000000e+00 0.00000000e+00 0.00000000e+00 0.00000000e+00 3.44534729e+00 0.00000000e+00 0.00000000e+00 3.44534729e+00 3.44534729e+00 0.00000000e+00 0.00000000e+00 0.00000000e+00 6.89069458e+00 0.00000000e+00 0.00000000e+00 0.00000000e+00 0.00000000e+00 3.44534729e+00 3.44534729e+00 6.89069458e+00 0.00000000e+00 0.00000000e+00 0.00000000e+00 0.00000000e+00 0.00000000e+00 0.00000000e+00 0.00000000e+00 3.44534729e+00 0.00000000e+00 3.44534729e+00 0.00000000e+00 0.00000000e+00 3.44534729e+00 0.00000000e+00 0.00000000e+00 3.44534729e+00 0.00000000e+00 3.44534729e+00 3.44534729e+00 0.00000000e+00 0.00000000e+00 0.00000000e+00 0.00000000e+00 0.00000000e+00 0.00000000e+00 3.44534729e+00 0.00000000e+00 3.44534729e+00 0.00000000e+00 0.00000000e+00 0.00000000e+00 3.44534729e+00 0.00000000e+00 0.00000000e+00 0.00000000e+00 3.44534729e+00 0.00000000e+00 0.00000000e+00 0.00000000e+00 0.00000000e+00 0.00000000e+00 0.00000000e+00 3.44534729e+00 0.00000000e+00 0.00000000e+00 3.44534729e+00 6.89069458e+00 0.00000000e+00 0.00000000e+00 3.44534729e+00 0.00000000e+00 0.00000000e+00 3.44534729e+00 0.00000000e+00 0.00000000e+00 0.00000000e+00 3.44534729e+00 0.00000000e+00 0.00000000e+00 0.00000000e+00 0.00000000e+00 0.00000000e+00 0.00000000e+00 0.00000000e+00 3.44534729e+00 0.00000000e+00 3.44534729e+00 3.44534729e+00 0.00000000e+00 0.00000000e+00 0.00000000e+00 3.44534729e+00 0.00000000e+00 0.00000000e+00 0.00000000e+00 3.44534729e+00 0.00000000e+00 0.00000000e+00 0.00000000e+00 3.44534729e+00 0.00000000e+00 0.00000000e+00 3.44534729e+00 0.00000000e+00 0.00000000e+00 0.00000000e+00 0.00000000e+00 3.44534729e+00 3.44534729e+00 0.00000000e+00 3.44534729e+00 0.00000000e+00 3.44534729e+00 3.44534729e+00 0.00000000e+00 3.44534729e+00 0.00000000e+00 0.00000000e+00 0.00000000e+00 3.44534729e+00 0.00000000e+00 0.00000000e+00 6.89069458e+00 0.00000000e+00 3.44534729e+00 0.00000000e+00 0.00000000e+00 0.00000000e+00 0.00000000e+00 0.00000000e+00 0.00000000e+00 0.00000000e+00 0.00000000e+00 0.00000000e+00 0.00000000e+00 3.44534729e+00 0.00000000e+00 6.89069458e+00 0.00000000e+00 0.00000000e+00 0.00000000e+00 3.44534729e+00 0.00000000e+00 0.00000000e+00 0.00000000e+00 0.00000000e+00 6.89069458e+00 0.00000000e+00 3.44534729e+00 0.00000000e+00 0.00000000e+00 0.00000000e+00 0.00000000e+00 0.00000000e+00 0.00000000e+00 0.00000000e+00 0.00000000e+00 0.00000000e+00 0.00000000e+00 0.00000000e+00 0.00000000e+00 3.44534729e+00 0.00000000e+00 6.89069458e+00 0.00000000e+00 0.00000000e+00 3.44534729e+00 0.00000000e+00 3.44534729e+00 0.00000000e+00 0.00000000e+00 0.00000000e+00 0.00000000e+00 0.00000000e+00 0.00000000e+00 3.44534729e+00 3.44534729e+00 0.00000000e+00 0.00000000e+00 0.00000000e+00 0.00000000e+00 0.00000000e+00 0.00000000e+00 0.00000000e+00 0.00000000e+00 0.00000000e+00 0.00000000e+00 0.00000000e+00 0.00000000e+00 0.00000000e+00 0.00000000e+00 0.00000000e+00 0.00000000e+00 0.00000000e+00 3.44534729e+00 3.44534729e+00 0.00000000e+00 0.00000000e+00 0.00000000e+00 0.00000000e+00 0.00000000e+00 0.00000000e+00 0.00000000e+00 0.00000000e+00 0.00000000e+00 0.00000000e+00 0.00000000e+00 0.00000000e+00 0.00000000e+00 0.00000000e+00 0.00000000e+00 3.44534729e+00 0.00000000e+00 1.03360419e+01 0.00000000e+00 3.44534729e+00 0.00000000e+00 0.00000000e+00 0.00000000e+00 0.00000000e+00 0.00000000e+00 0.00000000e+00 0.00000000e+00 3.44534729e+00 0.00000000e+00 3.44534729e+00 0.00000000e+00 3.44534729e+00 0.00000000e+00 0.00000000e+00 0.00000000e+00 0.00000000e+00 0.00000000e+00 0.00000000e+00 0.00000000e+00 0.00000000e+00 0.00000000e+00 0.00000000e+00 0.00000000e+00 0.00000000e+00 0.00000000e+00 0.00000000e+00 0.00000000e+00 0.00000000e+00 3.44534729e+00 0.00000000e+00 0.00000000e+00 0.00000000e+00 0.00000000e+00 3.44534729e+00 0.00000000e+00 0.00000000e+00 3.44534729e+00 0.00000000e+00 0.00000000e+00 0.00000000e+00 0.00000000e+00 0.00000000e+00 0.00000000e+00 0.00000000e+00 0.00000000e+00 0.00000000e+00 0.00000000e+00 0.00000000e+00 0.00000000e+00 0.00000000e+00 0.00000000e+00 0.00000000e+00 0.00000000e+00 0.00000000e+00 3.44534729e+00 0.00000000e+00 0.00000000e+00 0.00000000e+00 0.00000000e+00 0.00000000e+00 0.00000000e+00 0.00000000e+00 0.00000000e+00 0.00000000e+00 3.44534729e+00 0.00000000e+00 0.00000000e+00 0.00000000e+00 3.44534729e+00 0.00000000e+00 0.00000000e+00 0.00000000e+00 0.00000000e+00 3.44534729e+00 0.00000000e+00 0.00000000e+00 0.00000000e+00 0.00000000e+00 0.00000000e+00 3.44534729e+00 0.00000000e+00 0.00000000e+00 0.00000000e+00 0.00000000e+00 0.00000000e+00 3.44534729e+00 0.00000000e+00 0.00000000e+00 0.00000000e+00 0.00000000e+00 0.00000000e+00 0.00000000e+00 0.00000000e+00 0.00000000e+00 3.44534729e+00 0.00000000e+00 0.00000000e+00 0.00000000e+00 0.00000000e+00 3.44534729e+00 0.00000000e+00 0.00000000e+00 0.00000000e+00 0.00000000e+00 0.00000000e+00 0.00000000e+00 0.00000000e+00 0.00000000e+00 3.44534729e+00 0.00000000e+00 0.00000000e+00 0.00000000e+00 3.44534729e+00 0.00000000e+00 0.00000000e+00 0.00000000e+00 0.00000000e+00 0.00000000e+00 3.44534729e+00 0.00000000e+00 0.00000000e+00 0.00000000e+00 3.44534729e+00 0.00000000e+00 0.00000000e+00 0.00000000e+00 0.00000000e+00 0.00000000e+00 0.00000000e+00 0.00000000e+00 0.00000000e+00 0.00000000e+00 0.00000000e+00 0.00000000e+00 0.00000000e+00 0.00000000e+00 0.00000000e+00 0.00000000e+00 0.00000000e+00 0.00000000e+00 3.44534729e+00 0.00000000e+00 0.00000000e+00 0.00000000e+00 0.00000000e+00 0.00000000e+00 0.00000000e+00 0.00000000e+00 0.00000000e+00 0.00000000e+00 0.00000000e+00 0.00000000e+00 0.00000000e+00 0.00000000e+00 0.00000000e+00 0.00000000e+00 0.00000000e+00 0.00000000e+00 0.00000000e+00 0.00000000e+00 0.00000000e+00 0.00000000e+00 0.00000000e+00 0.00000000e+00 0.00000000e+00 0.00000000e+00 0.00000000e+00 3.44534729e+00 3.44534729e+00 0.00000000e+00 0.00000000e+00 0.00000000e+00 0.00000000e+00 3.44534729e+00 3.44534729e+00 0.00000000e+00 0.00000000e+00 0.00000000e+00 0.00000000e+00 0.00000000e+00 0.00000000e+00 0.00000000e+00 0.00000000e+00 0.00000000e+00 0.00000000e+00 0.00000000e+00 0.00000000e+00 0.00000000e+00 0.00000000e+00 3.44534729e+00 0.00000000e+00 0.00000000e+00 3.44534729e+00 0.00000000e+00 0.00000000e+00 0.00000000e+00 0.00000000e+00 0.00000000e+00 0.00000000e+00 0.00000000e+00 0.00000000e+00 0.00000000e+00 0.00000000e+00 0.00000000e+00 0.00000000e+00 3.44534729e+00 0.00000000e+00 0.00000000e+00 0.00000000e+00 0.00000000e+00 0.00000000e+00 0.00000000e+00 0.00000000e+00 0.00000000e+00 0.00000000e+00 0.00000000e+00 0.00000000e+00 0.00000000e+00 0.00000000e+00 0.00000000e+00 0.00000000e+00 0.00000000e+00 0.00000000e+00 0.00000000e+00 0.00000000e+00 0.00000000e+00 0.00000000e+00 0.00000000e+00 0.00000000e+00 0.00000000e+00 0.00000000e+00 0.00000000e+00 0.00000000e+00 0.00000000e+00 3.44534729e+00 0.00000000e+00 0.00000000e+00 0.00000000e+00 0.00000000e+00 0.00000000e+00 0.00000000e+00 0.00000000e+00 0.00000000e+00 3.44534729e+00 0.00000000e+00 3.44534729e+00 0.00000000e+00 0.00000000e+00 0.00000000e+00 0.00000000e+00 0.00000000e+00 0.00000000e+00 0.00000000e+00 0.00000000e+00 0.00000000e+00 0.00000000e+00 0.00000000e+00 0.00000000e+00 0.00000000e+00 0.00000000e+00 0.00000000e+00 0.00000000e+00 0.00000000e+00 0.00000000e+00 0.00000000e+00 0.00000000e+00 3.44534729e+00 0.00000000e+00 0.00000000e+00 0.00000000e+00 3.44534729e+00 0.00000000e+00 3.44534729e+00 0.00000000e+00 0.00000000e+00 0.00000000e+00 0.00000000e+00 0.00000000e+00 0.00000000e+00 0.00000000e+00 6.89069458e+00 0.00000000e+00 0.00000000e+00 0.00000000e+00 0.00000000e+00 0.00000000e+00 0.00000000e+00 0.00000000e+00 0.00000000e+00 0.00000000e+00 0.00000000e+00 0.00000000e+00 0.00000000e+00 0.00000000e+00 0.00000000e+00 0.00000000e+00 0.00000000e+00 0.00000000e+00 0.00000000e+00 0.00000000e+00 0.00000000e+00 0.00000000e+00 0.00000000e+00 0.00000000e+00 0.00000000e+00 0.00000000e+00 0.00000000e+00 3.44534729e+00 0.00000000e+00 0.00000000e+00 0.00000000e+00 0.00000000e+00 0.00000000e+00 3.44534729e+00 0.00000000e+00 0.00000000e+00 0.00000000e+00 0.00000000e+00 0.00000000e+00 0.00000000e+00 0.00000000e+00 0.00000000e+00 0.00000000e+00 0.00000000e+00 0.00000000e+00 0.00000000e+00 0.00000000e+00 0.00000000e+00 0.00000000e+00 0.00000000e+00 0.00000000e+00 3.44534729e+00 0.00000000e+00 0.00000000e+00 0.00000000e+00 0.00000000e+00 0.00000000e+00 0.00000000e+00 0.00000000e+00 0.00000000e+00 0.00000000e+00 0.00000000e+00 0.00000000e+00 0.00000000e+00 0.00000000e+00 0.00000000e+00 0.00000000e+00 0.00000000e+00 0.00000000e+00 0.00000000e+00 0.00000000e+00 0.00000000e+00 0.00000000e+00 0.00000000e+00 0.00000000e+00 3.44534729e+00 0.00000000e+00 0.00000000e+00 0.00000000e+00 0.00000000e+00 0.00000000e+00 0.00000000e+00 0.00000000e+00 0.00000000e+00 0.00000000e+00 0.00000000e+00 0.00000000e+00 0.00000000e+00 0.00000000e+00 0.00000000e+00 0.00000000e+00 0.00000000e+00 3.44534729e+00 0.00000000e+00 3.44534729e+00 0.00000000e+00 0.00000000e+00 0.00000000e+00 0.00000000e+00 0.00000000e+00 0.00000000e+00 0.00000000e+00 0.00000000e+00 0.00000000e+00 0.00000000e+00 3.44534729e+00 0.00000000e+00 0.00000000e+00 0.00000000e+00 0.00000000e+00 0.00000000e+00 0.00000000e+00 0.00000000e+00 0.00000000e+00 0.00000000e+00 3.44534729e+00 0.00000000e+00 0.00000000e+00 0.00000000e+00 0.00000000e+00 0.00000000e+00 0.00000000e+00 0.00000000e+00 0.00000000e+00 0.00000000e+00 0.00000000e+00 0.00000000e+00 0.00000000e+00 0.00000000e+00 0.00000000e+00 0.00000000e+00 0.00000000e+00 0.00000000e+00 0.00000000e+00 0.00000000e+00 0.00000000e+00 3.44534729e+00 0.00000000e+00 0.00000000e+00 0.00000000e+00 0.00000000e+00 0.00000000e+00 0.00000000e+00 0.00000000e+00 0.00000000e+00 0.00000000e+00 0.00000000e+00 0.00000000e+00 0.00000000e+00 0.00000000e+00 3.44534729e+00 0.00000000e+00 0.00000000e+00 0.00000000e+00 0.00000000e+00 0.00000000e+00 0.00000000e+00 0.00000000e+00 0.00000000e+00 0.00000000e+00 0.00000000e+00 0.00000000e+00 0.00000000e+00 0.00000000e+00 0.00000000e+00 0.00000000e+00 0.00000000e+00 0.00000000e+00 0.00000000e+00 0.00000000e+00 0.00000000e+00 0.00000000e+00 0.00000000e+00 0.00000000e+00 0.00000000e+00 0.00000000e+00 0.00000000e+00 0.00000000e+00 0.00000000e+00 0.00000000e+00 0.00000000e+00 0.00000000e+00 0.00000000e+00 0.00000000e+00 0.00000000e+00 0.00000000e+00 0.00000000e+00 0.00000000e+00 0.00000000e+00 0.00000000e+00 0.00000000e+00 0.00000000e+00 0.00000000e+00 0.00000000e+00 0.00000000e+00 0.00000000e+00 0.00000000e+00 0.00000000e+00 0.00000000e+00 0.00000000e+00 0.00000000e+00 0.00000000e+00 0.00000000e+00 0.00000000e+00 0.00000000e+00 0.00000000e+00 0.00000000e+00 0.00000000e+00 0.00000000e+00 0.00000000e+00 0.00000000e+00 0.00000000e+00 0.00000000e+00 0.00000000e+00 0.00000000e+00 0.00000000e+00 0.00000000e+00 0.00000000e+00 0.00000000e+00 3.44534729e+00 3.44534729e+00 0.00000000e+00 0.00000000e+00 0.00000000e+00 0.00000000e+00 0.00000000e+00 0.00000000e+00 0.00000000e+00 0.00000000e+00 0.00000000e+00 0.00000000e+00 0.00000000e+00 0.00000000e+00 0.00000000e+00 0.00000000e+00 0.00000000e+00 0.00000000e+00 0.00000000e+00 0.00000000e+00 0.00000000e+00 0.00000000e+00 0.00000000e+00 0.00000000e+00 0.00000000e+00 0.00000000e+00 0.00000000e+00 0.00000000e+00 0.00000000e+00 0.00000000e+00 0.00000000e+00 0.00000000e+00 0.00000000e+00 0.00000000e+00 0.00000000e+00 0.00000000e+00 0.00000000e+00 0.00000000e+00 0.00000000e+00 0.00000000e+00 0.00000000e+00 0.00000000e+00 0.00000000e+00 0.00000000e+00 0.00000000e+00 0.00000000e+00 0.00000000e+00 0.00000000e+00 0.00000000e+00 3.44534729e+00 0.00000000e+00 0.00000000e+00 0.00000000e+00 0.00000000e+00 0.00000000e+00 0.00000000e+00 0.00000000e+00 0.00000000e+00 0.00000000e+00 0.00000000e+00 0.00000000e+00 0.00000000e+00 0.00000000e+00 0.00000000e+00 0.00000000e+00 0.00000000e+00 3.44534729e+00 0.00000000e+00 0.00000000e+00 0.00000000e+00 0.00000000e+00 0.00000000e+00 0.00000000e+00 0.00000000e+00 0.00000000e+00 0.00000000e+00 0.00000000e+00 0.00000000e+00 0.00000000e+00 0.00000000e+00 0.00000000e+00 0.00000000e+00 0.00000000e+00 0.00000000e+00 0.00000000e+00 0.00000000e+00 0.00000000e+00 0.00000000e+00 0.00000000e+00 0.00000000e+00 0.00000000e+00 0.00000000e+00 0.00000000e+00 0.00000000e+00 0.00000000e+00 0.00000000e+00 0.00000000e+00 0.00000000e+00 0.00000000e+00 0.00000000e+00 0.00000000e+00 0.00000000e+00 0.00000000e+00 0.00000000e+00 0.00000000e+00 0.00000000e+00 0.00000000e+00 0.00000000e+00 0.00000000e+00 0.00000000e+00 0.00000000e+00 0.00000000e+00 0.00000000e+00 0.00000000e+00 0.00000000e+00 0.00000000e+00 0.00000000e+00 0.00000000e+00 0.00000000e+00 0.00000000e+00 0.00000000e+00 0.00000000e+00 0.00000000e+00 0.00000000e+00 0.00000000e+00 0.00000000e+00 0.00000000e+00 0.00000000e+00 0.00000000e+00 0.00000000e+00 0.00000000e+00 0.00000000e+00 0.00000000e+00 0.00000000e+00 0.00000000e+00 0.00000000e+00 0.00000000e+00 0.00000000e+00 0.00000000e+00 0.00000000e+00 0.00000000e+00 0.00000000e+00 0.00000000e+00 0.00000000e+00 0.00000000e+00 0.00000000e+00 0.00000000e+00 0.00000000e+00 0.00000000e+00 0.00000000e+00 0.00000000e+00 0.00000000e+00 0.00000000e+00 0.00000000e+00 0.00000000e+00 0.00000000e+00 0.00000000e+00 0.00000000e+00 0.00000000e+00 0.00000000e+00 0.00000000e+00 0.00000000e+00 0.00000000e+00 0.00000000e+00 0.00000000e+00 0.00000000e+00 0.00000000e+00 0.00000000e+00 0.00000000e+00 0.00000000e+00 0.00000000e+00 0.00000000e+00 0.00000000e+00 0.00000000e+00 0.00000000e+00 0.00000000e+00 0.00000000e+00 0.00000000e+00 0.00000000e+00 0.00000000e+00 0.00000000e+00 0.00000000e+00 0.00000000e+00 0.00000000e+00 0.00000000e+00 0.00000000e+00 0.00000000e+00 3.44534729e+00 0.00000000e+00 0.00000000e+00 0.00000000e+00 0.00000000e+00 0.00000000e+00 0.00000000e+00 0.00000000e+00 0.00000000e+00 0.00000000e+00 0.00000000e+00 0.00000000e+00 0.00000000e+00 0.00000000e+00 0.00000000e+00 0.00000000e+00 0.00000000e+00 0.00000000e+00 0.00000000e+00 0.00000000e+00 0.00000000e+00 0.00000000e+00 0.00000000e+00 0.00000000e+00 0.00000000e+00 0.00000000e+00 0.00000000e+00 0.00000000e+00 0.00000000e+00 0.00000000e+00 0.00000000e+00 0.00000000e+00 0.00000000e+00 0.00000000e+00 0.00000000e+00 0.00000000e+00 0.00000000e+00 0.00000000e+00 0.00000000e+00 0.00000000e+00 0.00000000e+00 0.00000000e+00 0.00000000e+00 0.00000000e+00 0.00000000e+00 0.00000000e+00 0.00000000e+00 0.00000000e+00 0.00000000e+00 0.00000000e+00 0.00000000e+00 0.00000000e+00 0.00000000e+00 0.00000000e+00 0.00000000e+00 0.00000000e+00 0.00000000e+00 0.00000000e+00 0.00000000e+00 0.00000000e+00 0.00000000e+00 0.00000000e+00 0.00000000e+00 0.00000000e+00 0.00000000e+00 0.00000000e+00 0.00000000e+00 0.00000000e+00 0.00000000e+00 0.00000000e+00 0.00000000e+00 0.00000000e+00 0.00000000e+00 0.00000000e+00 0.00000000e+00 0.00000000e+00 0.00000000e+00 0.00000000e+00 0.00000000e+00 0.00000000e+00 0.00000000e+00 0.00000000e+00 0.00000000e+00 0.00000000e+00 0.00000000e+00 0.00000000e+00 0.00000000e+00 0.00000000e+00 0.00000000e+00 0.00000000e+00 0.00000000e+00 0.00000000e+00 0.00000000e+00 0.00000000e+00 0.00000000e+00 0.00000000e+00 0.00000000e+00 0.00000000e+00 0.00000000e+00 0.00000000e+00 0.00000000e+00 0.00000000e+00 0.00000000e+00 0.00000000e+00 0.00000000e+00 0.00000000e+00 0.00000000e+00 0.00000000e+00 0.00000000e+00 0.00000000e+00 0.00000000e+00 0.00000000e+00 0.00000000e+00 0.00000000e+00 0.00000000e+00 0.00000000e+00 0.00000000e+00 0.00000000e+00 0.00000000e+00 0.00000000e+00 0.00000000e+00 0.00000000e+00 0.00000000e+00 0.00000000e+00 0.00000000e+00 0.00000000e+00 0.00000000e+00 0.00000000e+00 0.00000000e+00 0.00000000e+00 0.00000000e+00 0.00000000e+00 0.00000000e+00 0.00000000e+00 0.00000000e+00 0.00000000e+00 0.00000000e+00 0.00000000e+00 0.00000000e+00 0.00000000e+00 0.00000000e+00 0.00000000e+00 0.00000000e+00 0.00000000e+00 0.00000000e+00 0.00000000e+00 0.00000000e+00 0.00000000e+00 0.00000000e+00 0.00000000e+00 0.00000000e+00 0.00000000e+00 0.00000000e+00 0.00000000e+00 0.00000000e+00 0.00000000e+00 0.00000000e+00 0.00000000e+00 0.00000000e+00 0.00000000e+00 0.00000000e+00 0.00000000e+00 0.00000000e+00 0.00000000e+00 0.00000000e+00 0.00000000e+00 0.00000000e+00 0.00000000e+00 0.00000000e+00 0.00000000e+00 0.00000000e+00 0.00000000e+00 0.00000000e+00 0.00000000e+00 0.00000000e+00 0.00000000e+00 0.00000000e+00 0.00000000e+00 0.00000000e+00 0.00000000e+00 0.00000000e+00 0.00000000e+00 0.00000000e+00 0.00000000e+00 0.00000000e+00 0.00000000e+00 0.00000000e+00 0.00000000e+00 0.00000000e+00 0.00000000e+00 0.00000000e+00 0.00000000e+00 0.00000000e+00 0.00000000e+00 0.00000000e+00 0.00000000e+00 0.00000000e+00 0.00000000e+00 0.00000000e+00 0.00000000e+00 0.00000000e+00 0.00000000e+00 0.00000000e+00 0.00000000e+00 0.00000000e+00 0.00000000e+00 0.00000000e+00 0.00000000e+00 0.00000000e+00 0.00000000e+00 0.00000000e+00 0.00000000e+00 0.00000000e+00 0.00000000e+00 0.00000000e+00 0.00000000e+00 0.00000000e+00 0.00000000e+00 0.00000000e+00 0.00000000e+00 0.00000000e+00 0.00000000e+00 0.00000000e+00 0.00000000e+00 0.00000000e+00 0.00000000e+00 0.00000000e+00 0.00000000e+00 0.00000000e+00 0.00000000e+00 0.00000000e+00 0.00000000e+00 0.00000000e+00 3.44534729e+00 0.00000000e+00 0.00000000e+00 0.00000000e+00 0.00000000e+00 0.00000000e+00 0.00000000e+00 0.00000000e+00 0.00000000e+00 0.00000000e+00 0.00000000e+00 0.00000000e+00 0.00000000e+00 0.00000000e+00 0.00000000e+00 0.00000000e+00 0.00000000e+00 0.00000000e+00 0.00000000e+00 0.00000000e+00 0.00000000e+00 0.00000000e+00 0.00000000e+00 0.00000000e+00 0.00000000e+00 0.00000000e+00 0.00000000e+00 0.00000000e+00 0.00000000e+00 0.00000000e+00 0.00000000e+00 0.00000000e+00 0.00000000e+00 0.00000000e+00 0.00000000e+00 0.00000000e+00 0.00000000e+00 0.00000000e+00 0.00000000e+00 0.00000000e+00 0.00000000e+00 0.00000000e+00 0.00000000e+00 0.00000000e+00 