<?xml version="1.0"?>
<MethodSetup Method="BDT::BDT">
  <GeneralInfo>
    <Info name="TMVA Release" value="4.2.1 [262657]"/>
    <Info name="ROOT Release" value="6.24/06 [399366]"/>
    <Info name="Creator" value="vince402"/>
    <Info name="Date" value="Thu Oct 21 14:51:39 2021"/>
    <Info name="Host" value="Linux kunpl 5.4.0-88-generic #99-Ubuntu SMP Thu Sep 23 17:29:00 UTC 2021 x86_64 x86_64 x86_64 GNU/Linux"/>
    <Info name="Dir" value="/home/vince402/Upsilon3S/BDT"/>
    <Info name="Training events" value="91657"/>
    <Info name="TrainingTime" value="6.99402404e+00"/>
    <Info name="AnalysisType" value="Classification"/>
  </GeneralInfo>
  <Options>
    <Option name="V" modified="Yes">False</Option>
    <Option name="VerbosityLevel" modified="No">Default</Option>
    <Option name="VarTransform" modified="No">None</Option>
    <Option name="H" modified="Yes">False</Option>
    <Option name="CreateMVAPdfs" modified="Yes">True</Option>
    <Option name="IgnoreNegWeightsInTraining" modified="No">False</Option>
    <Option name="NTrees" modified="Yes">300</Option>
    <Option name="MaxDepth" modified="Yes">2</Option>
    <Option name="MinNodeSize" modified="Yes">15%</Option>
    <Option name="nCuts" modified="Yes">4000</Option>
    <Option name="BoostType" modified="Yes">AdaBoost</Option>
    <Option name="AdaBoostR2Loss" modified="No">quadratic</Option>
    <Option name="UseBaggedBoost" modified="Yes">True</Option>
    <Option name="Shrinkage" modified="No">1.000000e+00</Option>
    <Option name="AdaBoostBeta" modified="Yes">7.000000e-01</Option>
    <Option name="UseRandomisedTrees" modified="Yes">False</Option>
    <Option name="UseNvars" modified="No">3</Option>
    <Option name="UsePoissonNvars" modified="No">True</Option>
    <Option name="BaggedSampleFraction" modified="Yes">4.000000e-01</Option>
    <Option name="UseYesNoLeaf" modified="No">True</Option>
    <Option name="NegWeightTreatment" modified="No">inverseboostnegweights</Option>
    <Option name="Css" modified="No">1.000000e+00</Option>
    <Option name="Cts_sb" modified="No">1.000000e+00</Option>
    <Option name="Ctb_ss" modified="No">1.000000e+00</Option>
    <Option name="Cbb" modified="No">1.000000e+00</Option>
    <Option name="NodePurityLimit" modified="No">5.000000e-01</Option>
    <Option name="SeparationType" modified="Yes">giniindex</Option>
    <Option name="RegressionLossFunctionBDTG" modified="No">huber</Option>
    <Option name="HuberQuantile" modified="No">7.000000e-01</Option>
    <Option name="DoBoostMonitor" modified="No">False</Option>
    <Option name="UseFisherCuts" modified="No">False</Option>
    <Option name="MinLinCorrForFisher" modified="No">8.000000e-01</Option>
    <Option name="UseExclusiveVars" modified="No">False</Option>
    <Option name="DoPreselection" modified="No">False</Option>
    <Option name="SigToBkgFraction" modified="No">1.000000e+00</Option>
    <Option name="PruneMethod" modified="Yes">costcomplexity</Option>
    <Option name="PruneStrength" modified="Yes">1.000000e+00</Option>
    <Option name="PruningValFraction" modified="Yes">3.000000e-01</Option>
    <Option name="SkipNormalization" modified="No">False</Option>
    <Option name="nEventsMin" modified="No">0</Option>
    <Option name="UseBaggedGrad" modified="No">False</Option>
    <Option name="GradBaggingFraction" modified="No">4.000000e-01</Option>
    <Option name="UseNTrainEvents" modified="No">0</Option>
    <Option name="NNodesMax" modified="No">0</Option>
  </Options>
  <Variables NVar="7">
    <Variable VarIndex="0" Expression="QQMassErr" Label="QQMassErr" Title="Dimu Mass error" Unit="F" Internal="QQMassErr" Type="F" Min="3.48256379e-02" Max="1.51807523e+00"/>
    <Variable VarIndex="1" Expression="ctau3D" Label="ctau3D" Title="3 dim ctau of the dimuon" Unit="F" Internal="ctau3D" Type="F" Min="-1.58352137e+01" Max="1.39904919e+01"/>
    <Variable VarIndex="2" Expression="ctau" Label="ctau" Title="2 dim ctau of the dimuon" Unit="F" Internal="ctau" Type="F" Min="-8.85270596e+00" Max="9.46255493e+00"/>
    <Variable VarIndex="3" Expression="QQVtxProb" Label="QQVtxProb" Title="Vtx prob" Unit="F" Internal="QQVtxProb" Type="F" Min="0.00000000e+00" Max="9.99974966e-01"/>
    <Variable VarIndex="4" Expression="QQdca" Label="QQdca" Title="QQdca" Unit="F" Internal="QQdca" Type="F" Min="0.00000000e+00" Max="1.16967030e+01"/>
    <Variable VarIndex="5" Expression="cosAlpha" Label="cosAlpha" Title="cos alpha for trajectory angle" Unit="F" Internal="cosAlpha" Type="F" Min="-1.00000000e+00" Max="1.00000000e+00"/>
    <Variable VarIndex="6" Expression="cosAlpha3D" Label="cosAlpha3D" Title="cos alpha for trajectory angle 3D" Unit="F" Internal="cosAlpha3D" Type="F" Min="-9.99999344e-01" Max="9.99996305e-01"/>
  </Variables>
  <Spectators NSpec="8">
    <Spectator SpecIndex="0" Expression="pt1" Label="pt1" Title="Single muon pt1" Unit="F" Internal="pt1" Type="F" Min="3.50001121e+00" Max="1.12690668e+01"/>
    <Spectator SpecIndex="1" Expression="pt2" Label="pt2" Title="Single muon pt2" Unit="F" Internal="pt2" Type="F" Min="3.50004029e+00" Max="1.10575895e+01"/>
    <Spectator SpecIndex="2" Expression="eta1" Label="eta1" Title="Single muon eta1" Unit="F" Internal="eta1" Type="F" Min="-2.39994812e+00" Max="2.39997578e+00"/>
    <Spectator SpecIndex="3" Expression="eta2" Label="eta2" Title="Single muon eta2" Unit="F" Internal="eta2" Type="F" Min="-2.39999723e+00" Max="2.39959574e+00"/>
    <Spectator SpecIndex="4" Expression="cBin" Label="cBin" Title="Centrality times 2 bin" Unit="F" Internal="cBin" Type="F" Min="1.00000000e+00" Max="1.80000000e+02"/>
    <Spectator SpecIndex="5" Expression="mass" Label="mass" Title="Dimuon mass" Unit="F" Internal="mass" Type="F" Min="8.00018883e+00" Max="1.14994335e+01"/>
    <Spectator SpecIndex="6" Expression="pt" Label="pt" Title="Dimuon pt" Unit="F" Internal="pt" Type="F" Min="8.00001049e+00" Max="9.99998665e+00"/>
    <Spectator SpecIndex="7" Expression="y" Label="y" Title="Dimuon y" Unit="F" Internal="y" Type="F" Min="-2.39212561e+00" Max="2.39464521e+00"/>
  </Spectators>
  <Classes NClass="2">
    <Class Name="Signal" Index="0"/>
    <Class Name="Background" Index="1"/>
  </Classes>
  <Transformations NTransformations="0"/>
  <MVAPdfs>
    <PDF Name="BDT_PDFSig" MinNSmooth="0" MaxNSmooth="0" InterpolMethod="2" KDE_type="1" KDE_iter="1" KDE_border="1" KDE_finefactor="1.0000000000000000e+00">
      <Histogram Name="BDT_tr_S_original" NBins="1833" XMin="-4.3313512206077576e-01" XMax="5.3386896848678589e-01" HasEquidistantBins="1">
        0.00000000e+00 0.00000000e+00 0.00000000e+00 0.00000000e+00 0.00000000e+00 0.00000000e+00 0.00000000e+00 0.00000000e+00 0.00000000e+00 0.00000000e+00 0.00000000e+00 0.00000000e+00 0.00000000e+00 0.00000000e+00 0.00000000e+00 0.00000000e+00 0.00000000e+00 0.00000000e+00 0.00000000e+00 0.00000000e+00 0.00000000e+00 0.00000000e+00 0.00000000e+00 0.00000000e+00 0.00000000e+00 0.00000000e+00 0.00000000e+00 0.00000000e+00 0.00000000e+00 0.00000000e+00 0.00000000e+00 0.00000000e+00 0.00000000e+00 0.00000000e+00 0.00000000e+00 0.00000000e+00 0.00000000e+00 0.00000000e+00 0.00000000e+00 0.00000000e+00 0.00000000e+00 0.00000000e+00 0.00000000e+00 0.00000000e+00 0.00000000e+00 0.00000000e+00 0.00000000e+00 0.00000000e+00 0.00000000e+00 0.00000000e+00 0.00000000e+00 0.00000000e+00 0.00000000e+00 0.00000000e+00 0.00000000e+00 0.00000000e+00 0.00000000e+00 0.00000000e+00 0.00000000e+00 0.00000000e+00 0.00000000e+00 0.00000000e+00 0.00000000e+00 0.00000000e+00 0.00000000e+00 0.00000000e+00 0.00000000e+00 0.00000000e+00 0.00000000e+00 2.68643549e-02 0.00000000e+00 0.00000000e+00 0.00000000e+00 0.00000000e+00 0.00000000e+00 0.00000000e+00 0.00000000e+00 0.00000000e+00 0.00000000e+00 0.00000000e+00 0.00000000e+00 0.00000000e+00 0.00000000e+00 0.00000000e+00 0.00000000e+00 0.00000000e+00 0.00000000e+00 0.00000000e+00 0.00000000e+00 0.00000000e+00 0.00000000e+00 0.00000000e+00 0.00000000e+00 0.00000000e+00 0.00000000e+00 0.00000000e+00 0.00000000e+00 0.00000000e+00 0.00000000e+00 0.00000000e+00 0.00000000e+00 0.00000000e+00 0.00000000e+00 0.00000000e+00 0.00000000e+00 0.00000000e+00 0.00000000e+00 0.00000000e+00 0.00000000e+00 0.00000000e+00 0.00000000e+00 0.00000000e+00 0.00000000e+00 0.00000000e+00 0.00000000e+00 0.00000000e+00 0.00000000e+00 0.00000000e+00 0.00000000e+00 0.00000000e+00 0.00000000e+00 0.00000000e+00 0.00000000e+00 0.00000000e+00 0.00000000e+00 0.00000000e+00 0.00000000e+00 0.00000000e+00 0.00000000e+00 4.21674517e-04 0.00000000e+00 0.00000000e+00 0.00000000e+00 0.00000000e+00 0.00000000e+00 0.00000000e+00 0.00000000e+00 0.00000000e+00 0.00000000e+00 1.07774752e-01 0.00000000e+00 0.00000000e+00 0.00000000e+00 0.00000000e+00 0.00000000e+00 0.00000000e+00 0.00000000e+00 0.00000000e+00 0.00000000e+00 0.00000000e+00 0.00000000e+00 0.00000000e+00 0.00000000e+00 0.00000000e+00 2.56389589e-02 0.00000000e+00 0.00000000e+00 0.00000000e+00 0.00000000e+00 0.00000000e+00 0.00000000e+00 0.00000000e+00 0.00000000e+00 0.00000000e+00 0.00000000e+00 0.00000000e+00 0.00000000e+00 0.00000000e+00 0.00000000e+00 0.00000000e+00 0.00000000e+00 0.00000000e+00 0.00000000e+00 4.77692795e-04 0.00000000e+00 0.00000000e+00 0.00000000e+00 0.00000000e+00 0.00000000e+00 0.00000000e+00 0.00000000e+00 0.00000000e+00 0.00000000e+00 0.00000000e+00 0.00000000e+00 0.00000000e+00 0.00000000e+00 0.00000000e+00 0.00000000e+00 0.00000000e+00 0.00000000e+00 0.00000000e+00 0.00000000e+00 0.00000000e+00 0.00000000e+00 0.00000000e+00 0.00000000e+00 0.00000000e+00 0.00000000e+00 0.00000000e+00 0.00000000e+00 0.00000000e+00 2.76432656e-04 6.88678780e-03 0.00000000e+00 0.00000000e+00 0.00000000e+00 0.00000000e+00 0.00000000e+00 0.00000000e+00 0.00000000e+00 0.00000000e+00 0.00000000e+00 0.00000000e+00 0.00000000e+00 0.00000000e+00 6.64825820e-03 4.01816665e-04 0.00000000e+00 0.00000000e+00 0.00000000e+00 1.59262105e-03 0.00000000e+00 0.00000000e+00 0.00000000e+00 0.00000000e+00 0.00000000e+00 0.00000000e+00 0.00000000e+00 4.98672000e-02 2.00243597e-02 0.00000000e+00 0.00000000e+00 0.00000000e+00 0.00000000e+00 0.00000000e+00 0.00000000e+00 1.94983183e-02 0.00000000e+00 0.00000000e+00 0.00000000e+00 0.00000000e+00 0.00000000e+00 7.18387465e-02 0.00000000e+00 1.05595449e-02 0.00000000e+00 0.00000000e+00 3.52552570e-03 2.00826645e-02 7.02066541e-03 0.00000000e+00 0.00000000e+00 0.00000000e+00 1.54273532e-01 8.80200168e-02 2.39093578e-03 0.00000000e+00 0.00000000e+00 0.00000000e+00 0.00000000e+00 0.00000000e+00 0.00000000e+00 0.00000000e+00 0.00000000e+00 0.00000000e+00 0.00000000e+00 4.50098506e-04 0.00000000e+00 0.00000000e+00 2.78209173e-03 8.16741782e-02 3.87815936e-04 0.00000000e+00 5.47894584e-02 0.00000000e+00 2.49645939e-02 9.35647885e-03 0.00000000e+00 1.27749399e-03 7.00589200e-02 0.00000000e+00 0.00000000e+00 1.95268763e-03 0.00000000e+00 8.86476100e-02 0.00000000e+00 0.00000000e+00 1.48328916e-01 0.00000000e+00 1.38666575e-02 4.40078408e-04 0.00000000e+00 1.09001027e-01 0.00000000e+00 0.00000000e+00 1.63692070e-02 1.66885635e-01 0.00000000e+00 1.73241475e-02 2.62841874e-02 0.00000000e+00 8.54998582e-02 1.69263508e-03 6.94880837e-04 0.00000000e+00 0.00000000e+00 0.00000000e+00 0.00000000e+00 0.00000000e+00 1.55679633e-02 5.05058504e-03 3.73819849e-03 2.94928645e-03 0.00000000e+00 1.14587264e-02 4.34365981e-02 2.08655487e-03 1.79390313e-03 0.00000000e+00 4.18912032e-04 0.00000000e+00 2.42177428e-03 6.24424860e-03 1.20193204e-01 2.38246188e-02 0.00000000e+00 0.00000000e+00 6.14246567e-04 7.01642625e-03 4.04145207e-04 0.00000000e+00 2.79186630e-03 9.59230733e-02 7.66426490e-02 2.18699360e-04 1.10338272e-01 5.30585987e-04 2.16244384e-02 4.37816005e-02 3.11697589e-02 2.22362080e-01 6.60551023e-03 0.00000000e+00 5.30577414e-02 4.56477291e-02 1.00691414e-01 1.54717974e-01 1.54262696e-01 0.00000000e+00 1.61854693e-02 4.22265357e-02 4.85940625e-03 1.06970760e-01 1.54436212e-02 0.00000000e+00 6.10228515e-02 1.25423610e-01 0.00000000e+00 7.13216413e-02 2.54112231e-02 0.00000000e+00 5.87215144e-02 0.00000000e+00 2.92778106e-02 9.69198581e-03 6.59680002e-02 1.43359683e-03 8.51562457e-04 3.91222613e-02 6.69824564e-02 4.11020190e-02 4.87645477e-02 1.22017109e-03 5.23170636e-02 5.78023408e-02 2.87719588e-03 2.52576469e-03 1.14563310e-01 2.37310341e-01 6.47154859e-03 2.01212009e-01 1.72889231e-02 4.61522085e-02 1.77784001e-02 1.91765294e-02 8.35508934e-02 1.93387715e-03 1.06085503e-02 1.11272286e-01 2.01278607e-02 1.18523577e-01 5.31846615e-04 1.33692775e-03 1.18996705e-02 5.74362035e-02 7.40643806e-03 5.26536473e-03 3.83669214e-02 1.46434099e-01 1.87051590e-02 5.31646494e-02 3.64901666e-03 2.83756239e-01 4.20266605e-02 9.78739675e-02 1.00854339e-01 1.41568696e-01 7.09749032e-02 8.77711169e-02 1.00070889e-01 2.29584742e-02 4.99938654e-04 8.74394169e-02 3.82126790e-01 1.57123418e-02 9.43990503e-02 5.24108270e-02 2.03533582e-01 1.08745624e-02 4.44409823e-02 4.72567669e-02 0.00000000e+00 1.22802041e-01 2.13280704e-01 5.19846259e-02 0.00000000e+00 5.81060043e-02 1.00340316e-01 6.21229788e-02 2.04339795e-01 8.18271114e-02 9.95303822e-02 4.61503843e-02 0.00000000e+00 2.24820285e-01 8.10677918e-03 3.99167132e-02 2.12766710e-01 8.08108951e-02 1.61109831e-01 0.00000000e+00 1.47308852e-01 4.03209339e-01 4.98927733e-02 6.80158733e-02 5.45764858e-01 7.82785683e-02 7.07480337e-02 4.54754379e-02 3.28454614e-01 3.17773349e-01 2.48665561e-01 2.41076083e-01 2.30382272e-01 1.79049354e-02 3.60937160e-03 2.28632388e-01 1.45887593e-02 3.11551280e-01 1.85663849e-01 1.33911016e-01 1.12320395e-01 2.09120018e-01 2.53719919e-02 1.70088557e-01 1.74513531e-01 4.57668044e-03 1.88117355e-01 2.30406891e-03 2.39961477e-01 6.76169976e-02 3.30289557e-02 1.57709290e-01 1.55715032e-01 3.07478549e-01 1.19461144e-01 3.20813868e-01 7.60339636e-02 3.97415775e-03 2.98380190e-02 2.88669816e-01 1.50143690e-01 9.56888615e-02 3.27877219e-02 2.52603912e-01 3.63562278e-02 5.62252286e-02 1.34083286e-01 1.94497059e-01 6.88465939e-02 8.21103344e-02 2.57500201e-02 2.04028857e-01 9.22405784e-02 3.26669775e-01 3.47297561e-01 1.65427386e-01 2.14871605e-01 3.02390349e-02 1.51874169e-01 2.09106038e-02 2.50657936e-01 3.72000198e-01 1.27473108e-01 7.20521896e-01 3.44858483e-01 1.18375651e-01 2.21342460e-01 2.33225851e-01 1.50382932e-01 2.09904520e-01 1.25770226e-01 5.92747089e-01 1.86946774e-01 3.24721811e-01 1.99496154e-01 1.27901702e-01 6.80200363e-02 1.75733973e-01 1.00384119e-01 4.59038129e-01 8.36943655e-03 1.71136801e-02 1.52485392e-01 2.79872581e-01 1.91638635e-01 8.07728475e-02 1.64503897e-01 2.57969401e-02 1.64870734e-01 2.48592328e-01 6.48031905e-02 9.99998333e-02 3.60627623e-01 4.61028822e-01 1.31797073e-01 1.29715938e-02 7.96532949e-02 1.94650448e-01 1.85100256e-01 3.04008078e-01 1.80926304e-01 3.62999168e-01 3.24020103e-01 1.50001464e-01 1.38325274e-01 2.21548327e-01 2.84856705e-01 1.54016884e-01 3.61823707e-01 4.96655104e-01 2.29317097e-01 3.08429275e-01 4.51202082e-02 1.69915290e-01 2.24311517e-01 4.14473775e-01 4.91796862e-01 5.31622168e-01 4.30582088e-01 3.24351754e-01 2.91404215e-01 1.45163886e-01 2.46127861e-01 3.93508640e-01 5.51942454e-02 5.54074385e-01 1.99692087e-01 1.79295272e-01 2.03358322e-01 4.77466413e-01 3.76017029e-01 4.11485668e-01 3.05518259e-01 1.05202754e+00 9.00983468e-02 1.99838527e-01 2.87693620e-01 6.15287914e-01 4.57941740e-01 5.82329337e-01 3.13984385e-01 3.75765557e-01 2.42166929e-01 4.51146301e-01 1.08779709e-01 4.41156833e-01 3.13154003e-01 2.86962175e-01 6.53966443e-01 3.76962500e-01 4.28613312e-01 3.36274296e-01 3.02749195e-01 1.12347142e+00 6.14336501e-01 7.96525724e-01 2.73224976e-01 6.23201567e-01 3.66815294e-01 2.00951688e-01 3.27861083e-01 4.61470640e-01 5.10113098e-01 5.69269967e-01 7.50387432e-01 3.67615683e-01 6.01497507e-01 3.54204322e-01 3.41256779e-01 1.09760646e-01 1.04076500e-01 4.96967656e-01 3.53767774e-01 8.20878310e-01 1.70957658e-01 5.17590011e-01 6.67728396e-01 3.20931965e-01 5.73963307e-01 2.38504658e-01 7.59039323e-01 5.89368848e-01 5.87248599e-01 4.48161154e-01 4.88081235e-01 6.46951507e-01 2.27917501e-01 7.19186641e-01 6.67487750e-01 2.88305742e-01 7.63078696e-01 3.97698411e-01 3.15701305e-01 1.24459891e-01 3.80877030e-01 3.35705222e-01 9.82863083e-01 3.15374519e-01 9.85989530e-01 2.58744876e-01 7.13691975e-01 6.38848852e-01 6.26505705e-01 4.28396467e-01 3.12247499e-01 4.78456037e-01 7.96428056e-01 9.37160878e-01 9.67606340e-01 7.05506881e-01 6.54175236e-01 6.76165690e-01 3.67216714e-01 8.42706546e-01 2.18481404e-01 6.58494513e-01 4.17274672e-01 6.20269048e-01 2.67205959e-01 8.00436508e-01 2.29441191e-01 3.59273491e-01 7.54875921e-01 4.02926342e-01 4.17509048e-01 6.22311483e-01 6.92572583e-01 3.77614650e-01 5.69992395e-01 5.13248780e-01 6.55509073e-01 4.28972320e-01 8.75053075e-01 3.86992079e-01 5.93464084e-01 2.83475676e-01 5.14019228e-01 5.33386717e-01 7.08116355e-01 3.10182097e-01 8.76520467e-01 3.89898480e-01 8.46961635e-01 6.31471978e-01 3.87925703e-01 2.94563180e-01 4.82545558e-01 7.37307297e-01 9.00714046e-01 3.33122399e-01 7.53929989e-01 5.18765903e-01 1.00467525e+00 5.53954106e-01 2.76274680e-01 1.07744333e+00 5.90276062e-01 6.11795965e-01 5.75272416e-01 1.08832185e+00 8.14393402e-01 6.61233363e-01 6.85543246e-01 5.87577159e-01 7.71656894e-01 5.59430424e-01 3.80000681e-01 1.08760952e+00 2.99024461e-01 6.41672553e-01 5.85796151e-01 1.47089056e+00 6.59400043e-01 8.21452676e-01 7.31650151e-01 5.05992174e-01 2.49855588e-01 5.90627794e-01 1.00703598e+00 8.05422070e-01 3.50726943e-01 1.26414114e+00 3.65363611e-01 6.34045311e-01 6.58463235e-01 7.54036241e-01 5.09455096e-01 6.73881488e-01 1.00145671e+00 7.09950159e-01 1.03403629e+00 4.83048248e-01 7.33988252e-01 1.08262782e+00 5.72391443e-01 7.57298674e-01 8.28781801e-01 2.68559605e+00 8.75970231e-01 9.62209516e-01 1.02747210e+00 6.46119942e-01 8.87423819e-01 9.29650378e-01 6.40211144e-01 8.39564863e-01 1.49189983e+00 8.72334197e-01 3.26571407e-01 1.06050699e+00 9.59546488e-01 7.44296155e-01 8.32974246e-01 1.28828457e+00 1.21762861e+00 1.17413088e+00 5.97409529e-01 1.93244119e-01 7.59764135e-01 9.64253901e-01 7.78417933e-01 2.23299576e-01 5.10193711e-01 7.75183653e-01 8.39372370e-01 4.24523386e-01 9.30662552e-01 9.38720344e-01 1.05157851e+00 1.06458939e+00 1.23454083e+00 1.09874552e+00 8.37034975e-01 4.12240734e+00 1.57396805e+00 9.66097971e-01 1.08877796e+00 1.07564549e+00 7.41081253e-01 1.60751940e+00 1.00441582e+00 9.52638187e-01 1.40622853e+00 1.63427342e+00 1.39481801e+00 1.25754837e+00 9.64998116e-01 1.25435253e+00 1.08821703e+00 7.28193824e-01 1.30886853e+00 1.32922659e+00 1.18403615e+00 6.97697753e-01 1.08689477e+00 6.96357934e-01 1.10846752e+00 1.26935870e+00 1.44654128e+00 9.84404838e-01 1.24459342e+00 9.67769377e-01 1.06472813e+00 9.25152675e-01 1.22598400e+00 7.60694322e-01 1.26172536e+00 1.63632230e+00 1.07796662e+00 2.00965512e+00 8.94736181e-01 1.07092464e+00 1.30147570e+00 1.43912069e+00 1.27318015e+00 6.62186963e-01 9.05338760e-01 1.20025492e+00 9.45196433e-01 7.26372700e-01 1.86331076e+00 1.27039171e+00 1.19969447e+00 5.06735271e-01 1.51271713e+00 1.49620766e+00 1.17355441e+00 1.06930907e+00 9.15472950e-01 1.63851616e+00 6.32065829e-01 1.40101381e+00 1.58523123e+00 8.84783605e-01 1.08538137e+00 7.80519500e-01 1.36333751e+00 9.30644259e-01 1.40074386e+00 1.66711477e+00 1.42499972e+00 1.12115106e+00 1.34283215e+00 8.92456636e-01 9.95052139e-01 1.00517704e+00 1.90667954e+00 1.13036641e+00 1.07727387e+00 1.69044282e+00 1.41161200e+00 1.21602873e+00 8.84220085e-01 1.33561703e+00 1.67102050e+00 1.64009629e+00 1.70123873e+00 1.38395533e+00 1.15765088e+00 2.11652858e+00 1.32536458e+00 1.64743768e+00 1.62821089e+00 9.46897912e-01 1.75088322e+00 1.00056479e+00 1.23456173e+00 2.06343838e+00 2.12999523e+00 1.30183335e+00 2.30208141e+00 1.46488239e+00 2.32552091e+00 1.46012339e+00 1.46727028e+00 2.53105550e+00 1.32100475e+00 2.02980574e+00 1.42726901e+00 2.28015177e+00 1.97430622e+00 2.03543290e+00 1.61847557e+00 2.49016892e+00 1.95330636e+00 1.98386853e+00 1.86822439e+00 1.12874572e+00 2.06318903e+00 2.21723734e+00 1.54614015e+00 2.20717223e+00 1.70326291e+00 2.93020830e+00 1.96073820e+00 2.16977307e+00 2.32710982e+00 1.69299905e+00 1.70570794e+00 2.17934744e+00 1.99237986e+00 1.76205035e+00 2.35850474e+00 1.61279988e+00 2.07665880e+00 2.19742300e+00 1.82125727e+00 1.56382000e+00 1.86707639e+00 1.68579229e+00 3.09952957e+00 2.10772888e+00 2.26819278e+00 1.95997204e+00 2.62921497e+00 2.48479127e+00 2.39680704e+00 2.05993668e+00 2.19208131e+00 2.08622988e+00 2.42720281e+00 3.62278292e+00 2.38415829e+00 2.50270547e+00 1.97319638e+00 1.96874494e+00 2.19145904e+00 2.50977291e+00 1.85175160e+00 1.69240057e+00 2.19909736e+00 1.74250256e+00 2.11250811e+00 1.86160185e+00 1.37614061e+00 1.90110260e+00 1.64262045e+00 1.95302593e+00 2.61748702e+00 2.36075958e+00 2.60850115e+00 3.24726736e+00 1.74060610e+00 2.41232348e+00 1.61104786e+00 2.43928012e+00 3.11862173e+00 1.58165330e+00 2.47584721e+00 2.15062479e+00 2.15882227e+00 3.13846937e+00 2.59150079e+00 2.17114996e+00 2.38601559e+00 2.48062073e+00 1.74952432e+00 2.76222580e+00 3.98065006e+00 2.66625957e+00 2.38839831e+00 1.88119329e+00 2.41688058e+00 4.21257347e+00 1.99262244e+00 1.53734338e+00 2.22681058e+00 4.12753886e+00 2.24075144e+00 1.94765441e+00 2.51706006e+00 2.39561946e+00 3.59994924e+00 3.07091409e+00 2.21237165e+00 2.41390452e+00 2.33944088e+00 2.59024483e+00 2.51627288e+00 1.52658976e+00 2.83881284e+00 3.18812484e+00 3.04226864e+00 3.54866684e+00 2.56510236e+00 2.76740153e+00 2.34661704e+00 4.27051758e+00 2.99412060e+00 3.31100920e+00 2.38479026e+00 2.66561881e+00 2.84396151e+00 3.05902019e+00 2.80269219e+00 2.50097775e+00 2.63921841e+00 1.73980806e+00 2.35404576e+00 2.27893372e+00 2.39849225e+00 2.27261970e+00 3.12891117e+00 2.12345492e+00 2.85198693e+00 2.05354215e+00 2.77169346e+00 2.06293473e+00 2.24901220e+00 2.49974723e+00 2.63958725e+00 2.19835661e+00 2.94998566e+00 2.67556820e+00 2.01361049e+00 3.36646476e+00 2.79842019e+00 3.61847908e+00 2.78771866e+00 2.75842547e+00 2.08939214e+00 2.20332558e+00 3.43724591e+00 3.31401094e+00 2.20926283e+00 2.84507262e+00 1.68992370e+00 2.08314549e+00 3.04611318e+00 2.63359229e+00 2.55399212e+00 2.70440829e+00 3.07185495e+00 3.66355126e+00 2.55104358e+00 2.48258058e+00 2.79398176e+00 3.80731168e+00 3.72594827e+00 2.38013811e+00 2.23588043e+00 2.77022047e+00 3.09041883e+00 2.66847250e+00 2.65075691e+00 2.55345274e+00 2.34845389e+00 2.71985875e+00 3.71321839e+00 2.58705898e+00 3.13258280e+00 3.16624971e+00 2.49565915e+00 3.76025284e+00 3.45394259e+00 3.18822748e+00 3.09643901e+00 2.95823808e+00 3.62353795e+00 2.62181908e+00 3.67906188e+00 3.03842332e+00 2.66367517e+00 3.44331250e+00 2.71836036e+00 3.09435288e+00 2.85664171e+00 2.53412234e+00 2.35071231e+00 2.96896100e+00 3.07148613e+00 3.43116983e+00 2.57436285e+00 2.39876375e+00 3.04307267e+00 2.69303989e+00 2.20509390e+00 2.54617350e+00 2.09973437e+00 2.91051011e+00 2.83362036e+00 2.36201543e+00 2.14347116e+00 2.52237971e+00 2.40006931e+00 2.94152795e+00 2.91946920e+00 3.24033065e+00 3.39942186e+00 3.63989844e+00 3.12139309e+00 2.56414944e+00 3.40758154e+00 3.18873802e+00 2.36396027e+00 2.60891839e+00 2.70377159e+00 2.70296560e+00 3.40261241e+00 3.44665701e+00 1.95945612e+00 2.56616098e+00 2.61116827e+00 3.76269518e+00 2.51277497e+00 2.83772187e+00 3.38550240e+00 2.70794462e+00 3.56582331e+00 2.39198329e+00 2.94476420e+00 3.87197415e+00 2.39277554e+00 2.51847271e+00 2.87487493e+00 2.50182781e+00 2.26967946e+00 2.56257610e+00 4.22549515e+00 2.91652571e+00 2.58049470e+00 2.11504129e+00 4.15222678e+00 3.31879070e+00 2.91525404e+00 2.81317095e+00 3.13390250e+00 3.24504868e+00 2.44765227e+00 3.03700990e+00 3.06874251e+00 2.99765124e+00 2.60806299e+00 3.42959667e+00 2.68164550e+00 3.65543363e+00 3.47604292e+00 2.55874060e+00 2.20658490e+00 3.44651605e+00 2.91615815e+00 3.73139067e+00 2.64261339e+00 3.71241400e+00 2.25840206e+00 2.33574418e+00 2.52722107e+00 2.61701422e+00 2.60952856e+00 3.50910793e+00 3.13395034e+00 2.59993323e+00 2.51169982e+00 2.34212851e+00 1.92555969e+00 3.62175066e+00 2.77686695e+00 2.65329916e+00 3.35305898e+00 3.24847399e+00 2.86337837e+00 2.64860835e+00 3.64922639e+00 3.89270382e+00 3.45855856e+00 3.46020816e+00 3.11902670e+00 2.57522023e+00 3.06345699e+00 3.46606487e+00 2.96885390e+00 2.62585836e+00 3.39009321e+00 3.92039046e+00 3.43709058e+00 2.81256081e+00 3.01466439e+00 3.73000231e+00 3.64084760e+00 2.79732956e+00 2.85407677e+00 3.36260948e+00 2.95744752e+00 2.86402146e+00 2.49768714e+00 2.25218299e+00 3.78091286e+00 2.80216414e+00 2.53690819e+00 3.11260903e+00 2.96435140e+00 3.21674230e+00 3.75757271e+00 3.33822149e+00 2.60316617e+00 2.81672429e+00 2.66936223e+00 2.78147635e+00 2.45240749e+00 3.89092548e+00 3.55842696e+00 2.69192660e+00 3.06099715e+00 2.75144179e+00 3.69948586e+00 3.06316298e+00 2.82602096e+00 2.64866854e+00 3.29277044e+00 3.13231441e+00 2.32051643e+00 2.77652677e+00 2.65540303e+00 3.08871595e+00 3.06476873e+00 2.45225386e+00 2.92140553e+00 3.03802432e+00 3.37994371e+00 3.43815660e+00 3.42312667e+00 2.91923535e+00 3.24792875e+00 3.45019891e+00 2.27162913e+00 3.31714136e+00 2.26769608e+00 2.65319296e+00 2.51852545e+00 2.62149689e+00 2.35067789e+00 3.40276194e+00 3.08504003e+00 2.17297288e+00 3.03530049e+00 3.43371350e+00 3.56232033e+00 2.92983992e+00 2.88178466e+00 2.37135475e+00 2.72781387e+00 3.41026353e+00 2.67518198e+00 3.55302296e+00 2.97582682e+00 3.02367369e+00 2.28226935e+00 2.70615359e+00 2.81606342e+00 3.02207250e+00 2.93264238e+00 2.68500991e+00 2.35026449e+00 2.79823355e+00 2.69817125e+00 2.91466651e+00 2.09128128e+00 2.53022394e+00 2.38750927e+00 2.21899396e+00 2.72890168e+00 2.46778629e+00 3.19104315e+00 3.03834177e+00 3.26903872e+00 2.75883014e+00 2.21694573e+00 2.13338337e+00 2.72289834e+00 2.89182731e+00 2.90430855e+00 2.48925204e+00 3.15782287e+00 2.97599344e+00 3.21164514e+00 3.25660188e+00 2.72716957e+00 2.61104375e+00 3.22615434e+00 2.23280856e+00 2.77677709e+00 2.92709406e+00 3.00272735e+00 2.80946501e+00 3.44821725e+00 2.09697433e+00 2.46820582e+00 2.56088247e+00 2.56183047e+00 2.58479597e+00 3.01744009e+00 2.29278116e+00 2.51934690e+00 2.22604570e+00 2.67267584e+00 2.64396262e+00 2.51278918e+00 2.52545148e+00 2.53303271e+00 2.78580459e+00 2.53161748e+00 2.26905832e+00 3.36699139e+00 2.62506369e+00 2.23361190e+00 2.64856771e+00 2.78260115e+00 2.99123180e+00 2.37338600e+00 2.82644398e+00 2.90993444e+00 2.42091328e+00 2.19787541e+00 2.37513779e+00 2.57799189e+00 2.29803219e+00 2.56580783e+00 2.79527916e+00 2.96107121e+00 2.44256119e+00 2.10117521e+00 2.00730087e+00 2.06827178e+00 2.50924558e+00 2.66664188e+00 2.82305167e+00 1.98734602e+00 3.03683708e+00 2.13627442e+00 2.56901959e+00 2.43518813e+00 1.75006555e+00 2.08579883e+00 2.54363824e+00 2.73942365e+00 2.56372952e+00 2.65853605e+00 2.64051221e+00 3.26348067e+00 2.49325153e+00 2.79125887e+00 2.48038482e+00 1.55059430e+00 2.37800340e+00 2.84159671e+00 2.64385289e+00 2.02064477e+00 2.03303982e+00 1.64685710e+00 2.06067024e+00 2.50886931e+00 2.19048211e+00 2.96330942e+00 2.58553196e+00 2.74071020e+00 1.87170351e+00 2.11442333e+00 1.96325700e+00 2.48664252e+00 2.23263919e+00 2.37664064e+00 1.79781431e+00 1.77685683e+00 2.34602652e+00 2.05420932e+00 1.92589928e+00 1.83077249e+00 2.55798381e+00 1.89886772e+00 2.56492274e+00 2.79027698e+00 2.45029407e+00 1.73737259e+00 2.12513087e+00 2.22687789e+00 2.55381551e+00 2.29510715e+00 1.72471583e+00 2.90887903e+00 1.71513623e+00 2.27002542e+00 2.14177500e+00 1.72148223e+00 1.91440366e+00 1.79435028e+00 1.90067346e+00 2.55325617e+00 1.56187705e+00 2.52617257e+00 1.71746566e+00 2.20448822e+00 1.46473417e+00 1.90351557e+00 1.81076196e+00 1.72910771e+00 2.56614320e+00 2.28239292e+00 1.68093687e+00 1.98859642e+00 1.35081927e+00 1.75128530e+00 1.57579927e+00 1.95857221e+00 2.04861626e+00 1.37252689e+00 2.24744206e+00 2.07452482e+00 2.39622012e+00 1.57409623e+00 1.38464918e+00 1.83207119e+00 1.19717669e+00 1.78017068e+00 1.19866553e+00 1.72211637e+00 1.60087178e+00 1.52804384e+00 1.69594186e+00 1.16267886e+00 1.32034441e+00 1.92929216e+00 1.62869468e+00 1.92133856e+00 1.50469850e+00 1.74320272e+00 1.06075913e+00 1.57038312e+00 2.06047929e+00 2.15908151e+00 1.19115159e+00 2.17381964e+00 1.31804124e+00 2.48973102e+00 1.87137394e+00 1.30113233e+00 1.51043884e+00 1.32085238e+00 9.10062046e-01 1.80981221e+00 1.61637220e+00 2.16722409e+00 1.60751053e+00 1.61220786e+00 1.35466600e+00 1.42740937e+00 1.39376603e+00 1.58262785e+00 1.78065188e+00 1.75334222e+00 2.45995885e+00 1.59031145e+00 1.52095619e+00 1.54184459e+00 1.40226111e+00 1.65969575e+00 1.41111592e+00 1.10250192e+00 1.55979562e+00 2.03382309e+00 1.15500307e+00 1.48382220e+00 1.32053470e+00 1.37698920e+00 1.33303498e+00 1.67738707e+00 9.59386858e-01 1.44329925e+00 1.41277086e+00 1.36913010e+00 1.16248693e+00 1.42531168e+00 1.28073825e+00 1.02277493e+00 1.43952434e+00 1.68367610e+00 1.37216485e+00 1.80719752e+00 1.14008108e+00 1.06666501e+00 1.03180609e+00 1.16308425e+00 1.01833869e+00 1.26692654e+00 1.26220800e+00 1.63975493e+00 1.60672905e+00 9.09890832e-01 1.20204569e+00 1.20145710e+00 8.93440748e-01 6.73734807e-01 1.04004208e+00 8.46036570e-01 8.18654639e-01 9.76006902e-01 1.04727137e+00 8.74463164e-01 1.12722340e+00 7.98588189e-01 9.36842162e-01 6.96143946e-01 1.34869452e+00 1.46640120e+00 3.52313812e-01 9.14822368e-01 7.45327995e-01 1.17566315e+00 1.26661730e+00 1.21262201e+00 8.81204329e-01 1.07042636e+00 1.00216470e+00 5.72522838e-01 8.17215027e-01 1.27664898e+00 7.38579854e-01 6.55447333e-01 1.16030892e+00 7.22524975e-01 8.64410858e-01 8.35347103e-01 9.00378104e-01 1.13841081e+00 7.57495085e-01 8.51177940e-01 8.33230116e-01 4.47188374e-01 8.29498561e-01 6.57124985e-01 9.50674448e-01 6.07897927e-01 1.12746349e+00 5.40941268e-01 7.60831823e-01 5.49318341e-01 3.01467439e-01 4.90705603e-01 6.59450650e-01 9.29371886e-01 4.74958062e-01 4.72507883e-01 4.88711128e-01 4.11568821e-01 3.97866788e-01 5.73432561e-01 5.93883195e-01 4.93907695e-01 6.27062252e-01 5.78563971e-01 8.04808286e-01 4.48650178e-01 3.13403746e-01 5.19888569e-01 5.18084903e-01 3.92160374e-01 1.00391622e+00 5.51311870e-01 4.98624625e-01 4.86302135e-01 8.62452205e-01 5.52925084e-01 5.15423548e-01 5.07679778e-01 5.27422377e-01 4.57013742e-01 4.50589490e-01 4.06905390e-01 2.46226890e-01 5.89607522e-01 2.81623581e-01 4.84934181e-01 3.80477274e-01 4.01739350e-01 3.56649189e-01 4.47351818e-01 1.74000425e-01 1.24036604e-01 5.55829466e-01 5.66285216e-01 2.64340039e-01 3.10912258e-01 5.07013487e-01 1.75195635e-01 5.12884356e-01 4.61554992e-01 4.80121641e-01 2.18985515e-01 2.52936857e-01 2.29962428e-01 4.52608264e-01 3.91436544e-01 3.39611399e-01 3.16261099e-01 2.40626920e-01 1.35591596e-01 5.23632544e-01 8.00873657e-02 2.99147945e-01 1.61003879e-01 1.67951798e-01 1.70393776e-01 1.26956923e-01 1.63517851e-01 1.79969090e-01 2.75023461e-01 2.85787918e-01 2.72387332e-01 2.58677639e-01 4.02731196e-01 1.15118732e-01 2.45750666e-01 2.06629783e-01 5.47065011e-01 5.93170577e-02 1.01325683e-01 2.70530756e-01 1.88997469e-01 2.46623318e-01 1.12171786e-01 1.71495271e-01 2.93492646e-01 2.82954315e-01 3.21267894e-02 2.75343531e-01 1.29406652e-01 2.03637775e-01 3.08386934e-01 8.99281394e-02 3.39734291e-01 3.31749320e-01 1.81199289e-01 1.66828703e-01 1.40501175e-01 1.19300368e-01 1.46865287e-01 2.06062418e-01 1.15364734e-01 6.80988913e-02 2.86448435e-01 4.28290800e-02 5.83339934e-02 9.56808385e-02 7.67004671e-02 8.06842729e-02 1.83884693e-01 3.18133311e-01 1.52404426e-01 1.85009284e-01 2.37178636e-01 1.27914557e-01 2.48773086e-01 4.45424157e-02 8.50467727e-03 2.03747965e-02 9.22126078e-02 2.63313686e-01 3.05920650e-01 6.22569819e-02 4.50086493e-02 3.10943636e-01 9.99481471e-02 1.42420779e-01 1.02015587e-01 3.00350894e-01 3.64950627e-02 1.12476118e-01 9.46054706e-03 1.40383332e-01 2.37247683e-01 2.19590423e-04 1.88057524e-03 1.39176459e-01 3.71082485e-03 3.42025817e-02 6.24349314e-02 1.30059553e-01 1.19667156e-01 1.14096616e-01 1.58923804e-01 9.53802100e-03 6.81049512e-03 5.35889991e-02 9.68120392e-02 3.26670967e-02 3.10856858e-02 4.44136032e-04 9.13683513e-02 1.48183138e-02 1.42036313e-01 3.69743489e-02 1.47837620e-02 2.22381853e-02 5.25836920e-04 1.36147967e-02 1.70733972e-03 1.41478177e-01 5.84475988e-02 2.65200906e-02 9.39526554e-03 8.89295814e-04 2.15704074e-03 2.10083734e-01 7.40887534e-02 1.91403783e-03 1.02568033e-02 1.50949157e-04 2.89760143e-02 8.33640337e-02 1.71420677e-03 1.66215753e-02 1.69027328e-02 2.90984080e-02 2.59330071e-03 6.66332109e-02 2.66522859e-03 0.00000000e+00 5.95326430e-02 2.58664793e-02 1.85668702e-02 2.24426881e-02 1.84323207e-03 0.00000000e+00 0.00000000e+00 9.92044688e-05 3.97676122e-02 1.68076098e-01 4.16576952e-04 7.85173223e-04 1.32111557e-03 2.89616297e-02 3.19044343e-04 1.38169552e-03 0.00000000e+00 0.00000000e+00 0.00000000e+00 0.00000000e+00 4.11585126e-04 0.00000000e+00 1.76801459e-03 6.19686382e-04 9.37142377e-04 1.93833212e-02 1.45681164e-01 1.17183698e-03 1.32972777e-04 0.00000000e+00 2.63219583e-02 3.35070692e-02 0.00000000e+00 5.99855636e-03 0.00000000e+00 1.61317242e-03 0.00000000e+00 0.00000000e+00 0.00000000e+00 1.09001025e-02 0.00000000e+00 4.68260536e-02 0.00000000e+00 0.00000000e+00 2.69665126e-04 1.82627169e-03 0.00000000e+00 7.55194484e-02 1.83572657e-03 4.77297386e-04 0.00000000e+00 0.00000000e+00 5.50733691e-02 3.15106754e-04 0.00000000e+00 0.00000000e+00 0.00000000e+00 0.00000000e+00 0.00000000e+00 0.00000000e+00 2.01900782e-04 0.00000000e+00 6.90004445e-03 0.00000000e+00 0.00000000e+00 3.61978200e-04 0.00000000e+00 4.07048235e-02 3.55847619e-04 0.00000000e+00 0.00000000e+00 0.00000000e+00 0.00000000e+00 4.90150230e-04 0.00000000e+00 1.32896425e-01 0.00000000e+00 0.00000000e+00 0.00000000e+00 0.00000000e+00 0.00000000e+00 0.00000000e+00 0.00000000e+00 0.00000000e+00 0.00000000e+00 0.00000000e+00 0.00000000e+00 8.34905972e-02 0.00000000e+00 0.00000000e+00 0.00000000e+00 0.00000000e+00 0.00000000e+00 0.00000000e+00 0.00000000e+00 0.00000000e+00 0.00000000e+00 2.55986276e-04 0.00000000e+00 0.00000000e+00 0.00000000e+00 0.00000000e+00 0.00000000e+00 0.00000000e+00 0.00000000e+00 0.00000000e+00 5.38022308e-04 0.00000000e+00 0.00000000e+00 0.00000000e+00 0.00000000e+00 0.00000000e+00 0.00000000e+00 0.00000000e+00 0.00000000e+00 
      </Histogram>
    </PDF>
    <PDF Name="BDT_PDFBkg" MinNSmooth="0" MaxNSmooth="0" InterpolMethod="2" KDE_type="1" KDE_iter="1" KDE_border="1" KDE_finefactor="1.0000000000000000e+00">
      <Histogram Name="BDT_tr_B_original" NBins="1833" XMin="-4.3313512206077576e-01" XMax="5.3386896848678589e-01" HasEquidistantBins="1">
        4.82818451e-01 0.00000000e+00 0.00000000e+00 0.00000000e+00 0.00000000e+00 0.00000000e+00 0.00000000e+00 0.00000000e+00 0.00000000e+00 0.00000000e+00 0.00000000e+00 0.00000000e+00 0.00000000e+00 0.00000000e+00 0.00000000e+00 0.00000000e+00 0.00000000e+00 0.00000000e+00 0.00000000e+00 0.00000000e+00 0.00000000e+00 0.00000000e+00 0.00000000e+00 0.00000000e+00 0.00000000e+00 0.00000000e+00 0.00000000e+00 0.00000000e+00 0.00000000e+00 0.00000000e+00 0.00000000e+00 0.00000000e+00 0.00000000e+00 0.00000000e+00 0.00000000e+00 0.00000000e+00 0.00000000e+00 0.00000000e+00 0.00000000e+00 0.00000000e+00 0.00000000e+00 0.00000000e+00 0.00000000e+00 0.00000000e+00 0.00000000e+00 0.00000000e+00 0.00000000e+00 0.00000000e+00 0.00000000e+00 0.00000000e+00 0.00000000e+00 9.65636902e-01 0.00000000e+00 0.00000000e+00 4.82818451e-01 0.00000000e+00 0.00000000e+00 0.00000000e+00 4.82818451e-01 0.00000000e+00 0.00000000e+00 0.00000000e+00 0.00000000e+00 0.00000000e+00 0.00000000e+00 4.82818451e-01 0.00000000e+00 0.00000000e+00 4.82818451e-01 0.00000000e+00 4.82818451e-01 0.00000000e+00 0.00000000e+00 0.00000000e+00 0.00000000e+00 0.00000000e+00 0.00000000e+00 0.00000000e+00 4.82818451e-01 4.82818451e-01 0.00000000e+00 4.82818451e-01 0.00000000e+00 0.00000000e+00 0.00000000e+00 0.00000000e+00 0.00000000e+00 0.00000000e+00 0.00000000e+00 4.82818451e-01 4.82818451e-01 0.00000000e+00 0.00000000e+00 0.00000000e+00 0.00000000e+00 0.00000000e+00 0.00000000e+00 0.00000000e+00 0.00000000e+00 0.00000000e+00 0.00000000e+00 4.82818451e-01 0.00000000e+00 0.00000000e+00 0.00000000e+00 0.00000000e+00 9.65636902e-01 4.82818451e-01 0.00000000e+00 0.00000000e+00 0.00000000e+00 0.00000000e+00 4.82818451e-01 0.00000000e+00 4.82818451e-01 4.82818451e-01 0.00000000e+00 0.00000000e+00 0.00000000e+00 0.00000000e+00 4.82818451e-01 9.65636902e-01 4.82818451e-01 4.82818451e-01 0.00000000e+00 4.82818451e-01 4.82818451e-01 0.00000000e+00 4.82818451e-01 0.00000000e+00 0.00000000e+00 0.00000000e+00 4.82818451e-01 0.00000000e+00 9.65636902e-01 0.00000000e+00 4.82818451e-01 1.44845535e+00 0.00000000e+00 0.00000000e+00 4.82818451e-01 4.82818451e-01 9.65636902e-01 9.65636902e-01 4.82818451e-01 9.65636902e-01 4.82818451e-01 4.82818451e-01 1.44845535e+00 4.82818451e-01 4.82818451e-01 0.00000000e+00 0.00000000e+00 4.82818451e-01 4.82818451e-01 1.93127380e+00 4.82818451e-01 0.00000000e+00 0.00000000e+00 0.00000000e+00 4.82818451e-01 0.00000000e+00 4.82818451e-01 0.00000000e+00 0.00000000e+00 1.44845535e+00 4.82818451e-01 0.00000000e+00 0.00000000e+00 4.82818451e-01 0.00000000e+00 4.82818451e-01 0.00000000e+00 1.44845535e+00 0.00000000e+00 9.65636902e-01 1.44845535e+00 4.82818451e-01 4.82818451e-01 0.00000000e+00 4.82818451e-01 0.00000000e+00 4.82818451e-01 4.82818451e-01 4.82818451e-01 1.93127380e+00 4.82818451e-01 0.00000000e+00 0.00000000e+00 0.00000000e+00 9.65636902e-01 0.00000000e+00 4.82818451e-01 1.93127380e+00 4.82818451e-01 4.82818451e-01 0.00000000e+00 0.00000000e+00 1.44845535e+00 4.82818451e-01 9.65636902e-01 4.82818451e-01 9.65636902e-01 9.65636902e-01 9.65636902e-01 2.89691071e+00 9.65636902e-01 0.00000000e+00 4.82818451e-01 1.44845535e+00 0.00000000e+00 1.44845535e+00 9.65636902e-01 4.82818451e-01 1.44845535e+00 9.65636902e-01 0.00000000e+00 4.82818451e-01 9.65636902e-01 9.65636902e-01 4.82818451e-01 1.44845535e+00 0.00000000e+00 9.65636902e-01 4.82818451e-01 1.44845535e+00 2.41409226e+00 4.82818451e-01 4.82818451e-01 4.82818451e-01 3.37972916e+00 1.44845535e+00 0.00000000e+00 4.82818451e-01 1.44845535e+00 1.93127380e+00 9.65636902e-01 4.82818451e-01 9.65636902e-01 4.82818451e-01 0.00000000e+00 4.82818451e-01 4.82818451e-01 4.82818451e-01 9.65636902e-01 9.65636902e-01 4.82818451e-01 9.65636902e-01 9.65636902e-01 1.44845535e+00 0.00000000e+00 4.82818451e-01 1.44845535e+00 9.65636902e-01 1.44845535e+00 9.65636902e-01 1.93127380e+00 1.93127380e+00 9.65636902e-01 1.44845535e+00 9.65636902e-01 9.65636902e-01 1.93127380e+00 4.82818451e-01 4.82818451e-01 9.65636902e-01 4.82818451e-01 4.82818451e-01 1.93127380e+00 1.44845535e+00 9.65636902e-01 2.41409226e+00 9.65636902e-01 4.82818451e-01 1.93127380e+00 4.82818451e-01 1.44845535e+00 9.65636902e-01 4.82818451e-01 3.37972916e+00 1.93127380e+00 2.41409226e+00 1.93127380e+00 9.65636902e-01 4.82818451e-01 9.65636902e-01 9.65636902e-01 9.65636902e-01 1.44845535e+00 1.44845535e+00 4.82818451e-01 4.82818451e-01 1.44845535e+00 1.44845535e+00 1.93127380e+00 1.44845535e+00 2.89691071e+00 2.41409226e+00 1.93127380e+00 1.44845535e+00 1.44845535e+00 9.65636902e-01 0.00000000e+00 4.82818451e-01 2.89691071e+00 9.65636902e-01 1.93127380e+00 1.44845535e+00 3.37972916e+00 1.93127380e+00 9.65636902e-01 1.93127380e+00 1.44845535e+00 1.93127380e+00 1.44845535e+00 1.44845535e+00 2.41409226e+00 2.89691071e+00 3.37972916e+00 1.44845535e+00 1.93127380e+00 3.37972916e+00 1.44845535e+00 1.93127380e+00 1.93127380e+00 1.44845535e+00 2.89691071e+00 9.65636902e-01 0.00000000e+00 1.93127380e+00 1.93127380e+00 2.41409226e+00 1.44845535e+00 2.41409226e+00 2.89691071e+00 2.41409226e+00 2.41409226e+00 3.37972916e+00 1.44845535e+00 2.41409226e+00 2.89691071e+00 4.82818451e-01 2.41409226e+00 2.89691071e+00 2.89691071e+00 2.89691071e+00 9.65636902e-01 2.41409226e+00 1.44845535e+00 1.93127380e+00 9.65636902e-01 1.93127380e+00 1.44845535e+00 3.37972916e+00 9.65636902e-01 1.44845535e+00 2.41409226e+00 1.44845535e+00 4.82818451e-01 1.44845535e+00 2.41409226e+00 1.44845535e+00 1.93127380e+00 4.82818451e-01 4.82818451e-01 1.93127380e+00 9.65636902e-01 1.44845535e+00 4.82818451e-01 1.44845535e+00 3.86254761e+00 9.65636902e-01 1.44845535e+00 1.44845535e+00 1.93127380e+00 4.34536606e+00 1.44845535e+00 1.93127380e+00 2.41409226e+00 1.93127380e+00 1.93127380e+00 2.41409226e+00 9.65636902e-01 2.41409226e+00 3.37972916e+00 1.93127380e+00 2.41409226e+00 2.89691071e+00 1.93127380e+00 9.65636902e-01 1.44845535e+00 2.41409226e+00 4.82818451e-01 2.41409226e+00 2.89691071e+00 3.86254761e+00 2.41409226e+00 1.93127380e+00 2.41409226e+00 9.65636902e-01 3.86254761e+00 2.89691071e+00 2.41409226e+00 9.65636902e-01 3.86254761e+00 2.41409226e+00 1.44845535e+00 2.89691071e+00 1.93127380e+00 3.86254761e+00 1.93127380e+00 1.93127380e+00 7.72509522e+00 1.93127380e+00 4.82818451e+00 3.37972916e+00 2.89691071e+00 2.41409226e+00 1.44845535e+00 9.65636902e-01 3.37972916e+00 2.89691071e+00 3.86254761e+00 1.93127380e+00 1.93127380e+00 2.41409226e+00 4.82818451e+00 3.37972916e+00 2.89691071e+00 3.86254761e+00 1.93127380e+00 9.65636902e-01 3.86254761e+00 1.93127380e+00 1.93127380e+00 1.93127380e+00 2.41409226e+00 1.93127380e+00 2.41409226e+00 5.79382141e+00 3.37972916e+00 2.89691071e+00 2.41409226e+00 4.34536606e+00 4.82818451e+00 2.41409226e+00 1.44845535e+00 9.65636902e-01 1.44845535e+00 5.79382141e+00 1.93127380e+00 2.41409226e+00 4.34536606e+00 2.89691071e+00 1.44845535e+00 1.93127380e+00 4.82818451e-01 1.93127380e+00 2.41409226e+00 5.31100296e+00 5.79382141e+00 2.89691071e+00 1.93127380e+00 2.41409226e+00 1.93127380e+00 2.41409226e+00 2.41409226e+00 1.93127380e+00 2.41409226e+00 1.44845535e+00 5.31100296e+00 2.41409226e+00 9.65636902e-01 1.44845535e+00 1.93127380e+00 2.89691071e+00 9.65636902e-01 2.41409226e+00 2.89691071e+00 4.82818451e+00 4.34536606e+00 6.27663986e+00 1.44845535e+00 1.93127380e+00 1.93127380e+00 4.34536606e+00 5.31100296e+00 4.34536606e+00 3.37972916e+00 2.41409226e+00 2.41409226e+00 3.37972916e+00 1.93127380e+00 2.41409226e+00 2.89691071e+00 1.44845535e+00 5.79382141e+00 2.89691071e+00 1.93127380e+00 4.82818451e+00 4.82818451e+00 9.65636902e-01 2.89691071e+00 4.82818451e-01 2.41409226e+00 4.82818451e+00 3.86254761e+00 6.27663986e+00 2.89691071e+00 4.82818451e-01 5.79382141e+00 3.37972916e+00 5.31100296e+00 3.37972916e+00 2.41409226e+00 6.27663986e+00 2.41409226e+00 1.93127380e+00 3.37972916e+00 1.44845535e+00 1.93127380e+00 2.89691071e+00 3.86254761e+00 3.37972916e+00 1.93127380e+00 3.37972916e+00 4.34536606e+00 1.44845535e+00 9.65636902e-01 2.41409226e+00 2.89691071e+00 2.89691071e+00 2.41409226e+00 2.89691071e+00 4.34536606e+00 3.86254761e+00 2.41409226e+00 3.86254761e+00 1.44845535e+00 1.93127380e+00 4.34536606e+00 3.86254761e+00 2.41409226e+00 1.93127380e+00 1.93127380e+00 2.41409226e+00 3.37972916e+00 2.89691071e+00 4.82818451e+00 1.44845535e+00 3.37972916e+00 1.44845535e+00 1.44845535e+00 3.37972916e+00 1.93127380e+00 1.93127380e+00 1.93127380e+00 2.41409226e+00 2.41409226e+00 9.65636902e-01 3.37972916e+00 2.41409226e+00 3.86254761e+00 5.79382141e+00 1.44845535e+00 6.75945832e+00 1.93127380e+00 3.37972916e+00 2.89691071e+00 2.89691071e+00 3.37972916e+00 2.89691071e+00 2.41409226e+00 1.93127380e+00 9.65636902e-01 3.86254761e+00 5.79382141e+00 1.93127380e+00 1.44845535e+00 2.89691071e+00 2.89691071e+00 2.89691071e+00 6.27663986e+00 1.93127380e+00 2.89691071e+00 4.82818451e+00 1.93127380e+00 2.89691071e+00 1.44845535e+00 3.37972916e+00 3.37972916e+00 2.89691071e+00 4.34536606e+00 3.37972916e+00 3.86254761e+00 2.41409226e+00 9.65636902e-01 5.31100296e+00 0.00000000e+00 1.44845535e+00 4.82818451e+00 2.41409226e+00 1.44845535e+00 4.82818451e+00 2.41409226e+00 3.86254761e+00 3.86254761e+00 2.41409226e+00 3.86254761e+00 1.93127380e+00 1.93127380e+00 1.93127380e+00 3.37972916e+00 1.93127380e+00 2.41409226e+00 3.86254761e+00 1.44845535e+00 9.65636902e-01 2.41409226e+00 3.37972916e+00 2.89691071e+00 2.41409226e+00 2.89691071e+00 1.93127380e+00 3.37972916e+00 3.86254761e+00 2.89691071e+00 1.93127380e+00 1.93127380e+00 5.79382141e+00 4.34536606e+00 1.93127380e+00 3.86254761e+00 1.44845535e+00 3.86254761e+00 2.89691071e+00 2.41409226e+00 2.41409226e+00 4.34536606e+00 2.41409226e+00 2.89691071e+00 2.41409226e+00 1.93127380e+00 3.86254761e+00 9.65636902e-01 3.37972916e+00 2.89691071e+00 1.93127380e+00 1.44845535e+00 2.41409226e+00 2.89691071e+00 1.93127380e+00 2.41409226e+00 3.37972916e+00 1.44845535e+00 2.89691071e+00 2.89691071e+00 2.89691071e+00 2.89691071e+00 2.41409226e+00 2.89691071e+00 1.44845535e+00 2.41409226e+00 2.41409226e+00 2.41409226e+00 2.41409226e+00 1.44845535e+00 5.31100296e+00 3.37972916e+00 3.86254761e+00 9.65636902e-01 2.89691071e+00 1.93127380e+00 2.89691071e+00 6.27663986e+00 4.82818451e-01 2.41409226e+00 2.89691071e+00 2.89691071e+00 1.44845535e+00 1.93127380e+00 9.65636902e-01 7.24227677e+00 1.93127380e+00 1.44845535e+00 5.31100296e+00 1.93127380e+00 2.41409226e+00 9.65636902e-01 1.93127380e+00 3.86254761e+00 1.93127380e+00 4.82818451e-01 2.89691071e+00 4.34536606e+00 1.93127380e+00 1.44845535e+00 2.41409226e+00 1.93127380e+00 2.89691071e+00 4.82818451e-01 1.44845535e+00 3.86254761e+00 1.93127380e+00 4.34536606e+00 1.44845535e+00 3.37972916e+00 2.89691071e+00 2.41409226e+00 2.89691071e+00 0.00000000e+00 2.41409226e+00 9.65636902e-01 2.89691071e+00 3.86254761e+00 2.41409226e+00 4.82818451e-01 1.93127380e+00 1.44845535e+00 1.44845535e+00 2.41409226e+00 3.37972916e+00 1.93127380e+00 2.89691071e+00 4.82818451e-01 9.65636902e-01 2.41409226e+00 2.89691071e+00 1.93127380e+00 9.65636902e-01 5.31100296e+00 2.41409226e+00 4.82818451e-01 1.93127380e+00 9.65636902e-01 2.41409226e+00 1.93127380e+00 1.93127380e+00 3.37972916e+00 6.27663986e+00 2.89691071e+00 4.82818451e+00 4.82818451e+00 1.44845535e+00 1.93127380e+00 3.37972916e+00 1.93127380e+00 1.93127380e+00 3.37972916e+00 2.41409226e+00 1.93127380e+00 1.93127380e+00 3.37972916e+00 1.93127380e+00 4.82818451e-01 3.37972916e+00 1.44845535e+00 3.86254761e+00 4.82818451e-01 4.82818451e-01 1.44845535e+00 2.41409226e+00 9.65636902e-01 4.82818451e-01 1.93127380e+00 1.44845535e+00 4.82818451e-01 9.65636902e-01 2.41409226e+00 1.93127380e+00 3.86254761e+00 4.34536606e+00 2.89691071e+00 1.93127380e+00 4.82818451e-01 1.01391875e+01 1.93127380e+00 1.93127380e+00 1.93127380e+00 1.93127380e+00 1.44845535e+00 1.93127380e+00 1.44845535e+00 4.34536606e+00 1.44845535e+00 1.44845535e+00 2.41409226e+00 4.82818451e-01 1.93127380e+00 2.41409226e+00 4.82818451e-01 1.44845535e+00 2.89691071e+00 1.44845535e+00 2.41409226e+00 9.65636902e-01 4.82818451e-01 4.82818451e-01 9.65636902e-01 9.65636902e-01 2.89691071e+00 9.65636902e-01 2.41409226e+00 2.89691071e+00 2.41409226e+00 1.44845535e+00 4.82818451e-01 4.82818451e-01 1.44845535e+00 1.44845535e+00 2.41409226e+00 1.93127380e+00 1.44845535e+00 2.41409226e+00 1.44845535e+00 9.65636902e-01 1.93127380e+00 1.93127380e+00 1.44845535e+00 2.41409226e+00 9.65636902e-01 2.41409226e+00 2.89691071e+00 1.93127380e+00 2.89691071e+00 1.44845535e+00 2.89691071e+00 9.65636902e-01 2.41409226e+00 1.44845535e+00 1.93127380e+00 2.41409226e+00 2.41409226e+00 1.44845535e+00 9.65636902e-01 2.89691071e+00 1.93127380e+00 9.65636902e-01 4.82818451e-01 3.86254761e+00 3.37972916e+00 4.82818451e-01 1.93127380e+00 1.44845535e+00 2.41409226e+00 9.65636902e-01 1.44845535e+00 1.93127380e+00 1.93127380e+00 1.93127380e+00 1.93127380e+00 1.93127380e+00 1.44845535e+00 9.65636902e-01 9.65636902e-01 1.93127380e+00 9.65636902e-01 1.93127380e+00 2.89691071e+00 2.41409226e+00 1.44845535e+00 1.44845535e+00 2.41409226e+00 9.65636902e-01 0.00000000e+00 4.82818451e-01 2.41409226e+00 1.44845535e+00 2.41409226e+00 4.82818451e-01 1.44845535e+00 1.44845535e+00 9.65636902e-01 1.44845535e+00 2.41409226e+00 4.82818451e-01 1.44845535e+00 1.44845535e+00 9.65636902e-01 1.44845535e+00 0.00000000e+00 2.89691071e+00 1.44845535e+00 4.82818451e-01 0.00000000e+00 3.37972916e+00 4.82818451e-01 2.41409226e+00 9.65636902e-01 9.65636902e-01 4.82818451e-01 0.00000000e+00 1.44845535e+00 1.44845535e+00 2.41409226e+00 1.93127380e+00 9.65636902e-01 9.65636902e-01 1.93127380e+00 9.65636902e-01 9.65636902e-01 3.37972916e+00 9.65636902e-01 4.82818451e-01 1.93127380e+00 1.44845535e+00 4.82818451e-01 2.41409226e+00 9.65636902e-01 1.44845535e+00 1.44845535e+00 2.41409226e+00 2.41409226e+00 2.41409226e+00 0.00000000e+00 2.89691071e+00 1.93127380e+00 9.65636902e-01 4.82818451e-01 9.65636902e-01 3.37972916e+00 1.44845535e+00 1.93127380e+00 2.89691071e+00 0.00000000e+00 9.65636902e-01 4.82818451e-01 2.41409226e+00 4.82818451e-01 0.00000000e+00 4.82818451e-01 4.82818451e-01 1.44845535e+00 0.00000000e+00 0.00000000e+00 4.82818451e-01 1.44845535e+00 4.82818451e-01 2.41409226e+00 9.65636902e-01 1.93127380e+00 1.93127380e+00 1.93127380e+00 1.44845535e+00 1.44845535e+00 1.44845535e+00 0.00000000e+00 1.44845535e+00 9.65636902e-01 1.44845535e+00 9.65636902e-01 0.00000000e+00 9.65636902e-01 1.44845535e+00 9.65636902e-01 3.37972916e+00 2.41409226e+00 1.93127380e+00 1.44845535e+00 1.44845535e+00 1.44845535e+00 9.65636902e-01 4.82818451e-01 4.82818451e-01 1.44845535e+00 2.41409226e+00 1.93127380e+00 9.65636902e-01 0.00000000e+00 2.41409226e+00 9.65636902e-01 0.00000000e+00 4.82818451e-01 4.82818451e-01 2.89691071e+00 9.65636902e-01 1.44845535e+00 1.93127380e+00 9.65636902e-01 0.00000000e+00 0.00000000e+00 4.82818451e-01 1.93127380e+00 1.93127380e+00 9.65636902e-01 9.65636902e-01 4.82818451e-01 1.93127380e+00 4.82818451e-01 4.82818451e-01 1.44845535e+00 1.93127380e+00 4.82818451e-01 9.65636902e-01 1.44845535e+00 4.82818451e-01 4.82818451e-01 0.00000000e+00 2.41409226e+00 4.82818451e-01 9.65636902e-01 9.65636902e-01 9.65636902e-01 2.89691071e+00 9.65636902e-01 2.41409226e+00 9.65636902e-01 2.41409226e+00 1.93127380e+00 1.44845535e+00 1.44845535e+00 9.65636902e-01 9.65636902e-01 0.00000000e+00 1.44845535e+00 2.89691071e+00 2.41409226e+00 1.93127380e+00 9.65636902e-01 4.82818451e-01 0.00000000e+00 9.65636902e-01 0.00000000e+00 1.44845535e+00 9.65636902e-01 4.82818451e-01 9.65636902e-01 9.65636902e-01 4.82818451e-01 4.82818451e-01 1.44845535e+00 9.65636902e-01 4.82818451e-01 4.82818451e-01 9.65636902e-01 0.00000000e+00 2.89691071e+00 9.65636902e-01 4.82818451e-01 2.41409226e+00 9.65636902e-01 4.82818451e-01 1.44845535e+00 4.82818451e-01 9.65636902e-01 9.65636902e-01 9.65636902e-01 1.44845535e+00 4.82818451e-01 2.41409226e+00 1.44845535e+00 9.65636902e-01 0.00000000e+00 4.82818451e-01 1.93127380e+00 9.65636902e-01 4.82818451e-01 4.82818451e-01 4.82818451e-01 1.44845535e+00 0.00000000e+00 0.00000000e+00 1.44845535e+00 9.65636902e-01 4.82818451e-01 1.44845535e+00 1.93127380e+00 4.82818451e-01 1.93127380e+00 1.44845535e+00 4.82818451e-01 9.65636902e-01 1.44845535e+00 4.82818451e-01 4.82818451e-01 0.00000000e+00 1.93127380e+00 9.65636902e-01 9.65636902e-01 0.00000000e+00 0.00000000e+00 4.82818451e-01 4.82818451e-01 4.82818451e-01 4.82818451e-01 9.65636902e-01 9.65636902e-01 0.00000000e+00 0.00000000e+00 1.93127380e+00 4.82818451e-01 4.82818451e-01 0.00000000e+00 0.00000000e+00 0.00000000e+00 9.65636902e-01 0.00000000e+00 1.44845535e+00 4.82818451e-01 4.82818451e-01 0.00000000e+00 0.00000000e+00 9.65636902e-01 9.65636902e-01 1.44845535e+00 4.82818451e-01 3.37972916e+00 9.65636902e-01 9.65636902e-01 1.44845535e+00 4.82818451e-01 4.82818451e-01 4.82818451e-01 0.00000000e+00 9.65636902e-01 1.93127380e+00 9.65636902e-01 4.82818451e-01 4.82818451e-01 4.82818451e-01 0.00000000e+00 9.65636902e-01 0.00000000e+00 0.00000000e+00 4.82818451e-01 0.00000000e+00 4.82818451e-01 4.82818451e-01 4.82818451e-01 4.82818451e-01 4.82818451e-01 9.65636902e-01 9.65636902e-01 4.82818451e-01 4.82818451e-01 0.00000000e+00 4.82818451e-01 0.00000000e+00 0.00000000e+00 4.82818451e-01 4.82818451e-01 4.82818451e-01 9.65636902e-01 4.82818451e-01 9.65636902e-01 0.00000000e+00 0.00000000e+00 4.82818451e-01 9.65636902e-01 0.00000000e+00 0.00000000e+00 4.82818451e-01 4.82818451e-01 4.82818451e-01 1.93127380e+00 4.82818451e-01 0.00000000e+00 9.65636902e-01 0.00000000e+00 4.82818451e-01 1.44845535e+00 4.82818451e-01 9.65636902e-01 4.82818451e-01 0.00000000e+00 9.65636902e-01 9.65636902e-01 4.82818451e-01 0.00000000e+00 4.82818451e-01 4.82818451e-01 4.82818451e-01 0.00000000e+00 0.00000000e+00 4.82818451e-01 0.00000000e+00 4.82818451e-01 4.82818451e-01 0.00000000e+00 4.82818451e-01 0.00000000e+00 0.00000000e+00 4.82818451e-01 4.82818451e-01 4.82818451e-01 9.65636902e-01 9.65636902e-01 0.00000000e+00 0.00000000e+00 4.82818451e-01 4.82818451e-01 0.00000000e+00 0.00000000e+00 9.65636902e-01 0.00000000e+00 0.00000000e+00 4.82818451e-01 9.65636902e-01 9.65636902e-01 4.82818451e-01 4.82818451e-01 0.00000000e+00 0.00000000e+00 1.44845535e+00 0.00000000e+00 4.82818451e-01 0.00000000e+00 4.82818451e-01 0.00000000e+00 0.00000000e+00 9.65636902e-01 0.00000000e+00 9.65636902e-01 0.00000000e+00 0.00000000e+00 9.65636902e-01 0.00000000e+00 1.44845535e+00 0.00000000e+00 9.65636902e-01 0.00000000e+00 9.65636902e-01 0.00000000e+00 9.65636902e-01 1.44845535e+00 4.82818451e-01 0.00000000e+00 4.82818451e-01 9.65636902e-01 0.00000000e+00 0.00000000e+00 4.82818451e-01 9.65636902e-01 0.00000000e+00 0.00000000e+00 9.65636902e-01 0.00000000e+00 4.82818451e-01 4.82818451e-01 0.00000000e+00 0.00000000e+00 0.00000000e+00 0.00000000e+00 9.65636902e-01 4.82818451e-01 9.65636902e-01 0.00000000e+00 0.00000000e+00 4.82818451e-01 0.00000000e+00 4.82818451e-01 0.00000000e+00 0.00000000e+00 0.00000000e+00 0.00000000e+00 0.00000000e+00 0.00000000e+00 4.82818451e-01 0.00000000e+00 0.00000000e+00 4.82818451e-01 0.00000000e+00 0.00000000e+00 9.65636902e-01 0.00000000e+00 0.00000000e+00 4.82818451e-01 0.00000000e+00 9.65636902e-01 9.65636902e-01 4.82818451e-01 4.82818451e-01 4.82818451e-01 0.00000000e+00 0.00000000e+00 4.82818451e-01 0.00000000e+00 4.82818451e-01 0.00000000e+00 0.00000000e+00 0.00000000e+00 0.00000000e+00 4.82818451e-01 9.65636902e-01 0.00000000e+00 0.00000000e+00 0.00000000e+00 0.00000000e+00 9.65636902e-01 0.00000000e+00 0.00000000e+00 0.00000000e+00 4.82818451e-01 0.00000000e+00 4.82818451e-01 0.00000000e+00 0.00000000e+00 0.00000000e+00 4.82818451e-01 4.82818451e-01 0.00000000e+00 0.00000000e+00 0.00000000e+00 0.00000000e+00 0.00000000e+00 0.00000000e+00 0.00000000e+00 0.00000000e+00 0.00000000e+00 0.00000000e+00 0.00000000e+00 4.82818451e-01 0.00000000e+00 4.82818451e-01 9.65636902e-01 0.00000000e+00 0.00000000e+00 4.82818451e-01 0.00000000e+00 0.00000000e+00 0.00000000e+00 0.00000000e+00 0.00000000e+00 0.00000000e+00 0.00000000e+00 0.00000000e+00 9.65636902e-01 4.82818451e-01 0.00000000e+00 4.82818451e-01 0.00000000e+00 0.00000000e+00 0.00000000e+00 0.00000000e+00 9.65636902e-01 0.00000000e+00 0.00000000e+00 0.00000000e+00 0.00000000e+00 0.00000000e+00 0.00000000e+00 4.82818451e-01 0.00000000e+00 4.82818451e-01 0.00000000e+00 0.00000000e+00 0.00000000e+00 0.00000000e+00 0.00000000e+00 4.82818451e-01 0.00000000e+00 9.65636902e-01 4.82818451e-01 0.00000000e+00 0.00000000e+00 0.00000000e+00 0.00000000e+00 0.00000000e+00 0.00000000e+00 4.82818451e-01 0.00000000e+00 4.82818451e-01 0.00000000e+00 0.00000000e+00 0.00000000e+00 0.00000000e+00 0.00000000e+00 4.82818451e-01 0.00000000e+00 4.82818451e-01 0.00000000e+00 0.00000000e+00 4.82818451e-01 0.00000000e+00 0.00000000e+00 0.00000000e+00 0.00000000e+00 0.00000000e+00 4.82818451e-01 0.00000000e+00 0.00000000e+00 0.00000000e+00 0.00000000e+00 0.00000000e+00 4.82818451e-01 4.82818451e-01 0.00000000e+00 0.00000000e+00 0.00000000e+00 0.00000000e+00 4.82818451e-01 0.00000000e+00 0.00000000e+00 4.82818451e-01 0.00000000e+00 0.00000000e+00 0.00000000e+00 0.00000000e+00 0.00000000e+00 0.00000000e+00 0.00000000e+00 4.82818451e-01 0.00000000e+00 0.00000000e+00 0.00000000e+00 0.00000000e+00 0.00000000e+00 0.00000000e+00 0.00000000e+00 0.00000000e+00 4.82818451e-01 0.00000000e+00 0.00000000e+00 0.00000000e+00 0.00000000e+00 0.00000000e+00 0.00000000e+00 0.00000000e+00 4.82818451e-01 0.00000000e+00 0.00000000e+00 0.00000000e+00 0.00000000e+00 0.00000000e+00 0.00000000e+00 0.00000000e+00 0.00000000e+00 0.00000000e+00 0.00000000e+00 0.00000000e+00 0.00000000e+00 0.00000000e+00 0.00000000e+00 0.00000000e+00 0.00000000e+00 0.00000000e+00 0.00000000e+00 4.82818451e-01 0.00000000e+00 0.00000000e+00 0.00000000e+00 0.00000000e+00 0.00000000e+00 0.00000000e+00 0.00000000e+00 0.00000000e+00 0.00000000e+00 4.82818451e-01 0.00000000e+00 0.00000000e+00 0.00000000e+00 0.00000000e+00 0.00000000e+00 0.00000000e+00 0.00000000e+00 0.00000000e+00 0.00000000e+00 0.00000000e+00 0.00000000e+00 0.00000000e+00 0.00000000e+00 0.00000000e+00 0.00000000e+00 0.00000000e+00 0.00000000e+00 0.00000000e+00 0.00000000e+00 0.00000000e+00 0.00000000e+00 0.00000000e+00 0.00000000e+00 4.82818451e-01 0.00000000e+00 0.00000000e+00 0.00000000e+00 0.00000000e+00 0.00000000e+00 0.00000000e+00 0.00000000e+00 0.00000000e+00 0.00000000e+00 0.00000000e+00 0.00000000e+00 0.00000000e+00 0.00000000e+00 0.00000000e+00 0.00000000e+00 0.00000000e+00 0.00000000e+00 4.82818451e-01 0.00000000e+00 0.00000000e+00 4.82818451e-01 0.00000000e+00 0.00000000e+00 0.00000000e+00 0.00000000e+00 0.00000000e+00 0.00000000e+00 0.00000000e+00 0.00000000e+00 0.00000000e+00 0.00000000e+00 0.00000000e+00 0.00000000e+00 0.00000000e+00 0.00000000e+00 0.00000000e+00 0.00000000e+00 0.00000000e+00 0.00000000e+00 0.00000000e+00 0.00000000e+00 0.00000000e+00 0.00000000e+00 0.00000000e+00 0.00000000e+00 0.00000000e+00 0.00000000e+00 0.00000000e+00 0.00000000e+00 0.00000000e+00 0.00000000e+00 0.00000000e+00 0.00000000e+00 0.00000000e+00 0.00000000e+00 0.00000000e+00 0.00000000e+00 0.00000000e+00 0.00000000e+00 0.00000000e+00 0.00000000e+00 0.00000000e+00 0.00000000e+00 0.00000000e+00 0.00000000e+00 4.82818451e-01 0.00000000e+00 0.00000000e+00 0.00000000e+00 0.00000000e+00 0.00000000e+00 0.00000000e+00 0.00000000e+00 0.00000000e+00 0.00000000e+00 0.00000000e+00 0.00000000e+00 0.00000000e+00 0.00000000e+00 0.00000000e+00 0.00000000e+00 0.00000000e+00 0.00000000e+00 4.82818451e-01 0.00000000e+00 0.00000000e+00 0.00000000e+00 0.00000000e+00 0.00000000e+00 0.00000000e+00 0.00000000e+00 0.00000000e+00 0.00000000e+00 0.00000000e+00 0.00000000e+00 0.00000000e+00 0.00000000e+00 0.00000000e+00 0.00000000e+00 0.00000000e+00 0.00000000e+00 0.00000000e+00 0.00000000e+00 0.00000000e+00 0.00000000e+00 0.00000000e+00 4.82818451e-01 0.00000000e+00 0.00000000e+00 0.00000000e+00 0.00000000e+00 0.00000000e+00 0.00000000e+00 0.00000000e+00 0.00000000e+00 0.00000000e+00 0.00000000e+00 0.00000000e+00 4.82818451e-01 0.00000000e+00 0.00000000e+00 0.00000000e+00 0.00000000e+00 0.00000000e+00 0.00000000e+00 0.00000000e+00 0.00000000e+00 0.00000000e+00 0.00000000e+00 0.00000000e+00 0.00000000e+00 0.00000000e+00 0.00000000e+00 0.00000000e+00 0.00000000e+00 0.00000000e+00 0.00000000e+00 0.00000000e+00 0.00000000e+00 0.00000000e+00 0.00000000e+00 0.00000000e+00 0.00000000e+00 0.00000000e+00 0.00000000e+00 0.00000000e+00 0.00000000e+00 0.00000000e+00 0.00000000e+00 0.00000000e+00 0.00000000e+00 0.00000000e+00 0.00000000e+00 0.00000000e+00 0.00000000e+00 0.00000000e+00 0.00000000e+00 0.00000000e+00 0.00000000e+00 0.00000000e+00 0.00000000e+00 0.00000000e+00 0.00000000e+00 0.00000000e+00 0.00000000e+00 0.00000000e+00 0.00000000e+00 0.00000000e+00 0.00000000e+00 0.00000000e+00 0.00000000e+00 0.00000000e+00 0.00000000e+00 0.00000000e+00 0.00000000e+00 0.00000000e+00 0.00000000e+00 0.00000000e+00 0.00000000e+00 0.00000000e+00 0.00000000e+00 0.00000000e+00 0.00000000e+00 0.00000000e+00 0.00000000e+00 0.00000000e+00 0.00000000e+00 0.00000000e+00 0.00000000e+00 0.00000000e+00 0.00000000e+00 0.00000000e+00 0.00000000e+00 0.00000000e+00 0.00000000e+00 0.00000000e+00 0.00000000e+00 0.00000000e+00 0.00000000e+00 0.00000000e+00 0.00000000e+00 0.00000000e+00 0.00000000e+00 0.00000000e+00 0.00000000e+00 0.00000000e+00 0.00000000e+00 0.00000000e+00 0.00000000e+00 0.00000000e+00 0.00000000e+00 0.00000000e+00 0.00000000e+00 0.00000000e+00 0.00000000e+00 0.00000000e+00 0.00000000e+00 0.00000000e+00 0.00000000e+00 0.00000000e+00 0.00000000e+00 0.00000000e+00 0.00000000e+00 0.00000000e+00 0.00000000e+00 0.00000000e+00 0.00000000e+00 0.00000000e+00 0.00000000e+00 0.00000000e+00 0.00000000e+00 0.00000000e+00 0.00000000e+00 0.00000000e+00 0.00000000e+00 0.00000000e+00 0.00000000e+00 0.00000000e+00 0.00000000e+00 0.00000000e+00 0.00000000e+00 0.00000000e+00 0.00000000e+00 0.00000000e+00 0.00000000e+00 0.00000000e+00 0.00000000e+00 0.00000000e+00 0.00000000e+00 0.00000000e+00 0.00000000e+00 0.00000000e+00 0.00000000e+00 0.00000000e+00 0.00000000e+00 0.00000000e+00 0.00000000e+00 0.00000000e+00 0.00000000e+00 0.00000000e+00 0.00000000e+00 0.00000000e+00 0.00000000e+00 0.00000000e+00 0.00000000e+00 0.00000000e+00 0.00000000e+00 0.00000000e+00 0.00000000e+00 0.00000000e+00 0.00000000e+00 0.00000000e+00 0.00000000e+00 0.00000000e+00 0.00000000e+00 0.00000000e+00 0.00000000e+00 0.00000000e+00 0.00000000e+00 0.00000000e+00 0.00000000e+00 0.00000000e+00 0.00000000e+00 0.00000000e+00 0.00000000e+00 0.00000000e+00 0.00000000e+00 0.00000000e+00 0.00000000e+00 0.00000000e+00 0.00000000e+00 0.00000000e+00 0.00000000e+00 0.00000000e+00 0.00000000e+00 0.00000000e+00 0.00000000e+00 0.00000000e+00 0.00000000e+00 0.00000000e+00 0.00000000e+00 0.00000000e+00 0.00000000e+00 0.00000000e+00 0.00000000e+00 0.00000000e+00 0.00000000e+00 0.00000000e+00 0.00000000e+00 0.00000000e+00 0.00000000e+00 0.00000000e+00 0.00000000e+00 0.00000000e+00 0.00000000e+00 0.00000000e+00 0.00000000e+00 0.00000000e+00 0.00000000e+00 0.00000000e+00 0.00000000e+00 0.00000000e+00 0.00000000e+00 0.00000000e+00 0.00000000e+00 0.00000000e+00 0.00000000e+00 0.00000000e+00 0.00000000e+00 0.00000000e+00 0.00000000e+00 0.00000000e+00 0.00000000e+00 0.00000000e+00 0.00000000e+00 0.00000000e+00 0.00000000e+00 0.00000000e+00 0.00000000e+00 0.00000000e+00 0.00000000e+00 0.00000000e+00 0.00000000e+00 0.00000000e+00 0.00000000e+00 0.00000000e+00 0.00000000e+00 0.00000000e+00 0.00000000e+00 0.00000000e+00 0.00000000e+00 0.00000000e+00 0.00000000e+00 0.00000000e+00 0.00000000e+00 0.00000000e+00 0.00000000e+00 0.00000000e+00 0.00000000e+00 0.00000000e+00 0.00000000e+00 
      </Histogram>
    </PDF>
  </MVAPdfs>
  <Weights NTrees="300" AnalysisType="0">
    <BinaryTree type="DecisionTree" boostWeight="7.7271029896581223e-01" itree="0">
      <Node pos="s" depth="0" NCoef="0" IVar="4" Cut="2.3377979174256325e-02" cType="1" res="-9.9000000000000000e+01" rms="0.0000000000000000e+00" purity="4.9510413408279419e-01" nType="0">
        <Node pos="l" depth="1" NCoef="0" IVar="-1" Cut="-7.7152857556939125e-03" cType="0" res="-9.9000000000000000e+01" rms="0.0000000000000000e+00" purity="7.0350557565689087e-01" nType="1"/>
        <Node pos="r" depth="1" NCoef="0" IVar="-1" Cut="0.0000000000000000e+00" cType="1" res="-9.9000000000000000e+01" rms="0.0000000000000000e+00" purity="1.7640781402587891e-01" nType="-1"/>
      </Node>
    </BinaryTree>
    <BinaryTree type="DecisionTree" boostWeight="5.9742570041821719e-01" itree="1">
      <Node pos="s" depth="0" NCoef="0" IVar="4" Cut="1.3435028493404388e-02" cType="1" res="-9.9000000000000000e+01" rms="0.0000000000000000e+00" purity="4.7811865806579590e-01" nType="0">
        <Node pos="l" depth="1" NCoef="0" IVar="-1" Cut="-5.4511474445462227e-03" cType="0" res="-9.9000000000000000e+01" rms="0.0000000000000000e+00" purity="6.8829870223999023e-01" nType="1"/>
        <Node pos="r" depth="1" NCoef="0" IVar="-1" Cut="0.0000000000000000e+00" cType="1" res="-9.9000000000000000e+01" rms="0.0000000000000000e+00" purity="2.8688281774520874e-01" nType="-1"/>
      </Node>
    </BinaryTree>
    <BinaryTree type="DecisionTree" boostWeight="5.2036540410978771e-01" itree="2">
      <Node pos="s" depth="0" NCoef="0" IVar="4" Cut="2.0464114844799042e-02" cType="1" res="-9.9000000000000000e+01" rms="0.0000000000000000e+00" purity="4.7941097617149353e-01" nType="0">
        <Node pos="l" depth="1" NCoef="0" IVar="2" Cut="-7.3270462453365326e-03" cType="0" res="-9.9000000000000000e+01" rms="0.0000000000000000e+00" purity="6.1347532272338867e-01" nType="0">
          <Node pos="l" depth="2" NCoef="0" IVar="-1" Cut="0.0000000000000000e+00" cType="1" res="-9.9000000000000000e+01" rms="0.0000000000000000e+00" purity="6.8521809577941895e-01" nType="1"/>
          <Node pos="r" depth="2" NCoef="0" IVar="-1" Cut="0.0000000000000000e+00" cType="1" res="-9.9000000000000000e+01" rms="0.0000000000000000e+00" purity="4.2538991570472717e-01" nType="-1"/>
        </Node>
        <Node pos="r" depth="1" NCoef="0" IVar="-1" Cut="0.0000000000000000e+00" cType="1" res="-9.9000000000000000e+01" rms="0.0000000000000000e+00" purity="2.8962567448616028e-01" nType="-1"/>
      </Node>
    </BinaryTree>
    <BinaryTree type="DecisionTree" boostWeight="4.0211300477497725e-01" itree="3">
      <Node pos="s" depth="0" NCoef="0" IVar="3" Cut="1.1646766960620880e-01" cType="0" res="-9.9000000000000000e+01" rms="0.0000000000000000e+00" purity="4.9820926785469055e-01" nType="0">
        <Node pos="l" depth="1" NCoef="0" IVar="1" Cut="-6.4964983612298965e-03" cType="0" res="-9.9000000000000000e+01" rms="0.0000000000000000e+00" purity="5.9166276454925537e-01" nType="0">
          <Node pos="l" depth="2" NCoef="0" IVar="-1" Cut="0.0000000000000000e+00" cType="1" res="-9.9000000000000000e+01" rms="0.0000000000000000e+00" purity="6.4090520143508911e-01" nType="1"/>
          <Node pos="r" depth="2" NCoef="0" IVar="-1" Cut="0.0000000000000000e+00" cType="1" res="-9.9000000000000000e+01" rms="0.0000000000000000e+00" purity="4.5518311858177185e-01" nType="-1"/>
        </Node>
        <Node pos="r" depth="1" NCoef="0" IVar="-1" Cut="0.0000000000000000e+00" cType="1" res="-9.9000000000000000e+01" rms="0.0000000000000000e+00" purity="3.1155687570571899e-01" nType="-1"/>
      </Node>
    </BinaryTree>
    <BinaryTree type="DecisionTree" boostWeight="5.1859015800233832e-01" itree="4">
      <Node pos="s" depth="0" NCoef="0" IVar="2" Cut="-9.6826385706663132e-03" cType="0" res="-9.9000000000000000e+01" rms="0.0000000000000000e+00" purity="4.9484786391258240e-01" nType="0">
        <Node pos="l" depth="1" NCoef="0" IVar="1" Cut="7.0134289562702179e-03" cType="1" res="-9.9000000000000000e+01" rms="0.0000000000000000e+00" purity="5.6070518493652344e-01" nType="0">
          <Node pos="l" depth="2" NCoef="0" IVar="-1" Cut="0.0000000000000000e+00" cType="1" res="-9.9000000000000000e+01" rms="0.0000000000000000e+00" purity="6.9770872592926025e-01" nType="1"/>
          <Node pos="r" depth="2" NCoef="0" IVar="-1" Cut="0.0000000000000000e+00" cType="1" res="-9.9000000000000000e+01" rms="0.0000000000000000e+00" purity="3.3627784252166748e-01" nType="-1"/>
        </Node>
        <Node pos="r" depth="1" NCoef="0" IVar="-1" Cut="0.0000000000000000e+00" cType="1" res="-9.9000000000000000e+01" rms="0.0000000000000000e+00" purity="3.4071382880210876e-01" nType="-1"/>
      </Node>
    </BinaryTree>
    <BinaryTree type="DecisionTree" boostWeight="3.4216571821453695e-01" itree="5">
      <Node pos="s" depth="0" NCoef="0" IVar="4" Cut="2.3387558758258820e-02" cType="1" res="-9.9000000000000000e+01" rms="0.0000000000000000e+00" purity="4.9438610672950745e-01" nType="0">
        <Node pos="l" depth="1" NCoef="0" IVar="1" Cut="6.4148856326937675e-03" cType="1" res="-9.9000000000000000e+01" rms="0.0000000000000000e+00" purity="5.6768590211868286e-01" nType="0">
          <Node pos="l" depth="2" NCoef="0" IVar="-1" Cut="0.0000000000000000e+00" cType="1" res="-9.9000000000000000e+01" rms="0.0000000000000000e+00" purity="6.2109792232513428e-01" nType="1"/>
          <Node pos="r" depth="2" NCoef="0" IVar="-1" Cut="0.0000000000000000e+00" cType="1" res="-9.9000000000000000e+01" rms="0.0000000000000000e+00" purity="4.1846233606338501e-01" nType="-1"/>
        </Node>
        <Node pos="r" depth="1" NCoef="0" IVar="-1" Cut="0.0000000000000000e+00" cType="1" res="-9.9000000000000000e+01" rms="0.0000000000000000e+00" purity="3.6387309432029724e-01" nType="-1"/>
      </Node>
    </BinaryTree>
    <BinaryTree type="DecisionTree" boostWeight="2.3538260213826542e-01" itree="6">
      <Node pos="s" depth="0" NCoef="0" IVar="3" Cut="1.1171756684780121e-01" cType="0" res="-9.9000000000000000e+01" rms="0.0000000000000000e+00" purity="5.0710570812225342e-01" nType="0">
        <Node pos="l" depth="1" NCoef="0" IVar="-1" Cut="-7.4106341600418091e-01" cType="1" res="-9.9000000000000000e+01" rms="0.0000000000000000e+00" purity="5.6733131408691406e-01" nType="1"/>
        <Node pos="r" depth="1" NCoef="0" IVar="-1" Cut="0.0000000000000000e+00" cType="1" res="-9.9000000000000000e+01" rms="0.0000000000000000e+00" purity="3.8415485620498657e-01" nType="-1"/>
      </Node>
    </BinaryTree>
    <BinaryTree type="DecisionTree" boostWeight="2.7130974074067699e-01" itree="7">
      <Node pos="s" depth="0" NCoef="0" IVar="6" Cut="-8.4303945302963257e-01" cType="1" res="-9.9000000000000000e+01" rms="0.0000000000000000e+00" purity="4.9677678942680359e-01" nType="0">
        <Node pos="l" depth="1" NCoef="0" IVar="-1" Cut="0.0000000000000000e+00" cType="1" res="-9.9000000000000000e+01" rms="0.0000000000000000e+00" purity="6.7327153682708740e-01" nType="1"/>
        <Node pos="r" depth="1" NCoef="0" IVar="4" Cut="4.8483782447874546e-03" cType="1" res="-9.9000000000000000e+01" rms="0.0000000000000000e+00" purity="4.6100294589996338e-01" nType="0">
          <Node pos="l" depth="2" NCoef="0" IVar="-1" Cut="0.0000000000000000e+00" cType="1" res="-9.9000000000000000e+01" rms="0.0000000000000000e+00" purity="5.9158807992935181e-01" nType="1"/>
          <Node pos="r" depth="2" NCoef="0" IVar="-1" Cut="0.0000000000000000e+00" cType="1" res="-9.9000000000000000e+01" rms="0.0000000000000000e+00" purity="4.2336747050285339e-01" nType="-1"/>
        </Node>
      </Node>
    </BinaryTree>
    <BinaryTree type="DecisionTree" boostWeight="3.2839603932108052e-01" itree="8">
      <Node pos="s" depth="0" NCoef="0" IVar="2" Cut="-9.5458449795842171e-03" cType="0" res="-9.9000000000000000e+01" rms="0.0000000000000000e+00" purity="4.9290403723716736e-01" nType="0">
        <Node pos="l" depth="1" NCoef="0" IVar="2" Cut="9.3943635001778603e-03" cType="1" res="-9.9000000000000000e+01" rms="0.0000000000000000e+00" purity="5.4682922363281250e-01" nType="0">
          <Node pos="l" depth="2" NCoef="0" IVar="-1" Cut="0.0000000000000000e+00" cType="1" res="-9.9000000000000000e+01" rms="0.0000000000000000e+00" purity="6.1742305755615234e-01" nType="1"/>
          <Node pos="r" depth="2" NCoef="0" IVar="-1" Cut="0.0000000000000000e+00" cType="1" res="-9.9000000000000000e+01" rms="0.0000000000000000e+00" purity="4.1099056601524353e-01" nType="-1"/>
        </Node>
        <Node pos="r" depth="1" NCoef="0" IVar="-1" Cut="0.0000000000000000e+00" cType="1" res="-9.9000000000000000e+01" rms="0.0000000000000000e+00" purity="3.6743229627609253e-01" nType="-1"/>
      </Node>
    </BinaryTree>
    <BinaryTree type="DecisionTree" boostWeight="2.6978400946288372e-01" itree="9">
      <Node pos="s" depth="0" NCoef="0" IVar="0" Cut="1.0209862142801285e-01" cType="0" res="-9.9000000000000000e+01" rms="0.0000000000000000e+00" purity="4.9233269691467285e-01" nType="0">
        <Node pos="l" depth="1" NCoef="0" IVar="-1" Cut="0.0000000000000000e+00" cType="1" res="-9.9000000000000000e+01" rms="0.0000000000000000e+00" purity="6.0603010654449463e-01" nType="1"/>
        <Node pos="r" depth="1" NCoef="0" IVar="4" Cut="9.3964859843254089e-03" cType="1" res="-9.9000000000000000e+01" rms="0.0000000000000000e+00" purity="4.4727137684822083e-01" nType="0">
          <Node pos="l" depth="2" NCoef="0" IVar="-1" Cut="0.0000000000000000e+00" cType="1" res="-9.9000000000000000e+01" rms="0.0000000000000000e+00" purity="5.4140943288803101e-01" nType="1"/>
          <Node pos="r" depth="2" NCoef="0" IVar="-1" Cut="0.0000000000000000e+00" cType="1" res="-9.9000000000000000e+01" rms="0.0000000000000000e+00" purity="3.6688745021820068e-01" nType="-1"/>
        </Node>
      </Node>
    </BinaryTree>
    <BinaryTree type="DecisionTree" boostWeight="1.8132138569494549e-01" itree="10">
      <Node pos="s" depth="0" NCoef="0" IVar="0" Cut="1.1564253270626068e-01" cType="0" res="-9.9000000000000000e+01" rms="0.0000000000000000e+00" purity="4.9663800001144409e-01" nType="0">
        <Node pos="l" depth="1" NCoef="0" IVar="-1" Cut="0.0000000000000000e+00" cType="1" res="-9.9000000000000000e+01" rms="0.0000000000000000e+00" purity="6.3901358842849731e-01" nType="1"/>
        <Node pos="r" depth="1" NCoef="0" IVar="4" Cut="1.4617224223911762e-02" cType="1" res="-9.9000000000000000e+01" rms="0.0000000000000000e+00" purity="4.6961870789527893e-01" nType="0">
          <Node pos="l" depth="2" NCoef="0" IVar="-1" Cut="0.0000000000000000e+00" cType="1" res="-9.9000000000000000e+01" rms="0.0000000000000000e+00" purity="5.1754963397979736e-01" nType="1"/>
          <Node pos="r" depth="2" NCoef="0" IVar="-1" Cut="0.0000000000000000e+00" cType="1" res="-9.9000000000000000e+01" rms="0.0000000000000000e+00" purity="4.0717980265617371e-01" nType="-1"/>
        </Node>
      </Node>
    </BinaryTree>
    <BinaryTree type="DecisionTree" boostWeight="2.6250805984587927e-01" itree="11">
      <Node pos="s" depth="0" NCoef="0" IVar="0" Cut="1.0062047094106674e-01" cType="0" res="-9.9000000000000000e+01" rms="0.0000000000000000e+00" purity="4.8976382613182068e-01" nType="0">
        <Node pos="l" depth="1" NCoef="0" IVar="-1" Cut="0.0000000000000000e+00" cType="1" res="-9.9000000000000000e+01" rms="0.0000000000000000e+00" purity="5.8342832326889038e-01" nType="1"/>
        <Node pos="r" depth="1" NCoef="0" IVar="4" Cut="4.9410755746066570e-03" cType="1" res="-9.9000000000000000e+01" rms="0.0000000000000000e+00" purity="4.4901403784751892e-01" nType="0">
          <Node pos="l" depth="2" NCoef="0" IVar="-1" Cut="0.0000000000000000e+00" cType="1" res="-9.9000000000000000e+01" rms="0.0000000000000000e+00" purity="5.8949702978134155e-01" nType="1"/>
          <Node pos="r" depth="2" NCoef="0" IVar="-1" Cut="0.0000000000000000e+00" cType="1" res="-9.9000000000000000e+01" rms="0.0000000000000000e+00" purity="4.0084388852119446e-01" nType="-1"/>
        </Node>
      </Node>
    </BinaryTree>
    <BinaryTree type="DecisionTree" boostWeight="2.7619155816323648e-01" itree="12">
      <Node pos="s" depth="0" NCoef="0" IVar="1" Cut="7.5601614080369473e-03" cType="1" res="-9.9000000000000000e+01" rms="0.0000000000000000e+00" purity="5.0965809822082520e-01" nType="0">
        <Node pos="l" depth="1" NCoef="0" IVar="1" Cut="-6.3415267504751682e-03" cType="0" res="-9.9000000000000000e+01" rms="0.0000000000000000e+00" purity="5.4380601644515991e-01" nType="0">
          <Node pos="l" depth="2" NCoef="0" IVar="-1" Cut="0.0000000000000000e+00" cType="1" res="-9.9000000000000000e+01" rms="0.0000000000000000e+00" purity="6.2581068277359009e-01" nType="1"/>
          <Node pos="r" depth="2" NCoef="0" IVar="-1" Cut="0.0000000000000000e+00" cType="1" res="-9.9000000000000000e+01" rms="0.0000000000000000e+00" purity="4.2772901058197021e-01" nType="-1"/>
        </Node>
        <Node pos="r" depth="1" NCoef="0" IVar="-1" Cut="0.0000000000000000e+00" cType="1" res="-9.9000000000000000e+01" rms="0.0000000000000000e+00" purity="4.1921541094779968e-01" nType="-1"/>
      </Node>
    </BinaryTree>
    <BinaryTree type="DecisionTree" boostWeight="2.5428834162879499e-01" itree="13">
      <Node pos="s" depth="0" NCoef="0" IVar="6" Cut="-8.7802881002426147e-01" cType="1" res="-9.9000000000000000e+01" rms="0.0000000000000000e+00" purity="4.9694541096687317e-01" nType="0">
        <Node pos="l" depth="1" NCoef="0" IVar="-1" Cut="0.0000000000000000e+00" cType="1" res="-9.9000000000000000e+01" rms="0.0000000000000000e+00" purity="6.4868855476379395e-01" nType="1"/>
        <Node pos="r" depth="1" NCoef="0" IVar="6" Cut="8.2256466150283813e-01" cType="0" res="-9.9000000000000000e+01" rms="0.0000000000000000e+00" purity="4.6959760785102844e-01" nType="0">
          <Node pos="l" depth="2" NCoef="0" IVar="-1" Cut="0.0000000000000000e+00" cType="1" res="-9.9000000000000000e+01" rms="0.0000000000000000e+00" purity="6.0521888732910156e-01" nType="1"/>
          <Node pos="r" depth="2" NCoef="0" IVar="-1" Cut="0.0000000000000000e+00" cType="1" res="-9.9000000000000000e+01" rms="0.0000000000000000e+00" purity="4.2862850427627563e-01" nType="-1"/>
        </Node>
      </Node>
    </BinaryTree>
    <BinaryTree type="DecisionTree" boostWeight="1.6620287564292793e-01" itree="14">
      <Node pos="s" depth="0" NCoef="0" IVar="3" Cut="8.0999892950057983e-01" cType="1" res="-9.9000000000000000e+01" rms="0.0000000000000000e+00" purity="5.0555104017257690e-01" nType="0">
        <Node pos="l" depth="1" NCoef="0" IVar="5" Cut="6.7108225822448730e-01" cType="0" res="-9.9000000000000000e+01" rms="0.0000000000000000e+00" purity="5.3480601310729980e-01" nType="0">
          <Node pos="l" depth="2" NCoef="0" IVar="-1" Cut="0.0000000000000000e+00" cType="1" res="-9.9000000000000000e+01" rms="0.0000000000000000e+00" purity="6.4700543880462646e-01" nType="1"/>
          <Node pos="r" depth="2" NCoef="0" IVar="-1" Cut="0.0000000000000000e+00" cType="1" res="-9.9000000000000000e+01" rms="0.0000000000000000e+00" purity="4.9465069174766541e-01" nType="-1"/>
        </Node>
        <Node pos="r" depth="1" NCoef="0" IVar="-1" Cut="0.0000000000000000e+00" cType="1" res="-9.9000000000000000e+01" rms="0.0000000000000000e+00" purity="3.5850936174392700e-01" nType="-1"/>
      </Node>
    </BinaryTree>
    <BinaryTree type="DecisionTree" boostWeight="1.8354544732343667e-01" itree="15">
      <Node pos="s" depth="0" NCoef="0" IVar="6" Cut="-7.7655631303787231e-01" cType="1" res="-9.9000000000000000e+01" rms="0.0000000000000000e+00" purity="5.1569062471389771e-01" nType="0">
        <Node pos="l" depth="1" NCoef="0" IVar="-1" Cut="0.0000000000000000e+00" cType="1" res="-9.9000000000000000e+01" rms="0.0000000000000000e+00" purity="6.2927567958831787e-01" nType="1"/>
        <Node pos="r" depth="1" NCoef="0" IVar="2" Cut="-4.0682912804186344e-03" cType="0" res="-9.9000000000000000e+01" rms="0.0000000000000000e+00" purity="4.8610612750053406e-01" nType="0">
          <Node pos="l" depth="2" NCoef="0" IVar="-1" Cut="0.0000000000000000e+00" cType="1" res="-9.9000000000000000e+01" rms="0.0000000000000000e+00" purity="5.2524960041046143e-01" nType="1"/>
          <Node pos="r" depth="2" NCoef="0" IVar="-1" Cut="0.0000000000000000e+00" cType="1" res="-9.9000000000000000e+01" rms="0.0000000000000000e+00" purity="4.0099728107452393e-01" nType="-1"/>
        </Node>
      </Node>
    </BinaryTree>
    <BinaryTree type="DecisionTree" boostWeight="1.5494926625228395e-01" itree="16">
      <Node pos="s" depth="0" NCoef="0" IVar="6" Cut="-8.5202378034591675e-01" cType="1" res="-9.9000000000000000e+01" rms="0.0000000000000000e+00" purity="4.9164572358131409e-01" nType="0">
        <Node pos="l" depth="1" NCoef="0" IVar="-1" Cut="0.0000000000000000e+00" cType="1" res="-9.9000000000000000e+01" rms="0.0000000000000000e+00" purity="6.5464353561401367e-01" nType="1"/>
        <Node pos="r" depth="1" NCoef="0" IVar="-1" Cut="7.1580129861831665e-01" cType="1" res="-9.9000000000000000e+01" rms="0.0000000000000000e+00" purity="4.6261343359947205e-01" nType="-1"/>
      </Node>
    </BinaryTree>
    <BinaryTree type="DecisionTree" boostWeight="2.0156726059215258e-01" itree="17">
      <Node pos="s" depth="0" NCoef="0" IVar="3" Cut="7.0155525207519531e-01" cType="1" res="-9.9000000000000000e+01" rms="0.0000000000000000e+00" purity="5.1918578147888184e-01" nType="0">
        <Node pos="l" depth="1" NCoef="0" IVar="4" Cut="2.2635323926806450e-02" cType="1" res="-9.9000000000000000e+01" rms="0.0000000000000000e+00" purity="5.5833351612091064e-01" nType="0">
          <Node pos="l" depth="2" NCoef="0" IVar="-1" Cut="0.0000000000000000e+00" cType="1" res="-9.9000000000000000e+01" rms="0.0000000000000000e+00" purity="6.0959249734878540e-01" nType="1"/>
          <Node pos="r" depth="2" NCoef="0" IVar="-1" Cut="0.0000000000000000e+00" cType="1" res="-9.9000000000000000e+01" rms="0.0000000000000000e+00" purity="4.9592933058738708e-01" nType="-1"/>
        </Node>
        <Node pos="r" depth="1" NCoef="0" IVar="-1" Cut="0.0000000000000000e+00" cType="1" res="-9.9000000000000000e+01" rms="0.0000000000000000e+00" purity="3.9948886632919312e-01" nType="-1"/>
      </Node>
    </BinaryTree>
    <BinaryTree type="DecisionTree" boostWeight="2.2239061217498646e-01" itree="18">
      <Node pos="s" depth="0" NCoef="0" IVar="1" Cut="6.2337662093341351e-03" cType="1" res="-9.9000000000000000e+01" rms="0.0000000000000000e+00" purity="5.2561730146408081e-01" nType="0">
        <Node pos="l" depth="1" NCoef="0" IVar="1" Cut="-7.6675792224705219e-03" cType="0" res="-9.9000000000000000e+01" rms="0.0000000000000000e+00" purity="5.6009143590927124e-01" nType="0">
          <Node pos="l" depth="2" NCoef="0" IVar="-1" Cut="0.0000000000000000e+00" cType="1" res="-9.9000000000000000e+01" rms="0.0000000000000000e+00" purity="6.2015771865844727e-01" nType="1"/>
          <Node pos="r" depth="2" NCoef="0" IVar="-1" Cut="0.0000000000000000e+00" cType="1" res="-9.9000000000000000e+01" rms="0.0000000000000000e+00" purity="4.5947691798210144e-01" nType="-1"/>
        </Node>
        <Node pos="r" depth="1" NCoef="0" IVar="-1" Cut="0.0000000000000000e+00" cType="1" res="-9.9000000000000000e+01" rms="0.0000000000000000e+00" purity="4.4755762815475464e-01" nType="-1"/>
      </Node>
    </BinaryTree>
    <BinaryTree type="DecisionTree" boostWeight="2.2688140432637138e-01" itree="19">
      <Node pos="s" depth="0" NCoef="0" IVar="6" Cut="-8.3903777599334717e-01" cType="1" res="-9.9000000000000000e+01" rms="0.0000000000000000e+00" purity="5.3558337688446045e-01" nType="0">
        <Node pos="l" depth="1" NCoef="0" IVar="-1" Cut="0.0000000000000000e+00" cType="1" res="-9.9000000000000000e+01" rms="0.0000000000000000e+00" purity="6.5281635522842407e-01" nType="1"/>
        <Node pos="r" depth="1" NCoef="0" IVar="6" Cut="4.1119775176048279e-01" cType="0" res="-9.9000000000000000e+01" rms="0.0000000000000000e+00" purity="5.1064044237136841e-01" nType="0">
          <Node pos="l" depth="2" NCoef="0" IVar="-1" Cut="0.0000000000000000e+00" cType="1" res="-9.9000000000000000e+01" rms="0.0000000000000000e+00" purity="5.8463639020919800e-01" nType="1"/>
          <Node pos="r" depth="2" NCoef="0" IVar="-1" Cut="0.0000000000000000e+00" cType="1" res="-9.9000000000000000e+01" rms="0.0000000000000000e+00" purity="4.5100015401840210e-01" nType="-1"/>
        </Node>
      </Node>
    </BinaryTree>
    <BinaryTree type="DecisionTree" boostWeight="2.0636420525232579e-01" itree="20">
      <Node pos="s" depth="0" NCoef="0" IVar="3" Cut="7.3604756593704224e-01" cType="1" res="-9.9000000000000000e+01" rms="0.0000000000000000e+00" purity="5.1861339807510376e-01" nType="0">
        <Node pos="l" depth="1" NCoef="0" IVar="1" Cut="6.2624616548418999e-03" cType="1" res="-9.9000000000000000e+01" rms="0.0000000000000000e+00" purity="5.5106103420257568e-01" nType="0">
          <Node pos="l" depth="2" NCoef="0" IVar="-1" Cut="0.0000000000000000e+00" cType="1" res="-9.9000000000000000e+01" rms="0.0000000000000000e+00" purity="5.8438450098037720e-01" nType="1"/>
          <Node pos="r" depth="2" NCoef="0" IVar="-1" Cut="0.0000000000000000e+00" cType="1" res="-9.9000000000000000e+01" rms="0.0000000000000000e+00" purity="4.7587135434150696e-01" nType="-1"/>
        </Node>
        <Node pos="r" depth="1" NCoef="0" IVar="-1" Cut="0.0000000000000000e+00" cType="1" res="-9.9000000000000000e+01" rms="0.0000000000000000e+00" purity="4.0022176504135132e-01" nType="-1"/>
      </Node>
    </BinaryTree>
    <BinaryTree type="DecisionTree" boostWeight="2.2308173039345794e-01" itree="21">
      <Node pos="s" depth="0" NCoef="0" IVar="6" Cut="-6.7508012056350708e-01" cType="1" res="-9.9000000000000000e+01" rms="0.0000000000000000e+00" purity="5.0425207614898682e-01" nType="0">
        <Node pos="l" depth="1" NCoef="0" IVar="-1" Cut="0.0000000000000000e+00" cType="1" res="-9.9000000000000000e+01" rms="0.0000000000000000e+00" purity="5.9589374065399170e-01" nType="1"/>
        <Node pos="r" depth="1" NCoef="0" IVar="6" Cut="7.8318983316421509e-01" cType="0" res="-9.9000000000000000e+01" rms="0.0000000000000000e+00" purity="4.7089761495590210e-01" nType="0">
          <Node pos="l" depth="2" NCoef="0" IVar="-1" Cut="0.0000000000000000e+00" cType="1" res="-9.9000000000000000e+01" rms="0.0000000000000000e+00" purity="5.7301092147827148e-01" nType="1"/>
          <Node pos="r" depth="2" NCoef="0" IVar="-1" Cut="0.0000000000000000e+00" cType="1" res="-9.9000000000000000e+01" rms="0.0000000000000000e+00" purity="4.2720830440521240e-01" nType="-1"/>
        </Node>
      </Node>
    </BinaryTree>
    <BinaryTree type="DecisionTree" boostWeight="1.9214615564428511e-01" itree="22">
      <Node pos="s" depth="0" NCoef="0" IVar="2" Cut="-9.9995918571949005e-03" cType="0" res="-9.9000000000000000e+01" rms="0.0000000000000000e+00" purity="5.1551187038421631e-01" nType="0">
        <Node pos="l" depth="1" NCoef="0" IVar="2" Cut="6.5744076855480671e-03" cType="1" res="-9.9000000000000000e+01" rms="0.0000000000000000e+00" purity="5.4659038782119751e-01" nType="0">
          <Node pos="l" depth="2" NCoef="0" IVar="-1" Cut="0.0000000000000000e+00" cType="1" res="-9.9000000000000000e+01" rms="0.0000000000000000e+00" purity="6.0596746206283569e-01" nType="1"/>
          <Node pos="r" depth="2" NCoef="0" IVar="-1" Cut="0.0000000000000000e+00" cType="1" res="-9.9000000000000000e+01" rms="0.0000000000000000e+00" purity="4.7236421704292297e-01" nType="-1"/>
        </Node>
        <Node pos="r" depth="1" NCoef="0" IVar="-1" Cut="0.0000000000000000e+00" cType="1" res="-9.9000000000000000e+01" rms="0.0000000000000000e+00" purity="4.3908029794692993e-01" nType="-1"/>
      </Node>
    </BinaryTree>
    <BinaryTree type="DecisionTree" boostWeight="1.9953542915529524e-01" itree="23">
      <Node pos="s" depth="0" NCoef="0" IVar="1" Cut="-6.1755585484206676e-03" cType="0" res="-9.9000000000000000e+01" rms="0.0000000000000000e+00" purity="5.2828544378280640e-01" nType="0">
        <Node pos="l" depth="1" NCoef="0" IVar="1" Cut="7.8181838616728783e-03" cType="1" res="-9.9000000000000000e+01" rms="0.0000000000000000e+00" purity="5.5717772245407104e-01" nType="0">
          <Node pos="l" depth="2" NCoef="0" IVar="-1" Cut="0.0000000000000000e+00" cType="1" res="-9.9000000000000000e+01" rms="0.0000000000000000e+00" purity="6.1784684658050537e-01" nType="1"/>
          <Node pos="r" depth="2" NCoef="0" IVar="-1" Cut="0.0000000000000000e+00" cType="1" res="-9.9000000000000000e+01" rms="0.0000000000000000e+00" purity="4.6430790424346924e-01" nType="-1"/>
        </Node>
        <Node pos="r" depth="1" NCoef="0" IVar="-1" Cut="0.0000000000000000e+00" cType="1" res="-9.9000000000000000e+01" rms="0.0000000000000000e+00" purity="4.6247330307960510e-01" nType="-1"/>
      </Node>
    </BinaryTree>
    <BinaryTree type="DecisionTree" boostWeight="1.6033095937690370e-01" itree="24">
      <Node pos="s" depth="0" NCoef="0" IVar="5" Cut="4.3764057755470276e-01" cType="0" res="-9.9000000000000000e+01" rms="0.0000000000000000e+00" purity="5.1937580108642578e-01" nType="0">
        <Node pos="l" depth="1" NCoef="0" IVar="3" Cut="4.3956434726715088e-01" cType="1" res="-9.9000000000000000e+01" rms="0.0000000000000000e+00" purity="5.7477343082427979e-01" nType="0">
          <Node pos="l" depth="2" NCoef="0" IVar="-1" Cut="0.0000000000000000e+00" cType="1" res="-9.9000000000000000e+01" rms="0.0000000000000000e+00" purity="6.3565355539321899e-01" nType="1"/>
          <Node pos="r" depth="2" NCoef="0" IVar="-1" Cut="0.0000000000000000e+00" cType="1" res="-9.9000000000000000e+01" rms="0.0000000000000000e+00" purity="4.9579796195030212e-01" nType="-1"/>
        </Node>
        <Node pos="r" depth="1" NCoef="0" IVar="6" Cut="-3.1463903188705444e-01" cType="1" res="-9.9000000000000000e+01" rms="0.0000000000000000e+00" purity="4.8961588740348816e-01" nType="0">
          <Node pos="l" depth="2" NCoef="0" IVar="-1" Cut="0.0000000000000000e+00" cType="1" res="-9.9000000000000000e+01" rms="0.0000000000000000e+00" purity="5.2877694368362427e-01" nType="1"/>
          <Node pos="r" depth="2" NCoef="0" IVar="-1" Cut="0.0000000000000000e+00" cType="1" res="-9.9000000000000000e+01" rms="0.0000000000000000e+00" purity="4.2830494046211243e-01" nType="-1"/>
        </Node>
      </Node>
    </BinaryTree>
    <BinaryTree type="DecisionTree" boostWeight="1.4963114126934351e-01" itree="25">
      <Node pos="s" depth="0" NCoef="0" IVar="3" Cut="7.1404272317886353e-01" cType="1" res="-9.9000000000000000e+01" rms="0.0000000000000000e+00" purity="5.2799075841903687e-01" nType="0">
        <Node pos="l" depth="1" NCoef="0" IVar="0" Cut="7.2042673826217651e-02" cType="0" res="-9.9000000000000000e+01" rms="0.0000000000000000e+00" purity="5.4812127351760864e-01" nType="0">
          <Node pos="l" depth="2" NCoef="0" IVar="-1" Cut="0.0000000000000000e+00" cType="1" res="-9.9000000000000000e+01" rms="0.0000000000000000e+00" purity="5.7149970531463623e-01" nType="1"/>
          <Node pos="r" depth="2" NCoef="0" IVar="-1" Cut="0.0000000000000000e+00" cType="1" res="-9.9000000000000000e+01" rms="0.0000000000000000e+00" purity="4.8425471782684326e-01" nType="-1"/>
        </Node>
        <Node pos="r" depth="1" NCoef="0" IVar="-1" Cut="0.0000000000000000e+00" cType="1" res="-9.9000000000000000e+01" rms="0.0000000000000000e+00" purity="4.5826995372772217e-01" nType="-1"/>
      </Node>
    </BinaryTree>
    <BinaryTree type="DecisionTree" boostWeight="2.1333664921075357e-01" itree="26">
      <Node pos="s" depth="0" NCoef="0" IVar="6" Cut="6.0608065128326416e-01" cType="0" res="-9.9000000000000000e+01" rms="0.0000000000000000e+00" purity="5.2120733261108398e-01" nType="0">
        <Node pos="l" depth="1" NCoef="0" IVar="-1" Cut="0.0000000000000000e+00" cType="1" res="-9.9000000000000000e+01" rms="0.0000000000000000e+00" purity="6.0328555107116699e-01" nType="1"/>
        <Node pos="r" depth="1" NCoef="0" IVar="6" Cut="-4.1917622089385986e-01" cType="1" res="-9.9000000000000000e+01" rms="0.0000000000000000e+00" purity="4.8760947585105896e-01" nType="0">
          <Node pos="l" depth="2" NCoef="0" IVar="-1" Cut="0.0000000000000000e+00" cType="1" res="-9.9000000000000000e+01" rms="0.0000000000000000e+00" purity="5.4770672321319580e-01" nType="1"/>
          <Node pos="r" depth="2" NCoef="0" IVar="-1" Cut="0.0000000000000000e+00" cType="1" res="-9.9000000000000000e+01" rms="0.0000000000000000e+00" purity="4.1596865653991699e-01" nType="-1"/>
        </Node>
      </Node>
    </BinaryTree>
    <BinaryTree type="DecisionTree" boostWeight="1.5698129118172813e-01" itree="27">
      <Node pos="s" depth="0" NCoef="0" IVar="0" Cut="1.1631772667169571e-01" cType="0" res="-9.9000000000000000e+01" rms="0.0000000000000000e+00" purity="5.1551687717437744e-01" nType="0">
        <Node pos="l" depth="1" NCoef="0" IVar="-1" Cut="0.0000000000000000e+00" cType="1" res="-9.9000000000000000e+01" rms="0.0000000000000000e+00" purity="6.3358539342880249e-01" nType="1"/>
        <Node pos="r" depth="1" NCoef="0" IVar="3" Cut="5.3210365772247314e-01" cType="1" res="-9.9000000000000000e+01" rms="0.0000000000000000e+00" purity="4.9276533722877502e-01" nType="0">
          <Node pos="l" depth="2" NCoef="0" IVar="-1" Cut="0.0000000000000000e+00" cType="1" res="-9.9000000000000000e+01" rms="0.0000000000000000e+00" purity="5.2747720479965210e-01" nType="1"/>
          <Node pos="r" depth="2" NCoef="0" IVar="-1" Cut="0.0000000000000000e+00" cType="1" res="-9.9000000000000000e+01" rms="0.0000000000000000e+00" purity="4.3809306621551514e-01" nType="-1"/>
        </Node>
      </Node>
    </BinaryTree>
    <BinaryTree type="DecisionTree" boostWeight="1.6366654695890845e-01" itree="28">
      <Node pos="s" depth="0" NCoef="0" IVar="4" Cut="2.3388987407088280e-02" cType="1" res="-9.9000000000000000e+01" rms="0.0000000000000000e+00" purity="5.0572568178176880e-01" nType="0">
        <Node pos="l" depth="1" NCoef="0" IVar="2" Cut="1.9865562207996845e-03" cType="1" res="-9.9000000000000000e+01" rms="0.0000000000000000e+00" purity="5.4512411355972290e-01" nType="0">
          <Node pos="l" depth="2" NCoef="0" IVar="-1" Cut="0.0000000000000000e+00" cType="1" res="-9.9000000000000000e+01" rms="0.0000000000000000e+00" purity="5.9087103605270386e-01" nType="1"/>
          <Node pos="r" depth="2" NCoef="0" IVar="-1" Cut="0.0000000000000000e+00" cType="1" res="-9.9000000000000000e+01" rms="0.0000000000000000e+00" purity="4.8976552486419678e-01" nType="-1"/>
        </Node>
        <Node pos="r" depth="1" NCoef="0" IVar="-1" Cut="0.0000000000000000e+00" cType="1" res="-9.9000000000000000e+01" rms="0.0000000000000000e+00" purity="4.3498635292053223e-01" nType="-1"/>
      </Node>
    </BinaryTree>
    <BinaryTree type="DecisionTree" boostWeight="1.2337466299603451e-01" itree="29">
      <Node pos="s" depth="0" NCoef="0" IVar="1" Cut="-5.8609889820218086e-03" cType="0" res="-9.9000000000000000e+01" rms="0.0000000000000000e+00" purity="4.9773636460304260e-01" nType="0">
        <Node pos="l" depth="1" NCoef="0" IVar="6" Cut="-9.0727947652339935e-02" cType="1" res="-9.9000000000000000e+01" rms="0.0000000000000000e+00" purity="5.2475357055664062e-01" nType="0">
          <Node pos="l" depth="2" NCoef="0" IVar="-1" Cut="0.0000000000000000e+00" cType="1" res="-9.9000000000000000e+01" rms="0.0000000000000000e+00" purity="6.3167595863342285e-01" nType="1"/>
          <Node pos="r" depth="2" NCoef="0" IVar="-1" Cut="0.0000000000000000e+00" cType="1" res="-9.9000000000000000e+01" rms="0.0000000000000000e+00" purity="4.9235239624977112e-01" nType="-1"/>
        </Node>
        <Node pos="r" depth="1" NCoef="0" IVar="-1" Cut="0.0000000000000000e+00" cType="1" res="-9.9000000000000000e+01" rms="0.0000000000000000e+00" purity="4.4015952944755554e-01" nType="-1"/>
      </Node>
    </BinaryTree>
    <BinaryTree type="DecisionTree" boostWeight="2.2050857667756704e-01" itree="30">
      <Node pos="s" depth="0" NCoef="0" IVar="6" Cut="5.8559477329254150e-01" cType="0" res="-9.9000000000000000e+01" rms="0.0000000000000000e+00" purity="5.5480062961578369e-01" nType="0">
        <Node pos="l" depth="1" NCoef="0" IVar="-1" Cut="0.0000000000000000e+00" cType="1" res="-9.9000000000000000e+01" rms="0.0000000000000000e+00" purity="6.1573296785354614e-01" nType="1"/>
        <Node pos="r" depth="1" NCoef="0" IVar="6" Cut="-6.0137492418289185e-01" cType="1" res="-9.9000000000000000e+01" rms="0.0000000000000000e+00" purity="5.2697610855102539e-01" nType="0">
          <Node pos="l" depth="2" NCoef="0" IVar="-1" Cut="0.0000000000000000e+00" cType="1" res="-9.9000000000000000e+01" rms="0.0000000000000000e+00" purity="6.0293281078338623e-01" nType="1"/>
          <Node pos="r" depth="2" NCoef="0" IVar="-1" Cut="0.0000000000000000e+00" cType="1" res="-9.9000000000000000e+01" rms="0.0000000000000000e+00" purity="4.7037482261657715e-01" nType="-1"/>
        </Node>
      </Node>
    </BinaryTree>
    <BinaryTree type="DecisionTree" boostWeight="1.3997773455461421e-01" itree="31">
      <Node pos="s" depth="0" NCoef="0" IVar="1" Cut="-4.7073895111680031e-03" cType="0" res="-9.9000000000000000e+01" rms="0.0000000000000000e+00" purity="5.0610780715942383e-01" nType="0">
        <Node pos="l" depth="1" NCoef="0" IVar="1" Cut="3.1914245337247849e-03" cType="1" res="-9.9000000000000000e+01" rms="0.0000000000000000e+00" purity="5.3878694772720337e-01" nType="0">
          <Node pos="l" depth="2" NCoef="0" IVar="-1" Cut="0.0000000000000000e+00" cType="1" res="-9.9000000000000000e+01" rms="0.0000000000000000e+00" purity="5.9908527135848999e-01" nType="1"/>
          <Node pos="r" depth="2" NCoef="0" IVar="-1" Cut="0.0000000000000000e+00" cType="1" res="-9.9000000000000000e+01" rms="0.0000000000000000e+00" purity="4.9375429749488831e-01" nType="-1"/>
        </Node>
        <Node pos="r" depth="1" NCoef="0" IVar="-1" Cut="0.0000000000000000e+00" cType="1" res="-9.9000000000000000e+01" rms="0.0000000000000000e+00" purity="4.4261994957923889e-01" nType="-1"/>
      </Node>
    </BinaryTree>
    <BinaryTree type="DecisionTree" boostWeight="1.8614641143859897e-01" itree="32">
      <Node pos="s" depth="0" NCoef="0" IVar="4" Cut="4.8480210825800896e-03" cType="1" res="-9.9000000000000000e+01" rms="0.0000000000000000e+00" purity="5.3134673833847046e-01" nType="0">
        <Node pos="l" depth="1" NCoef="0" IVar="-1" Cut="0.0000000000000000e+00" cType="1" res="-9.9000000000000000e+01" rms="0.0000000000000000e+00" purity="6.2180417776107788e-01" nType="1"/>
        <Node pos="r" depth="1" NCoef="0" IVar="3" Cut="5.1004338264465332e-01" cType="1" res="-9.9000000000000000e+01" rms="0.0000000000000000e+00" purity="5.0388300418853760e-01" nType="0">
          <Node pos="l" depth="2" NCoef="0" IVar="-1" Cut="0.0000000000000000e+00" cType="1" res="-9.9000000000000000e+01" rms="0.0000000000000000e+00" purity="5.3344660997390747e-01" nType="1"/>
          <Node pos="r" depth="2" NCoef="0" IVar="-1" Cut="0.0000000000000000e+00" cType="1" res="-9.9000000000000000e+01" rms="0.0000000000000000e+00" purity="3.9048480987548828e-01" nType="-1"/>
        </Node>
      </Node>
    </BinaryTree>
    <BinaryTree type="DecisionTree" boostWeight="1.5424619367759212e-01" itree="33">
      <Node pos="s" depth="0" NCoef="0" IVar="1" Cut="-4.0441001765429974e-03" cType="0" res="-9.9000000000000000e+01" rms="0.0000000000000000e+00" purity="5.1176214218139648e-01" nType="0">
        <Node pos="l" depth="1" NCoef="0" IVar="3" Cut="4.7361841797828674e-01" cType="1" res="-9.9000000000000000e+01" rms="0.0000000000000000e+00" purity="5.4891270399093628e-01" nType="0">
          <Node pos="l" depth="2" NCoef="0" IVar="-1" Cut="0.0000000000000000e+00" cType="1" res="-9.9000000000000000e+01" rms="0.0000000000000000e+00" purity="5.8922958374023438e-01" nType="1"/>
          <Node pos="r" depth="2" NCoef="0" IVar="-1" Cut="0.0000000000000000e+00" cType="1" res="-9.9000000000000000e+01" rms="0.0000000000000000e+00" purity="4.9129334092140198e-01" nType="-1"/>
        </Node>
        <Node pos="r" depth="1" NCoef="0" IVar="-1" Cut="0.0000000000000000e+00" cType="1" res="-9.9000000000000000e+01" rms="0.0000000000000000e+00" purity="4.4724407792091370e-01" nType="-1"/>
      </Node>
    </BinaryTree>
    <BinaryTree type="DecisionTree" boostWeight="1.5688697350717695e-01" itree="34">
      <Node pos="s" depth="0" NCoef="0" IVar="0" Cut="1.1167801916599274e-01" cType="0" res="-9.9000000000000000e+01" rms="0.0000000000000000e+00" purity="5.0867271423339844e-01" nType="0">
        <Node pos="l" depth="1" NCoef="0" IVar="-1" Cut="0.0000000000000000e+00" cType="1" res="-9.9000000000000000e+01" rms="0.0000000000000000e+00" purity="5.9043949842453003e-01" nType="1"/>
        <Node pos="r" depth="1" NCoef="0" IVar="4" Cut="1.1690419167280197e-02" cType="1" res="-9.9000000000000000e+01" rms="0.0000000000000000e+00" purity="4.9062550067901611e-01" nType="0">
          <Node pos="l" depth="2" NCoef="0" IVar="-1" Cut="0.0000000000000000e+00" cType="1" res="-9.9000000000000000e+01" rms="0.0000000000000000e+00" purity="5.3676789999008179e-01" nType="1"/>
          <Node pos="r" depth="2" NCoef="0" IVar="-1" Cut="0.0000000000000000e+00" cType="1" res="-9.9000000000000000e+01" rms="0.0000000000000000e+00" purity="4.3914833664894104e-01" nType="-1"/>
        </Node>
      </Node>
    </BinaryTree>
    <BinaryTree type="DecisionTree" boostWeight="1.4328841355717808e-01" itree="35">
      <Node pos="s" depth="0" NCoef="0" IVar="4" Cut="1.1693779379129410e-02" cType="1" res="-9.9000000000000000e+01" rms="0.0000000000000000e+00" purity="5.1446199417114258e-01" nType="0">
        <Node pos="l" depth="1" NCoef="0" IVar="-1" Cut="3.3873382490128279e-03" cType="1" res="-9.9000000000000000e+01" rms="0.0000000000000000e+00" purity="5.7104432582855225e-01" nType="1"/>
